const Model2 = {"version":"0.5.4","metadata":{"date":{"year":2025,"month":10,"day":23,"hour":23,"minute":4,"second":18},"loudness":-21.37985610961914,"gain":0.31303299738304663,"name":"BEFSBFGwsaegvb","modeled_by":"olasplaysguitar","gear_type":"pedal","gear_make":"tz-make","gear_model":"tz-model","tone_type":"overdrive","input_level_dbu":null,"output_level_dbu":null,"training":{"settings":{"ignore_checks":false},"data":{"latency":{"manual":null,"calibration":{"algorithm_version":1,"delays":[-26],"safety_factor":1,"recommended":-27,"warnings":{"matches_lookahead":false,"disagreement_too_high":false}}},"checks":{"version":3,"passed":true}},"validation_esr":0.038014542127669845}},"architecture":"WaveNet","config":{"layers":[{"input_size":1,"condition_size":1,"head_size":8,"channels":16,"kernel_size":3,"dilations":[1,2,4,8,16,32,64,128,256,512],"activation":"Tanh","gated":false,"head_bias":false},{"input_size":16,"condition_size":1,"head_size":1,"channels":8,"kernel_size":3,"dilations":[1,2,4,8,16,32,64,128,256,512],"activation":"Tanh","gated":false,"head_bias":true}],"head":null,"head_scale":0.02},"weights":[-0.0065432037226855755,0.5982234477996826,-0.8892323970794678,-0.8293328285217285,-0.30777662992477417,0.12961603701114655,-0.0009608388063497841,0.859093427658081,-0.06516683846712112,0.2067198008298874,-0.36033374071121216,-0.2293279618024826,-0.9993590116500854,-0.6392836570739746,-0.4267890751361847,-0.005432729609310627,0.14631971716880798,-0.05338353291153908,-0.11029206216335297,-0.2423321157693863,0.1501140594482422,0.12614265084266663,0.147335946559906,0.011409495025873184,-0.029346313327550888,0.1968848705291748,0.033687472343444824,-0.13841474056243896,0.08267060667276382,-0.12416888028383255,-0.05533313751220703,-0.0389496386051178,-0.006954847369343042,-0.07145131379365921,-0.03656024485826492,-0.19017325341701508,-0.05568083003163338,-0.052559178322553635,0.15612010657787323,0.07281862199306488,0.2033587247133255,-0.1617150455713272,0.0391845628619194,-0.29919469356536865,-0.006431029178202152,-0.07011304795742035,0.26456430554389954,-0.009457921609282494,-0.06901117414236069,0.16734980046749115,-0.004428313113749027,0.13744518160820007,0.23394709825515747,-0.07326193153858185,0.09343639761209488,0.09010351449251175,-0.06535017490386963,-0.11420659720897675,0.07469204813241959,-0.16405022144317627,0.06553103029727936,0.06281246244907379,-0.09385774284601212,0.08272005617618561,0.028892409056425095,0.04133322089910507,-0.12062973529100418,0.10079264640808105,-0.02682875469326973,0.2162962406873703,-0.1760360449552536,0.06737131625413895,-0.016976632177829742,0.052052948623895645,0.24325023591518402,0.048536233603954315,-0.037794891744852066,-0.01460269745439291,-0.06225384771823883,-0.03226488083600998,-0.24340620636940002,0.2028873711824417,0.04236697778105736,-0.08384322375059128,-0.05023622140288353,0.04543663561344147,-0.139808788895607,0.009866139851510525,-0.032617028802633286,-0.0013635645154863596,-0.06020527705550194,0.14355355501174927,-0.0037022533360868692,0.13437092304229736,-0.2216009944677353,0.014586013741791248,-0.012717836536467075,-0.04906675964593887,-0.009016811847686768,-0.17419353127479553,0.06843875348567963,0.21468836069107056,-0.1377248466014862,-0.10474216938018799,-0.022570570930838585,-0.07907599955797195,-0.18403539061546326,-0.0011666998034343123,-0.08893893659114838,-0.011205742135643959,-0.06693106144666672,0.024797311052680016,-0.0780409723520279,0.03270989656448364,0.24616801738739014,-0.11318833380937576,0.06074950471520424,-0.13485872745513916,0.008168063126504421,-0.06705756485462189,0.19156384468078613,-0.0012721860548481345,-0.16979965567588806,0.2085517793893814,-0.1372300088405609,-0.17353086173534393,0.1084117665886879,-0.06137183681130409,0.04757777974009514,-0.2480776309967041,-0.004358675796538591,-0.03314024955034256,0.016564249992370605,0.0004178374365437776,0.2010580599308014,-0.15184785425662994,0.04029583930969238,-0.07325392216444016,0.22158479690551758,0.08259691298007965,0.21884645521640778,-0.06039663404226303,0.14028134942054749,-0.09858531504869461,0.018006762489676476,-0.06294217705726624,0.011991060338914394,0.15092019736766815,-0.08156931400299072,-0.21002796292304993,0.0007088443962857127,-0.128279909491539,-0.125494584441185,0.21754062175750732,0.07790261507034302,-0.22986775636672974,0.23247797787189484,-0.07169178873300552,-0.05262647196650505,-0.03298939764499664,0.006318504922091961,0.09415613859891891,-0.2635044455528259,-0.18345867097377777,-0.1523987203836441,0.1159646213054657,-0.003010996151715517,0.1889270842075348,-0.23775942623615265,0.0509173758327961,0.2603161633014679,-0.17183780670166016,0.17686696350574493,0.17288890480995178,-0.24869857728481293,0.03242973983287811,-0.15159644186496735,0.03695050626993179,0.09829467535018921,-0.043800387531518936,-0.10062514990568161,-0.0874176099896431,-0.028723767027258873,0.14984282851219177,0.0877140536904335,0.1476072520017624,-0.19985254108905792,-0.06917180120944977,-0.23471522331237793,0.20468774437904358,0.16028764843940735,0.2204783409833908,-0.22290082275867462,0.049577098339796066,0.01727384142577648,-0.2055196762084961,-0.0247163288295269,0.18289074301719666,-0.19443349540233612,0.05264139920473099,0.13654547929763794,-0.018244555220007896,-0.06016821786761284,0.02576366625726223,-0.19927789270877838,0.07676462084054947,-0.013179152272641659,0.10265806317329407,0.09001539647579193,0.07253945618867874,-0.14037702977657318,-0.14422623813152313,-0.06266339123249054,0.056023720651865005,0.11776047945022583,0.10319067537784576,-0.19664449989795685,0.04265190288424492,0.2013218104839325,-0.2044723778963089,0.09245773404836655,0.2157340794801712,-0.041325680911540985,-0.10906743258237839,-0.21425268054008484,0.14633220434188843,-0.014184846542775631,0.06509655714035034,-0.07335978001356125,-0.13534225523471832,-0.080244280397892,0.20530414581298828,0.09889635443687439,0.18626929819583893,-0.043431803584098816,-0.18574421107769012,-0.0020882408134639263,0.00014803068188484758,0.04357001930475235,0.11612935364246368,-0.04824627563357353,0.20975850522518158,0.025246044620871544,-0.09902330487966537,0.1901308000087738,-0.05592673644423485,0.019387638196349144,-0.00664772093296051,0.08353012055158615,-0.11164045333862305,0.029943082481622696,0.09433658421039581,0.027147656306624413,-0.08271707594394684,-0.1087827980518341,-0.09817882627248764,-0.09977534413337708,-0.02765364572405815,0.059566620737314224,-0.1274786740541458,0.06941511482000351,0.02192148007452488,0.10391034930944443,-0.04724833741784096,0.10770624876022339,-0.017974980175495148,-0.19585782289505005,0.10358894616365433,0.15646854043006897,-0.10448361188173294,-0.003292682347819209,-0.09931053221225739,0.007759672589600086,-0.029561931267380714,-0.008203607052564621,-0.20365053415298462,0.2348811775445938,-0.12659870088100433,0.1382961869239807,-0.01662379875779152,0.07345068454742432,-0.20733913779258728,-0.00031062797643244267,0.07083748281002045,0.16200809180736542,0.046315062791109085,-0.005280088633298874,-0.102403923869133,0.036149609833955765,0.04003749042749405,-0.22591890394687653,0.12582097947597504,0.07619726657867432,-0.15923717617988586,0.024341680109500885,-0.055893782526254654,-0.05308305472135544,-0.04753534123301506,0.09859170019626617,-0.19665028154850006,-0.005227681249380112,0.017274055629968643,-0.160971000790596,0.011637204326689243,0.0048798490315675735,-0.13604161143302917,0.12006089091300964,0.09794120490550995,-0.02242659218609333,-0.12473626434803009,-0.15606087446212769,0.05513978376984596,0.15416425466537476,-0.09078937768936157,0.1317061185836792,0.20285853743553162,-0.10360261797904968,0.07471412420272827,0.16306644678115845,0.035713423043489456,-0.04243503883481026,-0.08547993004322052,-0.15985484421253204,-0.07342340052127838,0.10354466736316681,0.16436617076396942,0.005783760920166969,-0.08453506231307983,0.0501839704811573,0.0006963892374187708,0.011702777817845345,-0.10584299266338348,0.06646925210952759,-0.019085600972175598,-0.1328551024198532,0.13479846715927124,0.2138717621564865,0.10928510129451752,0.19856324791908264,0.2175372987985611,-0.06790754944086075,0.026751011610031128,0.22236214578151703,0.04772688448429108,-0.011549257673323154,0.2332736849784851,0.03719033673405647,0.1551811248064041,0.011601691134274006,-0.004178611095994711,-0.14254409074783325,0.06584315747022629,-0.17875388264656067,0.0734383761882782,-0.08011054247617722,0.23125062882900238,-0.10241665691137314,0.12632377445697784,-0.2699606716632843,0.08387817442417145,-0.15534935891628265,-0.315752238035202,-0.06570692360401154,0.0545455738902092,-0.07912823557853699,0.190480574965477,0.06485798209905624,0.03355414792895317,-0.13589702546596527,0.045680977404117584,-0.14555181562900543,0.14536212384700775,-0.15718773007392883,0.09673567861318588,-0.19030319154262543,-0.02505967579782009,-0.04595169797539711,0.18032288551330566,0.055555496364831924,0.26485675573349,0.06908482313156128,0.0101378308609128,-0.09567252546548843,0.18752409517765045,-0.0010880070040002465,-0.014208014123141766,0.13367639482021332,0.038974579423666,-0.2195817530155182,0.11851227283477783,-0.04197719693183899,-0.2004382312297821,-0.03061244823038578,-0.13754664361476898,-0.270466148853302,0.15277232229709625,0.051588889211416245,-0.0862206220626831,-0.13921771943569183,0.05346296355128288,0.07163821160793304,-0.16440647840499878,0.08977746963500977,0.1520000845193863,0.2544897794723511,-0.2592525780200958,0.11535083502531052,-0.09009569138288498,0.09126569330692291,0.060219068080186844,-0.2805372476577759,0.12685908377170563,0.11234818398952484,-0.1784784197807312,0.05021648854017258,-0.03031875379383564,0.15230385959148407,-0.16861790418624878,0.02552983909845352,0.00553437415510416,0.1323302984237671,-0.07168713957071304,0.2021348923444748,-0.07697901874780655,0.08789999783039093,-0.2931370139122009,0.174417182803154,-0.10356049984693527,0.11667146533727646,-0.10783250629901886,-0.10960036516189575,-0.13142220675945282,0.27959051728248596,0.006161466706544161,-0.27703097462654114,0.11241000890731812,0.011634761467576027,-0.30695462226867676,0.21649311482906342,-0.14776261150836945,-0.33209383487701416,0.007450340315699577,-0.03837953135371208,-0.08893974870443344,0.01660633273422718,0.11419782042503357,-0.0989852100610733,0.07315899431705475,0.08826819807291031,-0.12637241184711456,0.2625953257083893,0.05428064614534378,0.19816617667675018,0.010496402159333229,-0.07570072263479233,0.060842931270599365,0.06499918550252914,0.09023451060056686,-0.1734876036643982,0.01943935826420784,-0.11875297874212265,-0.11354058980941772,0.09011994302272797,-0.1326647847890854,0.10591454803943634,0.022153092548251152,0.13091902434825897,-0.0642152801156044,0.022725749760866165,-0.06779462099075317,0.12173668295145035,0.0842265859246254,0.13107044994831085,-0.04710669815540314,0.14585833251476288,-0.17210343480110168,-0.07186099141836166,0.0011569401249289513,-0.050404615700244904,0.0182200837880373,-0.035986609756946564,-0.035734955221414566,-0.16484664380550385,0.14795781672000885,0.007125563453882933,0.05179253965616226,0.1469089835882187,0.10298079997301102,-0.05360183119773865,0.014306269586086273,-0.005977469030767679,-0.038235630840063095,0.13091783225536346,-0.08770816028118134,0.07116645574569702,-0.032759055495262146,-0.21130353212356567,-0.14571993052959442,0.14427103102207184,0.26262062788009644,-0.06479010730981827,0.06635884940624237,-0.06220508739352226,0.012182013131678104,0.15249115228652954,-0.21015402674674988,-0.025962045416235924,0.09252065420150757,-0.1619475781917572,-0.01425119861960411,-0.002282447647303343,0.22063739597797394,0.03760918602347374,-0.07450664788484573,-0.00926203839480877,0.012472954578697681,-0.04724984988570213,0.14269521832466125,0.15391623973846436,-0.047118041664361954,-0.047013621777296066,-0.07332823425531387,0.11979518830776215,0.0057021016255021095,-0.02970394864678383,-0.11995773017406464,0.01413505058735609,-0.09851600974798203,0.043301764875650406,-0.18660733103752136,0.0849713459610939,0.18504849076271057,-0.24043822288513184,-0.18886953592300415,-0.07803259789943695,-0.128377303481102,-0.10574032366275787,-0.06058317422866821,-0.17292983829975128,-0.035844605416059494,-0.0364055261015892,0.07682202011346817,0.0009177284082397819,-0.02866172417998314,-0.024291867390275,0.14174410700798035,0.07395534962415695,0.18552890419960022,-0.025369727984070778,0.006980834994465113,-0.31745022535324097,-0.16884975135326385,0.2729041874408722,-0.272257924079895,-0.003193344222381711,0.12081580609083176,-0.19933824241161346,-0.058486856520175934,0.22501212358474731,0.17367790639400482,-0.10264503210783005,-0.1997777372598648,-0.1781693696975708,0.00828520581126213,-0.0572565495967865,0.31449103355407715,-0.0031826666090637445,-0.15687409043312073,-0.04504332318902016,0.04888107255101204,0.27502959966659546,0.2411317229270935,-0.02782880887389183,-0.23794516921043396,-0.1797015219926834,0.10007820278406143,0.09262467920780182,-0.2937949299812317,0.045320916920900345,0.288743793964386,-0.220394104719162,-0.15009944140911102,-0.001066913246177137,-0.1399589329957962,-0.040182843804359436,0.058105386793613434,-0.1413998305797577,0.03212873637676239,0.2507896423339844,0.12691140174865723,-0.004935013595968485,-0.13343314826488495,0.02342364564538002,0.2149759978055954,-0.007680220529437065,-0.0618913359940052,-0.17673411965370178,0.20533043146133423,0.2596980631351471,0.1822124421596527,-0.19240614771842957,0.07342052459716797,-0.04516313970088959,0.06419225037097931,0.05223504826426506,-0.019876236096024513,0.000778075132984668,-0.18722552061080933,-0.12535008788108826,0.04985721781849861,0.03880929574370384,-0.08573687076568604,0.04128075763583183,-0.18570776283740997,-0.0021448368206620216,0.1949370950460434,0.20054587721824646,0.06502121686935425,0.020053805783391,-0.09475457668304443,-0.11222011595964432,0.21591351926326752,0.1494905650615692,-0.09423650801181793,-0.11927442997694016,0.015295594930648804,0.16956210136413574,-0.10695932060480118,-0.0075681754387915134,0.045357730239629745,0.021939294412732124,0.1590990424156189,0.09814677387475967,-0.05770593509078026,0.16764865815639496,0.011619077995419502,-0.13417331874370575,-0.06371433287858963,-0.06755265593528748,0.06990715116262436,-0.03994765132665634,0.14078891277313232,-0.09397885203361511,-0.055229637771844864,-0.22450841963291168,0.27397891879081726,-0.014895083382725716,0.25519517064094543,-0.24612289667129517,0.03244486078619957,0.21330726146697998,-0.1955186426639557,0.1745544672012329,0.022047050297260284,-0.26029568910598755,-0.12855897843837738,-0.11386304348707199,0.2593643367290497,-0.06379316747188568,0.14666473865509033,-0.16576838493347168,-0.09546738117933273,-0.027003474533557892,0.020756546407938004,0.043405164033174515,0.23380351066589355,-0.20247884094715118,0.06422693282365799,-0.16215038299560547,0.2621598243713379,-0.08661134541034698,0.10240459442138672,-0.17015263438224792,0.09521441161632538,0.17539255321025848,-0.0406474843621254,0.044767241925001144,0.1293220818042755,-0.032671522349119186,0.023626018315553665,0.25858375430107117,-0.23058268427848816,0.03968697413802147,0.1178961768746376,-0.07570140063762665,0.09000848233699799,0.01740029826760292,-0.15403202176094055,0.04410839453339577,-0.013721441850066185,0.10104327648878098,-0.06843521445989609,0.12046976387500763,0.058916836977005005,-0.0098529988899827,-0.1655060201883316,0.17675244808197021,-0.1287960559129715,0.0033918293192982674,0.09934280812740326,-0.0790015310049057,0.02675829641520977,-0.04985976964235306,0.05455376207828522,-0.050443269312381744,-0.07904606312513351,0.00873547699302435,0.059502072632312775,-0.03223244100809097,0.11243847757577896,0.010795611888170242,-0.1446549892425537,-0.1255010962486267,-0.14173725247383118,0.2442372441291809,-0.026064103469252586,0.029154209420084953,-0.04330947622656822,0.08389327675104141,0.10031536221504211,0.20068663358688354,-0.11685944348573685,-0.043508902192115784,0.0016888896934688091,-0.10328130424022675,0.003931147046387196,0.21094392240047455,-0.1342337429523468,0.05837489292025566,0.002140493132174015,-0.04240074381232262,0.09020958095788956,0.048618245869874954,-0.02090371958911419,-0.12087727338075638,0.14656834304332733,0.15989342331886292,-0.08025679737329483,0.011221656575798988,-0.37102171778678894,-0.061528779566287994,0.21221555769443512,0.3817675709724426,-0.09568583965301514,-0.13500246405601501,0.3938048183917999,0.04388272017240524,-0.2771487832069397,0.23882795870304108,-0.0998302549123764,-0.3130999803543091,-0.25923123955726624,0.13826169073581696,0.2782691717147827,0.21277804672718048,0.06630948185920715,-0.048618149012327194,-0.15916895866394043,-0.005636158399283886,0.10091131180524826,0.2637368142604828,0.03810089826583862,-0.32420614361763,-0.11620484292507172,0.11467018723487854,0.09864111244678497,0.2312416434288025,0.06486434489488602,-0.31685519218444824,0.21982413530349731,-0.006994465831667185,-0.32358449697494507,0.34655630588531494,0.02161886915564537,-0.11060042679309845,0.17204485833644867,0.08925383538007736,-0.2841236889362335,0.40632179379463196,-0.19809558987617493,-0.3305099308490753,0.005193819757550955,-0.1814206838607788,-0.1433185338973999,-0.06668075174093246,-0.1375776082277298,-0.06046011671423912,-0.1410975158214569,0.05148184299468994,0.0965016707777977,-0.017536386847496033,-0.017445288598537445,0.09337980300188065,0.13651376962661743,-0.05314234644174576,0.0044327094219625,-0.09003861248493195,-0.04799625650048256,-0.022525638341903687,-0.008163130842149258,0.4461006820201874,-0.35810694098472595,0.6695169806480408,-0.6018953323364258,0.08028361946344376,0.8493431806564331,0.8928403258323669,-0.5156214237213135,0.041360486298799515,0.06553126126527786,-0.4924738109111786,-0.46809884905815125,0.33318760991096497,-0.5721672177314758,0.09516283869743347,0.6274247169494629,-0.10444602370262146,0.14498017728328705,-0.04372410848736763,0.12422288954257965,0.17865009605884552,-0.045351527631282806,0.011533527635037899,0.019759565591812134,-0.005751052405685186,-0.021998194977641106,-0.03499762713909149,-0.1183081567287445,0.04252668842673302,0.041863154619932175,0.10872111469507217,0.0765623226761818,-0.0046487231738865376,-0.207736536860466,-0.2656029462814331,0.04607175290584564,0.15221580862998962,-0.0579400360584259,-0.06133101135492325,0.16359078884124756,-0.04594680666923523,0.20472419261932373,-0.016065137460827827,0.012113397940993309,0.03408898040652275,-0.0602460578083992,0.0295147392898798,0.299860417842865,0.1167469397187233,0.06564394384622574,0.02009613625705242,0.24365252256393433,-0.07764571160078049,-0.10983838140964508,0.1417054384946823,-0.33543726801872253,0.003385043703019619,-0.18567253649234772,0.07368408143520355,-0.3743603527545929,0.19993050396442413,0.28474387526512146,0.10200969874858856,0.0922507792711258,0.15706275403499603,-0.2171785533428192,0.018457425758242607,-0.1957758069038391,0.019223829731345177,0.1699230670928955,-0.09479036182165146,-0.24551810324192047,-0.07220757752656937,0.1323157548904419,-0.22308290004730225,-0.1977609246969223,0.12392604351043701,0.12365014851093292,-0.2021375447511673,0.21148106455802917,-0.06916862726211548,-0.3646813929080963,-0.10452544689178467,0.031231209635734558,0.06612299382686615,0.2208038568496704,-0.0983540341258049,-0.16443763673305511,0.3196489214897156,0.31773579120635986,-0.1174607127904892,0.3030683100223541,-0.1684834212064743,-0.027021732181310654,-0.06939173489809036,-0.14267736673355103,-0.1663026064634323,0.03605220839381218,0.13023099303245544,0.05066069960594177,0.18803857266902924,0.2622722089290619,0.10595433413982391,-0.0956602469086647,0.18515734374523163,-0.026872526854276657,-0.23404917120933533,-0.2820959985256195,0.060221970081329346,-0.17493978142738342,0.06223732605576515,0.09072110056877136,-0.07293104380369186,0.1540139764547348,0.09608545154333115,0.2066265493631363,-0.22968527674674988,-0.33193302154541016,0.1377919614315033,0.41686180233955383,-0.06110043078660965,-0.32165423035621643,-0.08762656897306442,0.4869515001773834,0.09089178591966629,-0.0774611383676529,0.24854665994644165,-0.6479049921035767,0.12009573727846146,0.1163085326552391,0.268837571144104,-0.28185611963272095,-0.2724418640136719,0.1441946029663086,0.18511268496513367,0.16418074071407318,0.1737697273492813,-0.19652347266674042,0.2508281469345093,-0.05862002447247505,0.012344642542302608,-0.20047840476036072,-0.08194457739591599,0.03499052673578262,0.03585851937532425,-0.027913711965084076,-0.18317045271396637,-0.17973679304122925,0.06496187299489975,-0.0698457732796669,-0.09607844799757004,-0.06603255122900009,-0.24632252752780914,-0.20935940742492676,0.15565738081932068,-0.02289520390331745,0.14567813277244568,-0.1027848944067955,0.08420009911060333,0.15102654695510864,-0.20685648918151855,0.04809005931019783,0.18454551696777344,-0.2465553879737854,-0.15517106652259827,-0.027482863515615463,-0.0073153190314769745,-0.2507793605327606,0.06919971108436584,0.1848699152469635,0.07179311662912369,0.19165454804897308,0.10925449430942535,0.16509678959846497,-0.15734168887138367,-0.0014883056282997131,0.14613713324069977,0.20542924106121063,-0.27359554171562195,0.1853690892457962,-0.02133765071630478,-0.23249706625938416,0.003889129962772131,-0.08799489587545395,-0.006680312566459179,-0.1863372027873993,-0.21132907271385193,-0.12849359214305878,-0.03278258070349693,0.19576682150363922,0.02967478148639202,0.14840400218963623,0.032705020159482956,-0.16693368554115295,0.11495362967252731,0.026346690952777863,0.06049931421875954,-0.08324412256479263,-0.08436936140060425,-0.020535828545689583,0.02411481738090515,-0.1436876505613327,-0.05764693394303322,-0.2026786357164383,-0.12188243120908737,0.18373475968837738,-0.15039591491222382,-0.1848190724849701,0.005656623747199774,-0.03483009710907936,0.09617627412080765,0.07570076733827591,0.028402037918567657,-0.13577856123447418,0.07520194351673126,0.0750056728720665,0.22539719939231873,-0.05043546482920647,-0.117347352206707,0.02155686728656292,0.21838727593421936,-0.15147152543067932,-0.08327100425958633,0.08829660713672638,0.0021127392537891865,-0.21343739330768585,-0.11815310269594193,0.12960240244865417,-0.11279349029064178,0.21405889093875885,0.1243828758597374,0.24729689955711365,-0.06212868541479111,-0.09193114191293716,0.06981263309717178,0.01080798078328371,-0.14776208996772766,-0.030788583680987358,-0.09742233157157898,0.15012310445308685,-0.13677582144737244,0.18784643709659576,-0.060073647648096085,-0.11867257207632065,0.09092795103788376,0.06071314960718155,0.14506107568740845,0.2555823028087616,-0.261301726102829,0.11305512487888336,0.013692662119865417,-0.09106744825839996,0.10183083266019821,0.20172163844108582,-0.07535577565431595,-0.2536352872848511,0.30269795656204224,-0.03748766705393791,0.32732680439949036,-0.1656874120235443,0.034119874238967896,0.44651442766189575,-0.12411503493785858,-0.10087918490171432,0.032317668199539185,-0.056257568299770355,-0.18169040977954865,-0.5988133549690247,0.13527598977088928,0.03373167663812637,-0.05682021379470825,0.7684479355812073,0.09972934424877167,-0.0741352066397667,0.1831207424402237,-0.09699959307909012,-0.14536309242248535,-0.06708487123250961,0.12327171117067337,-0.039960578083992004,0.036813363432884216,-0.13342130184173584,0.08467251807451248,0.021142153069376945,0.032257527112960815,0.132411926984787,0.08906644582748413,0.0033700147178024054,-0.11458481103181839,-0.10667862743139267,0.08423329889774323,0.22375594079494476,-0.05452365055680275,-0.036817971616983414,-0.1863531917333603,-0.05111389979720116,0.13762858510017395,-0.2817738652229309,-0.06532622873783112,0.0015962105244398117,-0.13207706809043884,-0.12912487983703613,0.23267430067062378,0.23955495655536652,-0.07817573845386505,-0.0825071856379509,-0.1686001569032669,-0.044848546385765076,0.3093937933444977,0.1237044483423233,-0.07560743391513824,-0.3067299425601959,-0.046030450612306595,0.09968478977680206,-0.012688327580690384,-0.03922298923134804,0.051680952310562134,-0.19945378601551056,-0.20159073173999786,-0.01773027703166008,0.16940838098526,-0.24840615689754486,-0.12333454191684723,0.12470725178718567,-0.3122791051864624,-0.04925372451543808,0.03777889162302017,-0.21734051406383514,0.0074464101344347,-0.041586797684431076,-0.2106369137763977,0.06922221928834915,0.16639579832553864,0.2162371724843979,-0.17206662893295288,-0.422732412815094,-0.1457858383655548,0.05286053940653801,0.27723753452301025,-0.06022936478257179,0.11536743491888046,0.06789340078830719,-0.2615281939506531,0.032099295407533646,0.30193713307380676,-0.2970539629459381,0.143124520778656,-0.013713138177990913,-0.09511830657720566,-0.08609484881162643,0.16875113546848297,-0.015772685408592224,-0.053463395684957504,-0.21058978140354156,0.32358279824256897,-0.3912385404109955,0.039260346442461014,0.24298392236232758,-0.09346509724855423,-0.19058704376220703,-0.1328124850988388,-0.01467558927834034,0.033234186470508575,0.2082320898771286,-0.020797979086637497,-0.22951100766658783,-0.11664117127656937,0.10213790088891983,0.21951967477798462,-0.2335057109594345,-0.014412788674235344,0.33132874965667725,-0.2523183524608612,-0.02094944566488266,0.16265547275543213,-0.0563276968896389,-0.01679457165300846,0.03730316832661629,-0.16764968633651733,-0.10935699939727783,0.1259659230709076,-0.11931169778108597,0.5322858691215515,-0.16216830909252167,-0.05523114278912544,-0.22469577193260193,0.01222305279225111,0.2237454354763031,0.04950490966439247,-0.12503130733966827,-0.002643667394295335,0.04932326450943947,0.12063224613666534,0.14036597311496735,0.09376978874206543,0.006520133465528488,0.09264297038316727,0.08427590131759644,0.17312182486057281,-0.005440422333776951,0.1859302520751953,0.13172972202301025,0.11390752345323563,-0.2339097559452057,-0.11604433506727219,-0.07191220670938492,-0.04410134255886078,0.08575385808944702,0.014841224066913128,-0.19608232378959656,-0.035321563482284546,-0.10186855494976044,0.1257449835538864,-0.15892918407917023,-0.097195103764534,-0.18950630724430084,0.1232982873916626,0.12417770177125931,-0.11341771483421326,0.12023486196994781,0.0911671370267868,0.05908159539103508,0.04414081200957298,-0.03155328333377838,-0.05287785828113556,0.06484640389680862,-0.09796793758869171,-0.05578971281647682,0.10604771971702576,-0.039109352976083755,0.18702483177185059,0.1274017095565796,-0.05056047439575195,-0.3105584383010864,0.10384480655193329,0.003938835114240646,-0.17468658089637756,-0.051454171538352966,0.06368996948003769,-0.289441853761673,-0.07257440686225891,0.0712386965751648,0.11899352073669434,-0.04317609593272209,-0.16201762855052948,0.10312937945127487,0.08703701943159103,-0.11333277076482773,0.36300262808799744,-0.14682164788246155,-0.0759432390332222,0.0646771565079689,0.0703626200556755,-0.13551115989685059,0.2347138226032257,-0.062429118901491165,0.18408790230751038,-0.35069823265075684,0.14981485903263092,0.09336993843317032,0.06183364614844322,-0.05033325403928757,0.10738158226013184,-0.307008296251297,0.13783513009548187,0.10350438952445984,-0.1103304773569107,0.23169411718845367,0.0258624330163002,0.03302218019962311,0.02098779007792473,0.04351982846856117,-0.23597972095012665,-0.04052563011646271,-0.028339309617877007,-0.30470046401023865,0.1930367797613144,0.25450780987739563,0.1261197179555893,0.030787000432610512,-0.12256959825754166,0.03101191855967045,0.01871762052178383,0.07151932269334793,0.19845786690711975,-0.015400412492454052,-0.06569024920463562,0.15961650013923645,-0.04049038887023926,-0.11333312094211578,0.14669817686080933,0.1171058788895607,-0.04326706379652023,0.009308462962508202,-0.08967044949531555,-0.12163028120994568,0.07114357501268387,-0.04666360095143318,0.1602874994277954,-0.3037673234939575,-0.07394909113645554,-0.017926979809999466,0.03352043405175209,0.09659209847450256,0.12090720981359482,0.11625643074512482,-0.02802998572587967,-0.11859061568975449,-0.20269383490085602,-0.0331866480410099,0.13791006803512573,0.013169746845960617,-0.006074862089008093,-0.10801919549703598,0.0841505229473114,0.09773744642734528,-0.1389528512954712,-0.08226068317890167,0.12724529206752777,0.06144053116440773,0.003639197675511241,0.0528368316590786,-0.012584288604557514,-0.07170902192592621,-0.12497243285179138,0.030225062742829323,0.23270821571350098,0.007154155522584915,-0.13408206403255463,-0.26108691096305847,0.0896759033203125,-0.026890955865383148,0.011575477197766304,0.05302050709724426,-0.2532910406589508,-0.16837874054908752,0.2332119345664978,-0.14609608054161072,0.08470650017261505,0.1580975502729416,-0.21220237016677856,0.14485372602939606,0.1652088463306427,0.2725211977958679,0.16245205700397491,-0.1676521748304367,0.0773712769150734,-0.2447805255651474,-0.06609497964382172,0.260675311088562,0.02573568932712078,-0.06518229842185974,0.09848218411207199,-0.02283613383769989,0.0355205163359642,0.21044965088367462,0.07061590999364853,-0.12325650453567505,-0.0779217854142189,-0.08275065571069717,0.29801467061042786,0.019184082746505737,-0.22772525250911713,0.2431228756904602,-0.153561532497406,0.028121018782258034,0.1880348026752472,-0.14173057675361633,-0.18787555396556854,0.1383940726518631,-0.20788045227527618,-0.10755342990159988,-0.030643699690699577,0.061043087393045425,0.08765551447868347,0.061509791761636734,0.0576186440885067,0.07630228251218796,-0.09910733252763748,-0.02838223986327648,0.30347466468811035,-0.17535316944122314,0.03240062668919563,-0.01925555430352688,0.01799444667994976,0.1286955028772354,0.11805307865142822,-0.10237366706132889,-0.18361592292785645,0.06177622452378273,-0.030212262645363808,0.020409749820828438,0.26091161370277405,0.16926445066928864,0.46062660217285156,-0.5794528126716614,0.40495920181274414,-0.09075264632701874,0.14605462551116943,0.11144939064979553,0.09314685314893723,-0.12046189606189728,-0.204773411154747,-0.009060977958142757,-0.04292978718876839,0.068184494972229,0.12036947160959244,-0.08822879195213318,-0.08521853387355804,0.0077192289754748344,0.0457160621881485,-0.09018771350383759,0.19687031209468842,0.13784803450107574,0.09624915570020676,0.046674881130456924,0.026469510048627853,-0.18132610619068146,-0.07003302872180939,-0.11372154951095581,-0.12943653762340546,-0.32129186391830444,0.7208955883979797,-0.20932108163833618,-0.2415321320295334,-0.03189130872488022,0.17645597457885742,0.1602562516927719,-0.0360528938472271,-0.14546646177768707,-0.25759372115135193,0.0002894425706472248,0.23802928626537323,-0.16320638358592987,-0.049456991255283356,0.01515081524848938,-0.15818482637405396,-0.10702494531869888,-0.1268601268529892,0.2371782511472702,0.009303627535700798,-0.12742456793785095,0.02146058715879917,-0.24323295056819916,-0.05709567666053772,0.15560521185398102,-0.033352069556713104,-0.16881196200847626,0.04439035430550575,-0.14847268164157867,0.20618295669555664,0.17158077657222748,0.10316214710474014,-0.13198117911815643,-0.054049793630838394,-0.1490645557641983,0.13211677968502045,-0.17077302932739258,-0.11961539834737778,0.1330481916666031,-0.22889010608196259,-0.028383487835526466,0.07579483091831207,-0.1987733393907547,-0.0725860595703125,-0.07220407575368881,-0.025332773104310036,0.010539107955992222,0.19443954527378082,-0.007675456814467907,0.17146523296833038,0.08148195594549179,0.3412836492061615,0.19328591227531433,-0.09969451278448105,-0.20607422292232513,-0.18768562376499176,-0.002953567774966359,0.3836762011051178,0.13566632568836212,0.07876959443092346,0.2703164517879486,0.10242399573326111,-0.051364194601774216,0.18088604509830475,0.19993279874324799,-0.16527272760868073,-0.2971588969230652,0.07428201287984848,0.13032665848731995,0.02704380266368389,-0.06865767389535904,-0.12954829633235931,-0.3950894773006439,-0.13912956416606903,0.16223734617233276,0.03575512021780014,-0.15119849145412445,0.13287124037742615,-0.13798697292804718,0.07065039873123169,-0.11258044838905334,0.36017483472824097,0.05251974239945412,-0.1185719445347786,0.2635158598423004,0.06081583723425865,0.057097502052783966,0.23744194209575653,0.1978958696126938,-0.0025481386110186577,0.02718876115977764,-0.09591946005821228,-0.19219139218330383,0.17258305847644806,-0.07745129615068436,-0.0454428531229496,-0.1027364432811737,-0.007201211992651224,-0.00715972576290369,0.023436270654201508,0.30002322793006897,-0.07375980168581009,-0.17607402801513672,0.3992220461368561,0.1255592256784439,-0.2198132425546646,0.1188904419541359,-0.09079455584287643,-0.17393045127391815,0.19741502404212952,-0.10486824810504913,0.14199872314929962,-0.0773361399769783,-0.003494858043268323,-0.1574947088956833,-0.004842618014663458,0.04012123495340347,0.4922000765800476,-0.7564430832862854,0.2191120684146881,-0.07313169538974762,0.002910314127802849,0.15877889096736908,-0.015998156741261482,0.224165678024292,-0.019128721207380295,-0.07589387893676758,-0.2636345624923706,0.04934506490826607,-0.1859283298254013,0.12837637960910797,0.045090314000844955,-0.0341830849647522,0.07136596739292145,-0.05482181906700134,-0.07450135052204132,-0.1383766084909439,-0.1411496251821518,-0.09754592925310135,-0.007804575376212597,0.039334170520305634,-0.06639678031206131,-0.07910789549350739,0.039715059101581573,-0.5017675757408142,0.8896019458770752,-0.1398172229528427,-0.14962603151798248,0.08797843754291534,-0.045556556433439255,-0.21511045098304749,-0.06662628799676895,-0.047055281698703766,-0.11073989421129227,-0.009872515685856342,0.14270566403865814,-0.16198767721652985,-0.04042202606797218,0.06847897171974182,0.029900185763835907,0.032008279114961624,-0.16232740879058838,0.1873096376657486,0.03132642060518265,0.052368953824043274,-0.07945919781923294,0.27045485377311707,-0.13540799915790558,0.07218878716230392,0.08256308734416962,0.08093629777431488,-0.11955919861793518,0.012013625353574753,0.181815966963768,0.049282655119895935,-0.12117061764001846,-0.0841805711388588,0.008428934030234814,-0.028864465653896332,-0.016212286427617073,-0.032005179673433304,0.015284137800335884,-0.0868101641535759,-0.023038163781166077,0.025620341300964355,0.03953246772289276,0.047758799046278,-0.0038824453949928284,0.06310439109802246,-0.040908776223659515,0.07021912187337875,-0.018286004662513733,-0.07438252866268158,-0.4266658127307892,0.29358842968940735,0.057093676179647446,-0.09411593526601791,0.04502139240503311,-0.03452634811401367,-0.15081419050693512,-0.07454106956720352,-0.15619497001171112,0.056234974414110184,0.19559521973133087,-0.0026002642698585987,0.020969143137335777,0.006368810310959816,-0.07117100805044174,0.069667749106884,-0.1583738625049591,0.11515539884567261,0.25499600172042847,-0.06881982833147049,-0.17131957411766052,-0.08736495673656464,0.0229379590600729,0.22795818746089935,0.2481948584318161,-0.00280048162676394,0.18502797186374664,-0.13493135571479797,0.053901590406894684,-0.13937363028526306,0.17011798918247223,-0.1227445974946022,-0.15404635667800903,-0.07728542387485504,0.03687160834670067,-0.21658016741275787,-0.08719243109226227,0.06594812870025635,-0.17010904848575592,-0.14314402639865875,0.06535627692937851,0.08551491051912308,-0.0049433354288339615,-0.03716854006052017,-0.02678241953253746,-0.11995800584554672,-0.08233469724655151,-0.02399153634905815,0.003428112016990781,0.1644752323627472,-0.003330825362354517,0.19875189661979675,-0.14215704798698425,0.06893862783908844,0.20487108826637268,0.08753988146781921,0.14214470982551575,0.11671946197748184,-0.16471843421459198,0.041257426142692566,-0.0009788142051547766,-0.1090751513838768,0.12047795206308365,-0.1595841944217682,-0.35578683018684387,-0.06486339122056961,-0.17835325002670288,0.2144894003868103,-0.038838353008031845,-0.05184885859489441,-0.07894697785377502,-0.12942229211330414,-0.09087624400854111,0.15968890488147736,-0.14867989718914032,0.11081204563379288,0.08765899389982224,-0.015455528162419796,-0.018755484372377396,-0.06516435742378235,0.14154364168643951,0.17464490234851837,-0.08681368827819824,0.1437932848930359,-0.09459052979946136,-0.1144774928689003,0.13726145029067993,-0.1195743978023529,0.02693874202668667,-0.020505156368017197,-0.03933817148208618,-0.13061070442199707,0.07773862034082413,-0.008175264112651348,-0.08650195598602295,0.05521896108984947,0.18803642690181732,0.16916441917419434,-0.1021900326013565,-0.20204481482505798,0.22250428795814514,0.16493487358093262,0.011192387901246548,0.005899704527109861,0.011719166301190853,-0.20788593590259552,0.24698548018932343,-0.16659367084503174,-0.03552384302020073,0.06868863850831985,-0.18928851187229156,0.07509403675794601,0.37605565786361694,-0.02518754079937935,0.19006137549877167,-0.29280874133110046,-0.07866902649402618,0.06905649602413177,0.1660621464252472,0.18026433885097504,0.1673097461462021,-0.14176787436008453,0.08663944154977798,-0.15162378549575806,0.17126217484474182,0.09003783762454987,-0.006200524512678385,0.02897355519235134,-0.05357862263917923,-0.0984184667468071,0.11309601366519928,-0.10054084658622742,-0.09591390192508698,0.07409467548131943,-0.2683192193508148,-0.11612952500581741,0.05593882501125336,0.02213600091636181,0.03841537609696388,-0.05459383502602577,-0.0891709253191948,-0.20618969202041626,0.01765635423362255,0.023256676271557808,-0.12148834764957428,-0.07307179272174835,-0.20527537167072296,-0.03547573834657669,-0.08415305614471436,0.007166408002376556,0.19232748448848724,-0.0476892851293087,-0.1446828544139862,0.11675616353750229,0.09973664581775665,-0.08983850479125977,-0.03426005691289902,0.008867009542882442,0.09377968311309814,0.10078638046979904,0.04305386543273926,0.20581458508968353,-0.02692257985472679,-0.12719357013702393,0.10901358723640442,-0.0047076004557311535,0.21786168217658997,0.09153863787651062,-0.031855277717113495,-0.1668255478143692,0.030194154009222984,-0.057052142918109894,0.023282865062355995,-0.02573462948203087,-0.10606437921524048,0.08489101380109787,-0.11848875135183334,0.11257921159267426,0.16767694056034088,0.0364476777613163,0.06906668096780777,0.059682536870241165,-0.01835077442228794,0.04961065202951431,0.11892904341220856,-0.05958638712763786,-0.027311109006404877,-0.0161406509578228,-0.20344457030296326,-0.015565658919513226,-0.07384785264730453,0.131748765707016,0.08085185289382935,-0.08022499084472656,-0.06222010776400566,0.05187253654003143,-0.026293005794286728,0.14308978617191315,0.03377731889486313,0.20065008103847504,-0.01928701065480709,-0.0010443096980452538,0.12178706377744675,-0.06079697236418724,0.0012525205966085196,-0.13046510517597198,-0.12875716388225555,0.012170449830591679,0.0862310454249382,-0.0656501054763794,-0.10396364331245422,-0.09836352616548538,0.026121456176042557,0.10601203888654709,-0.16762778162956238,0.10985558480024338,-0.06790455430746078,-0.1487131267786026,-0.09184481203556061,-0.08915742486715317,-0.01650308258831501,-0.1043153628706932,0.14728094637393951,0.10412442684173584,-0.034723442047834396,0.02254551835358143,-0.05183089151978493,-0.08777038007974625,-0.09175156056880951,0.06204841658473015,-0.18512491881847382,-0.1677236407995224,0.014409299939870834,-0.005094528663903475,0.12562312185764313,-0.09871115535497665,0.030512148514389992,-0.13485205173492432,0.07525798678398132,-0.0011865108972415328,0.06529907882213593,0.16724427044391632,0.07760951668024063,0.02832491509616375,-0.04762130230665207,0.08374509960412979,-0.06662749499082565,0.08970164507627487,0.12922675907611847,0.1073557510972023,-0.06853004544973373,-0.04645366594195366,0.08140159398317337,0.08171598613262177,0.10513785481452942,0.0033950915094465017,0.07536158710718155,-0.05152886360883713,-0.42718520760536194,0.162544846534729,0.2740742266178131,-0.6420783400535583,0.10635778307914734,-0.8331599235534668,-0.2849544286727905,-0.4965698719024658,0.9456508159637451,-0.9357132315635681,-0.490229070186615,-0.8498687744140625,0.20771442353725433,-0.8086820244789124,0.22232334315776825,-0.6370887160301208,0.077046699821949,0.01374050322920084,-0.020283155143260956,0.28012531995773315,0.055919546633958817,0.3038025498390198,-0.2195475995540619,0.11067070066928864,-0.43101876974105835,-0.2716926336288452,0.1785757690668106,0.38265398144721985,-0.21646860241889954,0.4525614380836487,-0.0036339566577225924,0.12438605725765228,-0.02340584434568882,-0.23009909689426422,-0.024194136261940002,0.30094075202941895,-0.18914106488227844,0.03552348166704178,-0.020693590864539146,-0.18882469832897186,0.22015468776226044,-0.482464462518692,-0.05293666943907738,0.19934718310832977,-0.05482405424118042,0.1470794379711151,-0.13841024041175842,0.05545889958739281,0.11287251114845276,-0.20056742429733276,0.00830604787915945,0.10797588527202606,0.13651308417320251,0.14312079548835754,-0.09664486348628998,0.04397464543581009,-0.15665574371814728,-0.16839483380317688,-0.17293408513069153,-0.16195300221443176,-0.16544976830482483,0.19278693199157715,0.1269465833902359,-0.02483879216015339,0.1788269281387329,0.12983053922653198,-0.15398651361465454,-0.36203324794769287,-0.15792930126190186,0.01961468532681465,-0.20497474074363708,0.018608402460813522,-0.03643539920449257,-0.01733337715268135,0.14391416311264038,0.17916668951511383,0.1396609991788864,-0.13067898154258728,0.10857047885656357,0.16911925375461578,0.374449223279953,0.02081248164176941,-0.19927023351192474,-0.06913792341947556,0.19086259603500366,-0.003029639134183526,-0.010510080493986607,0.264432817697525,0.1568446159362793,-0.08462941646575928,-0.023918738588690758,0.19104015827178955,-0.011711160652339458,-0.02731151692569256,0.05842035263776779,-0.22732767462730408,-0.3937987983226776,-0.14282719790935516,-0.09531375020742416,-0.3293839395046234,0.183534637093544,-0.46899962425231934,-0.0342179499566555,-0.278329074382782,0.2869730293750763,0.15267567336559296,-0.05235213413834572,-0.37386554479599,0.2189915031194687,-0.4995936453342438,0.03456199914216995,-0.06889983266592026,0.24705997109413147,0.015311586670577526,0.27433764934539795,-0.08428198844194412,0.1548025906085968,0.37214335799217224,-0.15971265733242035,-0.12280186265707016,0.1317349076271057,-0.048890355974435806,-0.17581616342067719,0.1396973580121994,-0.24803180992603302,0.09674388915300369,-0.13393045961856842,0.09399492293596268,0.11787576973438263,0.07924001663923264,-0.08999574184417725,0.07209314405918121,0.08040525764226913,0.0037175393663346767,-0.09329253435134888,0.19761882722377777,-0.019527500495314598,0.2633230984210968,-0.20529188215732574,0.07738493382930756,-0.14669814705848694,0.11303917318582535,0.14631079137325287,0.07751460373401642,-0.011478928849101067,0.12013471871614456,-0.09916553646326065,-0.08100488036870956,-0.1537957787513733,-0.11612485349178314,0.03528173267841339,-0.1638762205839157,0.13204264640808105,0.04638225585222244,0.14187563955783844,-0.18990030884742737,-0.03127852827310562,0.1430872678756714,-0.20811234414577484,0.17451830208301544,-0.280563622713089,0.01873779110610485,-0.02437705732882023,0.1979040950536728,-0.0023999756667762995,-0.02693812921643257,0.24361224472522736,-0.009520824998617172,0.06484860181808472,0.2623994052410126,0.2090948075056076,0.2511858344078064,0.1896580010652542,0.011422413401305676,-0.10248235613107681,-0.08225368708372116,-0.07768239080905914,-0.1387111246585846,-0.06038220599293709,0.10301115363836288,0.11104601621627808,-0.22116711735725403,0.006081071682274342,-0.12519127130508423,0.105582095682621,0.16884416341781616,-0.19567318260669708,0.10065082460641861,0.022046225145459175,0.009809015318751335,-0.07122450321912766,0.0016444770153611898,0.26024070382118225,0.34221354126930237,-0.28536102175712585,-0.2400263100862503,-0.22831092774868011,0.04990974813699722,-0.01014433428645134,0.2741836905479431,-0.3579111397266388,-0.04352843388915062,0.30870357155799866,-0.016952570527791977,-0.22075453400611877,0.06770101934671402,0.28049737215042114,-0.049392394721508026,-0.1953994631767273,-0.22182779014110565,0.007714052218943834,0.1264915019273758,0.0868619978427887,-0.02692105621099472,-0.12445078045129776,0.08960265666246414,-0.2874270975589752,-0.04295283183455467,-0.14489300549030304,-0.10480566322803497,0.10121921449899673,-0.19507189095020294,-0.10708940774202347,0.03929618373513222,0.17697371542453766,0.12064802646636963,-0.022031210362911224,0.1879357546567917,-0.129247784614563,0.22157588601112366,-0.016900494694709778,0.10009945929050446,0.009995090775191784,0.36913010478019714,0.11618629842996597,0.12573985755443573,-0.013869359157979488,0.2369394451379776,0.08869101852178574,-0.04210881516337395,0.13129882514476776,0.2122626155614853,0.0032672006636857986,0.0037313909269869328,-0.08189640194177628,-0.09346581250429153,0.15935467183589935,0.0007365525234490633,-0.12412787228822708,0.16871637105941772,-0.09247198700904846,0.03825702145695686,-0.15255622565746307,0.13232652842998505,0.10666273534297943,0.05002959072589874,0.10797659307718277,-0.31427931785583496,-0.07735703885555267,-0.21221734583377838,-0.17606596648693085,-0.20694445073604584,-0.13138625025749207,-0.004233615007251501,0.182373508810997,-0.31326788663864136,0.1887046992778778,0.050987567752599716,-0.03556421026587486,-0.07248222082853317,0.061216726899147034,-0.1603696197271347,-0.09111934900283813,0.02128574252128601,-0.005486535839736462,-0.029556594789028168,-0.09640573710203171,-0.027460912242531776,0.0737236887216568,0.09689951688051224,0.10794791579246521,0.04166129603981972,0.05119626969099045,-0.14633464813232422,0.012994338758289814,-0.202621728181839,-0.0835750550031662,-0.05524737760424614,0.026926172897219658,-0.02073095738887787,-0.1253063678741455,-0.09494487196207047,0.043108440935611725,-0.1813267320394516,-0.04569434002041817,-0.08383065462112427,0.015051178634166718,0.055528558790683746,-0.20567752420902252,-0.057885151356458664,0.14779770374298096,0.026158813387155533,-0.027367543429136276,0.2035152018070221,0.195969820022583,0.07035592198371887,-0.013380242511630058,-0.04987499117851257,0.025795575231313705,0.07173604518175125,0.1705114245414734,-0.1610243022441864,-0.08256140351295471,0.07538451999425888,0.046950481832027435,0.08261718600988388,0.10946541279554367,-0.08998946100473404,-0.1538717895746231,-0.06279044598340988,0.04191701486706734,-0.08324278146028519,-0.19446706771850586,0.06547380238771439,-0.05703573673963547,-0.13127630949020386,0.09260061383247375,-0.14078588783740997,0.06767057627439499,-0.05796511471271515,0.024329552426934242,-0.06738138198852539,-0.01602625474333763,0.11093072593212128,0.11007378250360489,0.03601048141717911,0.020249636843800545,-0.49412021040916443,0.2341771423816681,-0.3483244776725769,-0.23389078676700592,-0.3850991725921631,0.22108449041843414,-0.21066276729106903,-0.01418147049844265,0.05276613309979439,-0.12448375672101974,-0.12084080278873444,0.16287243366241455,-0.21598567068576813,0.08974742889404297,-0.08514700829982758,0.5555542707443237,-0.2669810950756073,0.2706157863140106,-0.4931299388408661,0.31932568550109863,-0.11586716771125793,-0.0020934969652444124,0.13163809478282928,0.07536447048187256,-0.06635920703411102,-0.19395172595977783,0.015736350789666176,0.41220998764038086,0.16274169087409973,0.22028310596942902,-0.04321829229593277,-0.16492408514022827,0.15907789766788483,-0.6646134853363037,0.17330943048000336,0.05506059527397156,0.08690274506807327,-0.08429954946041107,0.26045891642570496,-0.24505162239074707,0.1069318950176239,0.14150263369083405,-0.30963248014450073,0.05087464675307274,-0.18034081161022186,0.3403637111186981,-0.38605907559394836,0.20742915570735931,-0.022800520062446594,-0.10661511868238449,0.5078502893447876,0.050016485154628754,-0.035993628203868866,-0.002369615249335766,0.19070015847682953,0.22961066663265228,-0.4361484944820404,0.29857897758483887,0.020009614527225494,-0.042542312294244766,-0.12091698497533798,0.017997756600379944,-0.03667823225259781,0.011227132752537727,0.027349183335900307,0.11305864155292511,0.06913962960243225,0.07186425477266312,0.06952223926782608,-0.008936233818531036,-0.049599651247262955,-0.04237762838602066,0.04339894279837608,0.030090870335698128,0.19633795320987701,-0.18611614406108856,-0.16015958786010742,-0.21471761167049408,0.17688962817192078,0.07336670905351639,-0.18431159853935242,0.19155189394950867,-0.06869518011808395,-0.05428506061434746,0.05826612934470177,0.1321370154619217,0.06377268582582474,-0.07015030831098557,0.12190254032611847,-0.03877531364560127,-0.03560176491737366,-0.009323123842477798,-0.0453786700963974,0.21720537543296814,0.05540720745921135,0.01129422802478075,-0.7088489532470703,-0.34761887788772583,-0.3221808969974518,-0.09246950596570969,-0.19926334917545319,0.08142082393169403,0.026218680664896965,-0.3442152142524719,0.09658759832382202,0.09602276235818863,-0.1640506088733673,0.036240991204977036,-0.12046600133180618,-0.06827469915151596,-0.14403215050697327,0.4845452606678009,0.48368826508522034,0.10000703483819962,-0.3936847150325775,-0.17614470422267914,0.0019087032414972782,0.010526391677558422,0.2413472831249237,0.06505222618579865,0.11190710216760635,0.01444441918283701,-0.18860378861427307,-0.06110142171382904,0.0824185386300087,0.08308938890695572,0.13216853141784668,-0.11410990357398987,0.41358157992362976,-0.4109511375427246,-0.5405341982841492,-0.08285681903362274,-0.057743072509765625,-0.09582605212926865,0.166541188955307,-0.4180051386356354,-0.07455223798751831,0.1754991114139557,-0.19091558456420898,-0.20470929145812988,-0.12758582830429077,0.44334676861763,0.015926290303468704,0.028672955930233,-0.28122812509536743,0.40881842374801636,-0.24485963582992554,0.12198973447084427,-0.26372697949409485,0.11810541898012161,-0.058658964931964874,0.02133728563785553,0.13838474452495575,0.058724988251924515,-0.08257409930229187,-0.11684692651033401,-0.0576951801776886,0.10060209780931473,0.060884151607751846,0.4331286549568176,-0.3084505796432495,-0.12094954401254654,-0.34137630462646484,0.3588593900203705,-0.11680757999420166,-0.06092206388711929,0.059726886451244354,0.03441334888339043,-0.17934738099575043,0.10721763968467712,0.023088790476322174,0.27139028906822205,0.002304869005456567,-0.013539936393499374,-0.10467340797185898,0.07177753001451492,0.07309357821941376,-0.329429030418396,0.31035515666007996,-0.0005898771341890097,0.048846445977687836,-0.03584475815296173,-0.015894314274191856,-0.20693114399909973,0.43608736991882324,0.0116038853302598,-0.3645792603492737,0.4207189679145813,0.04428983852267265,0.24023865163326263,-0.5349470376968384,0.19922977685928345,-0.07473760843276978,0.009119026362895966,-0.09457628428936005,-0.2721710503101349,-0.044198907911777496,-0.31111159920692444,-0.039891574531793594,0.16488440334796906,-0.2614194452762604,0.11226554214954376,0.11718755215406418,-0.17298227548599243,-0.13756339251995087,-0.002478949958458543,-0.16886895895004272,-0.016256334260106087,-0.071881502866745,-0.1676815152168274,-0.013611881993710995,0.14747199416160583,0.10182341188192368,-0.16298235952854156,-0.04802588373422623,-0.0192427858710289,0.029604068025946617,-0.037515971809625626,0.27812105417251587,-0.05099356174468994,-0.2358953207731247,-0.12656375765800476,0.09317967295646667,0.17216253280639648,-0.1571110039949417,0.12225187569856644,0.16071420907974243,-0.029759911820292473,0.06710033118724823,0.05995003506541252,0.03758194297552109,-0.07237713783979416,0.19380751252174377,-0.18060694634914398,-0.00612609600648284,0.1174481213092804,0.04733497276902199,0.08473587781190872,-0.10776665061712265,-0.21206094324588776,-0.06810272485017776,-0.025951344519853592,0.05641431733965874,0.07097280025482178,-0.07135950028896332,0.08258002251386642,-0.1465713232755661,-0.09000522643327713,0.014974778518080711,-0.026076948270201683,0.11218667030334473,-0.04757540673017502,-0.07182245701551437,-0.0058446526527404785,-0.003295545233413577,0.08074139803647995,0.072879858314991,0.08549153059720993,0.06494109332561493,-0.20736372470855713,0.15261976420879364,0.1847953498363495,-0.14911793172359467,-0.07246547192335129,-0.032122012227773666,0.18345552682876587,-0.16111154854297638,0.2436513453722,-0.20601430535316467,-0.15539978444576263,-0.016988620162010193,-0.00868768896907568,-0.013993550091981888,-0.2552337944507599,0.05172048881649971,-0.17813773453235626,-0.18642598390579224,0.12733358144760132,-0.14943945407867432,-0.08800999075174332,-0.12792719900608063,-0.09121112525463104,-0.0696321651339531,0.16899316012859344,0.1497216671705246,0.00596765149384737,0.2667343020439148,-0.07296833395957947,0.19718897342681885,-0.0977073535323143,0.48739418387413025,-0.26552367210388184,0.542243480682373,-0.19527947902679443,0.18818968534469604,0.10691624134778976,-0.4340246617794037,0.040537767112255096,0.10908721387386322,-0.10766424238681793,-0.0295391995459795,-0.19490887224674225,0.10400162637233734,-0.05405034124851227,-0.011926405131816864,-0.12563453614711761,0.0244181826710701,0.07957851141691208,0.0012670683208853006,0.0734834298491478,-0.12948723137378693,-0.07995636761188507,0.10468817502260208,-0.03490000218153,0.11530501395463943,0.03878193348646164,-0.2635328769683838,0.01787208579480648,-0.10731025785207748,0.08741652220487595,-0.4959477186203003,0.27640286087989807,-0.1485760360956192,0.09933825582265854,0.12655934691429138,0.24411526322364807,-0.17827600240707397,-0.17135873436927795,-0.009960510767996311,-0.13024257123470306,0.12632381916046143,0.03234362229704857,0.15150000154972076,-0.10971497744321823,0.15997351706027985,-0.056338388472795486,0.09364894777536392,0.08870840817689896,0.16623243689537048,-0.06079070270061493,0.179035022854805,0.059941474348306656,0.21198369562625885,0.013042004778981209,-0.028155388310551643,0.20105770230293274,0.07812177389860153,-0.11552337557077408,0.008469859138131142,-0.03379371017217636,-0.09838306158781052,-0.32695528864860535,-0.12899543344974518,0.1839240938425064,0.11808604747056961,0.06076839193701744,0.010578650049865246,-0.15062692761421204,-0.07528173923492432,0.05432136356830597,-0.09361819922924042,0.03554559871554375,0.031539663672447205,-0.025934414938092232,0.05759327858686447,0.04084784910082817,0.04156341403722763,-0.04466446861624718,0.01935027353465557,0.31113970279693604,-0.10133492946624756,-0.03478693962097168,0.23293912410736084,0.0825190618634224,0.05198369547724724,0.04439838230609894,0.13207514584064484,0.11835929751396179,0.18441347777843475,0.013422178104519844,-0.014946084469556808,-0.03963722661137581,-0.07137167453765869,-0.39956507086753845,0.04533771052956581,0.15448425710201263,0.253573477268219,0.05111369863152504,0.0314098596572876,-0.010417141951620579,-0.11843711882829666,0.23456290364265442,0.16457727551460266,-0.26869773864746094,-0.02585841529071331,0.03942049294710159,0.005594301037490368,0.13002212345600128,0.24653850495815277,-0.01812480203807354,-0.356131911277771,-0.2195262759923935,0.07789736986160278,0.04584987461566925,0.03181139752268791,0.01329872664064169,-0.1376340240240097,-0.10844367742538452,-0.2824621796607971,0.1102684885263443,0.10311259329319,0.1449546068906784,-0.17008067667484283,-0.035690441727638245,-0.14088115096092224,-0.0002775208558887243,-0.31598201394081116,0.04843122512102127,0.32178571820259094,0.09572421759366989,-0.07263347506523132,-0.18588605523109436,-0.3016982674598694,-0.13930363953113556,0.03884682059288025,-0.319011390209198,-0.027027348056435585,0.2639913558959961,0.37395235896110535,-0.26017704606056213,-0.20256304740905762,0.010383653454482555,0.04817691817879677,-0.08377490937709808,0.06130694970488548,0.4499218165874481,0.18334601819515228,-0.09795885533094406,0.02465221658349037,0.16263116896152496,-0.013122940436005592,0.025624806061387062,0.17153000831604004,-0.003438625717535615,-0.11329429596662521,0.04062548652291298,0.017887666821479797,-0.06663724035024643,0.04099329188466072,0.017757436260581017,0.18226976692676544,-0.10673565417528152,0.18631425499916077,0.13261543214321136,-0.06162547692656517,-0.06036050245165825,0.06080246716737747,0.07057281583547592,-0.010298960842192173,0.03681745380163193,-0.06460130959749222,-0.040390919893980026,-0.011160148307681084,0.15658757090568542,0.1949935257434845,-0.11012312024831772,0.15932023525238037,-0.10194336622953415,-0.003190766554325819,0.06200888007879257,-0.031999025493860245,-0.0604158379137516,-0.050219710916280746,-0.07694760710000992,0.11086350679397583,-0.001794561743736267,-0.04299487918615341,-0.21259590983390808,-0.14525286853313446,0.13258542120456696,0.001805618405342102,-0.10581105947494507,-0.031232429668307304,0.07028166949748993,0.0436803475022316,-0.062067899852991104,0.05731509253382683,0.24071621894836426,-0.16636985540390015,0.05550350621342659,0.12069308012723923,-0.09614857286214828,-0.060510363429784775,0.021530475467443466,-0.18534862995147705,-0.1761118322610855,0.09651925414800644,-0.0591641440987587,0.1168760284781456,0.2117375284433365,0.2529725134372711,-0.07059420645236969,-0.3225754499435425,-0.18225973844528198,0.05435962229967117,-0.03549560531973839,-0.07626894116401672,-0.13280650973320007,-0.24697737395763397,-0.238741934299469,-0.06380455195903778,0.13723385334014893,0.19615016877651215,-0.05459928885102272,-0.10627900063991547,-0.1185586154460907,-0.08637046813964844,-0.012797355651855469,-0.1818205565214157,-0.05480116605758667,0.32015812397003174,-0.17837399244308472,-0.14811256527900696,0.2136872410774231,-0.13716772198677063,0.0076654027216136456,-0.12062355130910873,-0.07025432586669922,-0.07433324307203293,0.030436739325523376,0.09092145413160324,0.05359608307480812,-0.260985791683197,-0.13736312091350555,-0.11110739409923553,-0.060070063918828964,-0.23004227876663208,0.02448952943086624,-0.07010579854249954,0.01594778709113598,0.0957995057106018,0.1084425300359726,-0.08783677965402603,-0.06737593561410904,0.009395478293299675,-0.08468254655599594,0.07334405928850174,-0.16100913286209106,0.09008928388357162,-0.15399299561977386,0.015587707981467247,0.1250382661819458,-0.016318539157509804,0.1515488475561142,-0.06387462466955185,-0.08562508970499039,-0.02471698634326458,0.1168699860572815,0.18951313197612762,-0.07023680955171585,-0.02418043650686741,0.12859085202217102,0.1534925252199173,-0.19343453645706177,-0.07332415878772736,-0.2090453803539276,0.27253299951553345,0.15465666353702545,0.03708339110016823,-0.06427063047885895,0.13508856296539307,-0.1599551886320114,0.1626335084438324,0.12133514136075974,0.17468486726284027,0.07544119656085968,-0.032844178378582,-0.08410075306892395,0.23274217545986176,-0.24663208425045013,0.05671706423163414,-0.07583977282047272,0.009555177763104439,-0.050928808748722076,-0.1622808575630188,0.11109577119350433,0.15693826973438263,-0.12537075579166412,0.09298442304134369,0.09270800650119781,-0.04993525147438049,0.004631017334759235,-0.03995058313012123,-0.05059953033924103,-0.14756225049495697,-0.020276185125112534,0.17088697850704193,0.01435969490557909,-0.17365989089012146,-0.0871327668428421,-0.006343526300042868,-0.005238002631813288,0.1373807191848755,-0.0014775680610910058,0.007664145901799202,-0.16425397992134094,0.0053185769356787205,-0.042145829647779465,-0.06488968431949615,0.2695080637931824,0.14367404580116272,-0.19961294531822205,0.11660638451576233,-0.024939002469182014,0.035682789981365204,0.003160822903737426,-0.13945351541042328,-0.2019895315170288,0.02315358631312847,0.10575178265571594,0.05500753968954086,0.07274962961673737,0.07748287916183472,0.2365298867225647,0.16903989017009735,0.2532014846801758,-0.11074069142341614,-0.38630419969558716,-0.05977948009967804,-0.04168744385242462,0.07502229511737823,0.15524627268314362,-0.18171805143356323,0.11093016713857651,-0.04904995486140251,-0.048039596527814865,-0.018739134073257446,-0.19933965802192688,-0.0011857707286253572,-0.014272134751081467,-0.1130385473370552,-0.13278037309646606,-0.026786495000123978,-0.17521515488624573,-0.0349976047873497,-0.14419642090797424,-0.06338581442832947,0.027435699477791786,-0.07364235818386078,0.053824760019779205,0.1918342411518097,-0.09049398452043533,0.038291726261377335,-0.06936343014240265,0.10055539757013321,0.126212477684021,-0.041074998676776886,0.2618521749973297,-0.11847151070833206,0.07328173518180847,0.20250920951366425,0.13352757692337036,-0.011421815492212772,-0.12801237404346466,0.10823533684015274,-0.10836617648601532,-0.06221820041537285,-0.06567401438951492,-0.05968351289629936,0.07719074189662933,-0.1924993246793747,-0.01596582680940628,0.121915303170681,0.1519889235496521,0.2193591296672821,-0.05864080786705017,0.3831498920917511,0.05090624839067459,0.1171446219086647,0.04289820045232773,-0.05364974960684776,0.16741415858268738,-0.014710831455886364,0.05066922679543495,0.052683889865875244,0.04551657289266586,0.13954222202301025,0.005907440558075905,-0.15513825416564941,0.031346552073955536,-0.15606535971164703,-0.010233347304165363,-0.08429227024316788,0.024079585447907448,0.16361522674560547,-0.013158158399164677,-0.07891140878200531,-0.08672210574150085,-0.08166187256574631,0.01319361012428999,0.05318430811166763,0.044020529836416245,-0.14390675723552704,-0.0490993931889534,-0.21962960064411163,0.16438248753547668,0.06589726358652115,0.17568980157375336,0.21267154812812805,-0.13028782606124878,0.00913489144295454,-0.01339480746537447,-0.13005660474300385,0.09849296510219574,-0.051520198583602905,-0.050195883959531784,-0.09105943888425827,-0.03987480327486992,0.20728769898414612,0.06666823476552963,0.000982420751824975,-0.004785343538969755,-0.05414741858839989,0.07827908545732498,0.00009338634845335037,-0.04986462742090225,-0.029136700555682182,0.11649086326360703,0.019551381468772888,0.02958829514682293,-0.005729819182306528,-0.04281238839030266,-0.025399990379810333,-0.016547834500670433,0.03203960880637169,-0.23616549372673035,-0.41085106134414673,0.7554237246513367,0.5812103152275085,-0.5556355118751526,-0.014582153409719467,-0.16731618344783783,-0.0767567828297615,0.3805001676082611,-0.774117112159729,0.9642788767814636,0.4390532970428467,0.07366281002759933,-0.36833298206329346,0.10206746309995651,-0.6372305154800415,0.2954197824001312,-0.0514475554227829,-0.07272889465093613,-0.39515799283981323,0.2948848605155945,-0.330345094203949,0.30000022053718567,0.02185504138469696,-0.03103742189705372,0.324146032333374,0.22578322887420654,0.25294649600982666,-0.1265401989221573,-0.08961022645235062,-0.3036240041255951,-0.16344143450260162,0.015340565703809261,0.26541703939437866,0.10538668185472488,0.22729168832302094,0.263530433177948,0.2799508273601532,-0.09863352030515671,-0.24746353924274445,-0.20050778985023499,-0.10098014026880264,0.09466677904129028,-0.04750817269086838,0.08185872435569763,0.20152965188026428,0.2214353084564209,-0.0518248975276947,0.02713008224964142,-0.10150221735239029,-0.0829889252781868,-0.1271880716085434,0.051734089851379395,-0.178508460521698,-0.02607184648513794,-0.16731710731983185,-0.13807426393032074,-0.05109715089201927,-0.2323216199874878,0.06839403510093689,0.16568778455257416,-0.2751579284667969,-0.1742045283317566,-0.14519834518432617,0.15675929188728333,0.032218318432569504,0.3154962956905365,-0.08451998978853226,-0.14792636036872864,0.2872471511363983,-0.13486526906490326,0.44501304626464844,0.050908200442790985,0.05486444756388664,0.1654684841632843,0.2570039629936218,0.07529869675636292,0.5580856204032898,0.32183200120925903,0.055652789771556854,0.24503056704998016,-0.15834550559520721,0.012054335325956345,-0.28739747405052185,0.07477036118507385,-0.07843292504549026,0.25512683391571045,0.045138560235500336,0.03740539029240608,0.16183502972126007,-0.07581787556409836,0.2420835942029953,-0.08568605780601501,-0.07234400510787964,0.010980496183037758,-0.31377285718917847,-0.21018444001674652,-0.23873212933540344,0.23735414445400238,0.06411619484424591,-0.33608293533325195,0.3823264539241791,-0.032851383090019226,0.1286602020263672,-0.03918815404176712,-0.16476109623908997,0.11022749543190002,0.15273024141788483,0.005196003708988428,0.49851611256599426,0.37277624011039734,0.08446091413497925,-0.09815511852502823,0.2977997660636902,-0.019981902092695236,-0.1499420404434204,0.17849023640155792,-0.16370829939842224,-0.0375811904668808,-0.11502331495285034,-0.11812250316143036,-0.10925540328025818,0.2693769335746765,-0.13888317346572876,0.14474909007549286,0.21586886048316956,0.17936497926712036,-0.09067973494529724,0.15796120464801788,0.08574255555868149,-0.14742916822433472,-0.13473714888095856,0.13689100742340088,-0.11154640465974808,0.06943536549806595,-0.0654371902346611,0.08619960397481918,0.033799782395362854,0.03773306682705879,0.2017844319343567,0.01620696298778057,0.023129777982831,0.0783725455403328,-0.05575450882315636,-0.0984351634979248,0.09969482570886612,-0.082998126745224,0.0578383170068264,0.09938142448663712,-0.09578912705183029,-0.1938268095254898,0.0013186382129788399,-0.05842641741037369,0.18003208935260773,-0.21948076784610748,0.044294312596321106,-0.2824588716030121,-0.17607353627681732,-0.13493679463863373,0.23460479080677032,0.16174551844596863,-0.2674039900302887,-0.14288783073425293,-0.0456974059343338,-0.10305268317461014,0.07189425826072693,-0.06929691880941391,-0.30547264218330383,-0.010280218906700611,0.004238819237798452,0.15154564380645752,0.11523064970970154,-0.0030009369365870953,-0.05626380443572998,0.12157455831766129,-0.04668731987476349,0.3013612926006317,-0.096596360206604,-0.25561004877090454,-0.22659818828105927,0.2085282951593399,-0.26384392380714417,0.11986126005649567,-0.254914790391922,0.18545092642307281,0.08894643932580948,-0.2938843369483948,-0.08967325836420059,-0.027730338275432587,-0.23802867531776428,0.0007699749548919499,0.14228032529354095,0.05345328524708748,0.24168190360069275,-0.10772217810153961,-0.013720154762268066,0.057868536561727524,-0.04725264012813568,0.15790274739265442,0.1768062859773636,-0.1656552404165268,-0.0635981485247612,-0.18684396147727966,0.18719959259033203,-0.19194042682647705,-0.241316020488739,-0.05590839684009552,0.04563264176249504,-0.2932451367378235,-0.06725385040044785,-0.12859798967838287,-0.10034385323524475,0.12375964969396591,0.0800640732049942,-0.10867933928966522,-0.10891144722700119,0.027825748547911644,0.04199932515621185,-0.14269104599952698,0.020064134150743484,0.026203177869319916,0.11999191343784332,0.0829586386680603,-0.15358470380306244,-0.08831194043159485,-0.14047479629516602,-0.1184946671128273,0.05948478356003761,0.04656694456934929,-0.395395427942276,0.3322022259235382,-0.15900661051273346,-0.12846383452415466,0.2816169559955597,0.09897471964359283,-0.1261259764432907,0.09786498546600342,0.09469825029373169,-0.29280999302864075,-0.011109329760074615,-0.06618960201740265,0.3305550217628479,-0.20699457824230194,-0.06782563030719757,0.21786931157112122,-0.031975120306015015,0.05014260485768318,-0.26943978667259216,0.15107309818267822,0.012613826431334019,0.08557070046663284,0.14007100462913513,-0.07213596254587173,0.04939175769686699,-0.02614889293909073,-0.07644836604595184,-0.03818194195628166,-0.3582198917865753,-0.03795416280627251,0.08072078973054886,-0.09901867061853409,-0.03517100214958191,-0.11883940547704697,-0.39480626583099365,0.06659098714590073,0.04500662535429001,0.20602670311927795,0.38607707619667053,-0.06666684150695801,-0.04063207283616066,-0.08866215497255325,-0.22945886850357056,0.04611445218324661,0.035380251705646515,0.02902187779545784,0.03745919093489647,-0.04078786075115204,0.12428805232048035,0.06378955394029617,-0.006444362923502922,-0.1008002907037735,-0.14814452826976776,-0.016455138102173805,0.07236192375421524,0.07547591626644135,0.08083727955818176,0.02560679242014885,-0.018258826807141304,0.15128090977668762,0.0019544013775885105,0.1593417078256607,0.06996770948171616,0.18113474547863007,-0.0045547024346888065,-0.02251390367746353,0.01810276322066784,0.21713140606880188,-0.05041273683309555,0.1778944730758667,0.1997431069612503,-0.02240482158958912,-0.06995642185211182,-0.028204448521137238,0.07555294781923294,0.09281300008296967,-0.008653590455651283,0.0061118630692362785,-0.006542474031448364,-0.12038987874984741,-0.06490170955657959,0.0002768066478893161,-0.13820189237594604,-0.0834331214427948,-0.10691233724355698,0.10385141521692276,0.04424431920051575,0.061001308262348175,-0.07639235258102417,-0.1619909554719925,-0.054765451699495316,0.3306099474430084,0.1324397772550583,-0.1756785809993744,-0.036181870847940445,-0.19016627967357635,-0.020519113168120384,0.04439811781048775,-0.03023519366979599,-0.11823786795139313,-0.007823173888027668,-0.16632406413555145,-0.13869483768939972,-0.1245373785495758,0.10679564625024796,0.13929617404937744,-0.07439543306827545,-0.21851398050785065,0.6310139298439026,-0.3018295168876648,0.07848015427589417,-0.2421741634607315,-0.24861587584018707,-0.03966335207223892,0.044921644032001495,0.039310771971940994,-0.008496373891830444,-0.2914849817752838,0.3094220459461212,-0.10732660442590714,0.039872799068689346,0.08701541274785995,0.4110207259654999,-0.8212965130805969,0.537186861038208,-0.0518546923995018,0.25310489535331726,-0.22831162810325623,0.019622085615992546,0.06855105608701706,-0.17544473707675934,0.03408542647957802,0.05115880072116852,-0.17017777264118195,-0.006426461040973663,0.05611187592148781,0.12676407396793365,-0.10449259728193283,0.31208720803260803,-0.01387966051697731,-0.15314507484436035,0.19887064397335052,-0.6803637742996216,-0.020356295630335808,0.031752411276102066,0.091832734644413,-0.21530964970588684,0.22614158689975739,-0.20315460860729218,-0.036883022636175156,0.15294261276721954,-0.27883750200271606,-0.42662331461906433,0.0195733904838562,0.20153360068798065,0.08925703167915344,-0.04613635316491127,-0.11339343339204788,0.13554979860782623,-0.19700539112091064,-0.2475896030664444,-0.37215670943260193,-0.07380300760269165,0.26371049880981445,0.01985812745988369,0.024939915165305138,-0.01396392285823822,0.10236336290836334,0.020883455872535706,-0.0803258866071701,-0.12054647505283356,-0.1637210249900818,-0.032798733562231064,0.02465715818107128,0.11851310729980469,-0.15696696937084198,0.2574414610862732,0.040329594165086746,-0.11992667615413666,-0.2425808161497116,0.05542777478694916,0.33272144198417664,0.31718558073043823,0.012608922086656094,-0.19509947299957275,-0.19021320343017578,0.08725988119840622,0.15774618089199066,0.03694278001785278,0.07558612525463104,0.14545617997646332,-0.14473630487918854,-0.10278625786304474,-0.030878067016601562,-0.18830446898937225,-0.05752863734960556,0.15622888505458832,0.10385000705718994,0.04274500533938408,0.04515134170651436,0.13311928510665894,0.11861136555671692,-0.041970089077949524,-0.32126951217651367,0.5799115896224976,-0.09712359309196472,0.41885149478912354,-0.40276381373405457,0.5639505386352539,0.09763556718826294,0.09839210659265518,-0.05805240944027901,-0.27642881870269775,0.20280925929546356,-0.08520981669425964,-0.18961182236671448,0.2326297014951706,-0.29905784130096436,0.19344666600227356,-0.2180115133523941,0.020109718665480614,0.12639592587947845,-0.05050260201096535,0.05929485335946083,0.10269735008478165,0.04069073870778084,0.10203353315591812,0.05012701079249382,-0.20583228766918182,-0.06919042766094208,-0.143487349152565,-0.010233457200229168,0.009185021743178368,-0.08627147227525711,0.2512924373149872,-0.05996517837047577,-0.20852334797382355,0.15611395239830017,0.2173524647951126,-0.0060191284865140915,0.2075524479150772,-0.12362688779830933,-0.005723235197365284,0.1599910855293274,-0.15747492015361786,-0.05818615108728409,-0.1416996717453003,0.01565483771264553,0.2553827464580536,0.26682013273239136,-0.12047144770622253,0.166987344622612,-0.019230982288718224,-0.13646873831748962,0.011174126528203487,0.06839029490947723,0.02829590253531933,-0.248848095536232,0.08125712722539902,0.08247330039739609,0.08541630208492279,-0.24457906186580658,-0.10457432270050049,0.08120464533567429,-0.07949793338775635,-0.1022314801812172,-0.05956418067216873,-0.024203818291425705,-0.010179674252867699,-0.0025662139523774385,-0.10990212112665176,0.0875810980796814,0.22296573221683502,0.12566281855106354,-0.1381717473268509,-0.2170536071062088,0.11504463851451874,0.015999242663383484,-0.003260801313444972,0.009922071360051632,-0.024530556052923203,-0.08080702275037766,0.0015233904123306274,0.060024626553058624,0.014341224916279316,0.007182021159678698,0.058580972254276276,-0.2420034259557724,-0.1426592767238617,-0.05757872387766838,-0.186776801943779,-0.04003221169114113,0.09115195274353027,-0.09946984052658081,-0.09928157180547714,0.06717311590909958,0.06601480394601822,-0.013524212874472141,-0.012721048668026924,-0.035307131707668304,-0.10808945447206497,-0.09084054082632065,-0.18297259509563446,-0.01008332148194313,-0.10778722167015076,-0.03139600157737732,0.1477011889219284,0.24468572437763214,-0.004023610148578882,-0.14623968303203583,-0.11645671725273132,0.27429720759391785,-0.15258914232254028,-0.0790044441819191,0.012311452999711037,-0.37126967310905457,-0.14194464683532715,0.015878714621067047,0.07607170939445496,0.006451557856053114,0.11899644136428833,0.015340430662035942,-0.12850646674633026,-0.16480669379234314,0.12156052887439728,-0.008709557354450226,0.045570243149995804,0.07515163719654083,-0.048096515238285065,-0.09115710854530334,-0.08012707531452179,-0.08944124728441238,-0.02191225439310074,0.23234719038009644,0.32743707299232483,0.047936756163835526,-0.05707330256700516,-0.1524227112531662,-0.17339229583740234,0.06833982467651367,-0.023703977465629578,0.12493562698364258,0.2160288393497467,0.05015205591917038,0.1330745965242386,-0.012303370982408524,0.1544862687587738,0.2069031447172165,-0.042533278465270996,-0.24083541333675385,0.021402698010206223,-0.11260244995355606,0.5112879872322083,0.007663549855351448,0.06149305775761604,-0.06808063387870789,-0.2103743702173233,0.4431304335594177,-0.6723342537879944,-0.012927958741784096,0.08732961863279343,-0.1746058315038681,-0.20460137724876404,0.5901010632514954,-0.1863083839416504,-0.06573973596096039,-0.11781545728445053,0.07879965007305145,0.21397191286087036,-0.11788950115442276,0.06232259422540665,-0.09578663110733032,0.1296563744544983,0.08076115697622299,0.001365238567814231,-0.03049059957265854,-0.001371583086438477,0.11729948222637177,-0.007033406291157007,-0.04811762273311615,-0.03752639889717102,-0.3617708683013916,-0.10814712196588516,0.13453829288482666,-0.03168104588985443,-0.15170349180698395,-0.09625134617090225,-0.0393734835088253,-0.007311081979423761,0.05700070783495903,0.14262938499450684,0.18020039796829224,0.46773016452789307,0.22454942762851715,-0.382961630821228,0.07817626744508743,-0.027418332174420357,-0.1529322862625122,0.06179199367761612,-0.004299744497984648,0.09106429666280746,-0.22630628943443298,-0.18435485661029816,0.19304731488227844,-0.3059157729148865,0.12952682375907898,0.06962656229734421,-0.16691310703754425,0.11638788133859634,-0.04254095256328583,-0.16564922034740448,-0.11944472044706345,-0.020679321140050888,-0.01185461413115263,-0.13096004724502563,0.03369584679603577,0.07520532608032227,0.07464643567800522,-0.17215271294116974,-0.052455056458711624,-0.006814988795667887,0.21298480033874512,-0.011641250923275948,-0.14036495983600616,-0.10985798388719559,-0.13036023080348969,-0.06656598299741745,0.012627660296857357,-0.17143157124519348,-0.13400675356388092,0.11087849736213684,0.014800112694501877,-0.041996847838163376,0.21329444646835327,0.16174769401550293,-0.08003270626068115,0.14756326377391815,-0.23798130452632904,-0.16397936642169952,0.024292126297950745,-0.013948691077530384,0.0342973917722702,-0.02979014813899994,-0.1304370015859604,0.1648024320602417,0.2505762279033661,0.15606872737407684,0.002028306946158409,-0.00530553562566638,0.011449635028839111,-0.038433536887168884,0.0919627845287323,-0.11778555065393448,0.26372215151786804,0.13531969487667084,-0.12074851244688034,0.14892910420894623,0.11883809417486191,-0.05197056382894516,0.12195894867181778,-0.17765234410762787,0.003475633915513754,0.06271824240684509,-0.1285453587770462,-0.03584756329655647,-0.20052263140678406,-0.15853704512119293,-0.0032185285817831755,0.000662068952806294,-0.15975813567638397,0.22920745611190796,0.1325857788324356,-0.053883519023656845,0.02918325550854206,0.028797022998332977,-0.03456604853272438,0.13120558857917786,0.04746823012828827,0.09176362305879593,0.21914222836494446,0.06891319155693054,-0.17668646574020386,-0.20476728677749634,0.15646542608737946,0.04722895473241806,0.24383825063705444,0.3292810320854187,-0.09284168481826782,0.2202211320400238,0.051783133298158646,0.29584842920303345,-0.286032110452652,0.16030634939670563,0.16949176788330078,0.18297572433948517,-0.1992948353290558,-0.1442825049161911,0.20517708361148834,0.04181252419948578,-0.05121903866529465,0.18411274254322052,-0.2284981906414032,0.24692584574222565,0.05232032388448715,0.010231167078018188,0.07265017181634903,-0.1105862483382225,-0.14820264279842377,0.06150943040847778,-0.022910157218575478,-0.1971341222524643,0.002464829245582223,-0.21314850449562073,0.07850570231676102,0.11924022436141968,0.1472977250814438,-0.08139607310295105,0.0026585974264889956,-0.12992200255393982,0.09569165110588074,0.008529630489647388,-0.08291928470134735,0.10895689576864243,-0.03556585684418678,0.09578511118888855,0.05607280135154724,0.050322555005550385,0.04640676826238632,-0.028051204979419708,-0.013438098132610321,-0.019836634397506714,0.03390395641326904,-0.27076318860054016,0.07119631767272949,-0.09845145046710968,0.046628188341856,-0.11946995556354523,-0.24793961644172668,0.017260141670703888,0.15888206660747528,-0.060749951750040054,0.04209880903363228,0.10736788809299469,0.09239306300878525,0.28511571884155273,-0.17129510641098022,-0.07398160547018051,0.22576408088207245,0.02476600371301174,-0.33721885085105896,-0.12961739301681519,-0.12970130145549774,-0.16729962825775146,-0.1288333237171173,0.19748170673847198,-0.2527941167354584,0.030877279117703438,0.17287389934062958,0.024774232879281044,-0.04378737881779671,0.06963147968053818,0.14395484328269958,0.01263486873358488,-0.044178709387779236,-0.037496935576200485,0.14753495156764984,0.012748506851494312,0.1930316686630249,-0.032948292791843414,0.018779437988996506,-0.04435795173048973,0.024049492552876472,-0.057164449244737625,0.19712358713150024,-0.1696489006280899,0.042435936629772186,-0.24373504519462585,0.12518157064914703,-0.03661119192838669,0.06208345293998718,0.08404041081666946,-0.025588445365428925,-0.18964321911334991,0.07094495743513107,0.11214864253997803,0.14008738100528717,0.07535575330257416,0.0006639296771027148,-0.06960096955299377,0.054617129266262054,-0.04523857682943344,0.20668622851371765,-0.22472591698169708,0.011571083217859268,-0.026902448385953903,0.09217428416013718,0.13576316833496094,-0.07344076037406921,0.13612376153469086,-0.173315167427063,-0.1780722290277481,0.16559530794620514,-0.08672958612442017,-0.1350342333316803,0.09871922433376312,0.003620391245931387,-0.1304253190755844,-0.16716796159744263,-0.03540043905377388,-0.04314258322119713,0.16950739920139313,-0.04115265607833862,0.05390697345137596,0.06104370951652527,-0.19760413467884064,0.09178923815488815,0.07980448752641678,0.1756972074508667,-0.13125675916671753,0.138339102268219,0.4558914005756378,-0.12307841330766678,-0.2800736129283905,0.04571698233485222,0.13716691732406616,-0.08498367667198181,0.24512599408626556,-0.06246590614318848,0.08374345302581787,0.0010320693254470825,-0.1283748596906662,-0.16853317618370056,0.045439206063747406,-0.014763121493160725,0.18989939987659454,0.03299493342638016,-0.028189677745103836,-0.19296348094940186,0.17534002661705017,0.024590224027633667,-0.05912292003631592,-0.014090081676840782,-0.007636078633368015,0.07808134704828262,-0.3117164671421051,0.13767550885677338,-0.24265068769454956,0.044214580208063126,0.08457726985216141,-0.004627508576959372,0.11440989375114441,0.10138680785894394,0.01959512196481228,-0.0010937877232208848,0.042141228914260864,-0.14869675040245056,0.22822116315364838,-0.06313923746347427,-0.03614862263202667,-0.11050362884998322,0.21966423094272614,-0.137240469455719,-0.013366246595978737,0.058178383857011795,-0.06569389998912811,-0.12473711371421814,0.07100915163755417,0.06689488887786865,0.01873237080872059,0.06389665603637695,0.22995790839195251,-0.06350713223218918,-0.0037845387123525143,-0.07443078607320786,-0.01285739429295063,0.16048920154571533,0.10876088589429855,0.007129922043532133,0.09819448739290237,0.054416362196207047,0.18013659119606018,0.027688583359122276,0.12504439055919647,0.08017069846391678,-0.05405696853995323,0.28881773352622986,0.07352153211832047,0.10959526896476746,0.02579325996339321,-0.10141634941101074,-0.006872016936540604,-0.029227061197161674,0.07811396569013596,0.2893081307411194,0.0941472053527832,0.08310301601886749,0.06073888763785362,0.2630457580089569,0.08151951432228088,0.23364213109016418,0.0428793728351593,-0.13455362617969513,0.1282396912574768,0.14144772291183472,-0.1340055763721466,-0.05606839060783386,-0.02004796825349331,-0.029161866754293442,0.0345548577606678,-0.07003848999738693,-0.004558196756988764,-0.0648471862077713,0.17658130824565887,0.021970340982079506,-0.10025500506162643,0.006009260192513466,0.15326239168643951,-0.28636112809181213,-0.14550410211086273,0.03736868128180504,0.020781168714165688,-0.152302548289299,-0.11387374997138977,-0.15235936641693115,-0.010938278399407864,0.05088556557893753,0.031124304980039597,0.007792928721755743,0.16252501308918,0.1346299648284912,0.3030514121055603,0.10157901793718338,-0.060087479650974274,0.08627266436815262,-0.09394761919975281,-0.03392850607633591,0.07805415242910385,0.04000161215662956,0.010465739294886589,0.008138936012983322,-0.15785446763038635,0.053344111889600754,0.28292638063430786,-0.03738987445831299,-0.07041214406490326,-0.037756696343421936,-0.10965480655431747,-0.022261466830968857,0.015861885622143745,-0.08355802297592163,-0.07622209936380386,0.05164002627134323,-0.1332322657108307,-0.010326379910111427,0.010651163756847382,-0.03178922459483147,0.05226385220885277,0.12797987461090088,-0.12384937703609467,0.008304214105010033,-0.023978879675269127,0.07002285122871399,-0.15999388694763184,-0.02839973382651806,0.02807987853884697,-0.1854076385498047,-0.03464817628264427,-0.15016496181488037,0.04643414169549942,0.05299822613596916,0.07277406752109528,0.05611894279718399,-0.028483392670750618,-0.19207195937633514,0.03654134273529053,-0.06652440130710602,-0.07730749249458313,-0.097233846783638,0.1739090383052826,-0.33375364542007446,0.4799833595752716,-0.3206864893436432,-0.1379738748073578,0.037590257823467255,0.034828070551157,-0.1473170667886734,0.011724651791155338,-0.12632295489311218,0.21481037139892578,-0.26454129815101624,0.07178547978401184,-0.057063013315200806,0.11849965900182724,-0.06339865177869797,0.287336528301239,-0.686764657497406,0.6210634708404541,0.057388655841350555,0.06578761339187622,-0.312033474445343,-0.10563395172357559,0.19077739119529724,-0.22971414029598236,0.08981839567422867,-0.055174570530653,-0.009266980923712254,-0.0867832601070404,-0.0710144117474556,0.12977609038352966,-0.17596694827079773,0.22268953919410706,-0.14516794681549072,-0.09321456402540207,0.2692395746707916,-0.497180700302124,-0.11038823425769806,-0.08482012897729874,-0.00762069271877408,-0.2440459132194519,0.10268736630678177,0.019073598086833954,0.06579709053039551,0.19139619171619415,-0.1465875804424286,-0.18987023830413818,-0.07618588954210281,0.29390567541122437,0.008282874710857868,-0.0028362011071294546,0.03372477367520332,-0.04884490743279457,0.053254976868629456,0.06263142824172974,-0.023228483274579048,-0.053743671625852585,0.02301255613565445,0.10045993328094482,-0.004952116869390011,-0.03325515240430832,0.04027489200234413,0.04845263808965683,-0.007073212880641222,0.06800509989261627,0.429757297039032,0.2735494077205658,0.4888956844806671,-0.8851029276847839,-0.4287095069885254,0.07185950875282288,0.3457689881324768,-0.1351812481880188,0.1379028707742691,0.28422123193740845,-0.881697952747345,0.44041240215301514,-0.11695092916488647,-0.7407159805297852,0.07837697118520737,-0.1729012131690979,-0.22354505956172943,-0.26177358627319336,0.12845167517662048,-0.34171319007873535,0.16044633090496063,0.12899139523506165,-0.2378069907426834,-0.2051558494567871,-0.384818971157074,0.14948546886444092,0.00030651988345198333,0.3839111924171448,-0.04235441982746124,-0.21510304510593414,0.25269514322280884,-0.06914997100830078,-0.12607017159461975,-0.35816967487335205,0.3131919503211975,-0.034879256039857864,-0.028159065172076225,0.048157092183828354,0.4069198668003082,-0.1508246809244156,-0.10068073868751526,0.006627303082495928,-0.3383651077747345,0.05591565743088722,0.14246860146522522,0.21572957932949066,-0.4048932194709778,-0.1729511171579361,-0.220415398478508,-0.03982250392436981,-0.1730620414018631,-0.23983971774578094,-0.020541805773973465,-0.09059911966323853,-0.18771152198314667,0.2590996325016022,-0.021777991205453873,-0.13012586534023285,-0.05587361752986908,-0.08157756179571152,0.0014585147146135569,-0.007042696233838797,0.1530720442533493,-0.03281797096133232,-0.1801145076751709,-0.09015550464391708,-0.06001667678356171,-0.4922292232513428,0.1941860318183899,0.17281147837638855,0.033320315182209015,0.18427777290344238,-0.07004231214523315,-0.2204761505126953,0.3431135416030884,0.06696264445781708,0.2946073114871979,-0.020393934100866318,0.02509831078350544,-0.02608535625040531,0.12761104106903076,0.12328963726758957,0.020738424733281136,0.02420080080628395,0.00724238995462656,-0.06994561851024628,-0.2766793668270111,-0.0837504044175148,0.1684315800666809,0.19941522181034088,0.08477310091257095,0.10684765130281448,-0.11748761683702469,-0.17888373136520386,-0.010960168205201626,0.021267447620630264,-0.0439268983900547,0.42953941226005554,0.35655567049980164,0.1259053498506546,0.028494181111454964,0.1759195178747177,-0.05562601983547211,0.037668827921152115,0.18663270771503448,-0.020184816792607307,-0.022670136764645576,0.08710379898548126,-0.06735733151435852,0.11605969816446304,-0.09695562720298767,0.29653120040893555,0.05412221699953079,-0.11538629233837128,-0.27645400166511536,0.18387722969055176,-0.4022030830383301,-0.25480878353118896,0.17556005716323853,0.2510662376880646,0.05779055133461952,0.1486573964357376,-0.2803381681442261,0.05869030952453613,-0.07821246981620789,-0.2755894660949707,0.3943640887737274,-0.2606114149093628,-0.04319868981838226,0.13925501704216003,-0.12304005771875381,0.25309115648269653,0.14770559966564178,-0.2056863158941269,-0.15488338470458984,0.2401566505432129,0.10553645342588425,0.08878311514854431,-0.12609457969665527,-0.03880699723958969,-0.17772062122821808,-0.027263112366199493,0.14915159344673157,-0.08924777805805206,-0.20451876521110535,-0.11397810280323029,-0.10086973756551743,0.0379171259701252,0.15278972685337067,0.032936569303274155,0.04177335277199745,-0.298458993434906,-0.07496091723442078,0.03280220553278923,-0.039321042597293854,0.13206475973129272,0.16505853831768036,0.16445580124855042,-0.002953364746645093,0.03316228464245796,0.057672400027513504,0.15473273396492004,0.22464913129806519,0.07442297786474228,-0.030871016904711723,0.12289077043533325,-0.1285267025232315,0.09305661916732788,-0.05177074670791626,-0.1078449934720993,0.19347934424877167,-0.3244403004646301,0.16579458117485046,-0.07316596806049347,0.1402062475681305,0.08336158096790314,-0.14437365531921387,0.13288484513759613,-0.3651253879070282,0.03822140768170357,-0.20603333413600922,0.11578059941530228,-0.19265393912792206,-0.1941709816455841,0.13787512481212616,0.1583070456981659,-0.16940255463123322,-0.12789230048656464,-0.19662748277187347,-0.010740641504526138,0.17977063357830048,-0.09275667369365692,0.04974845424294472,0.04351874440908432,-0.43913450837135315,-0.13418671488761902,0.011284341104328632,-0.15868712961673737,-0.12718245387077332,-0.11484067142009735,-0.49368539452552795,0.08406397700309753,0.19276802241802216,0.4672752022743225,-0.34002891182899475,0.281698077917099,-0.036717645823955536,-0.12785805761814117,-0.033365026116371155,0.04072771966457367,0.404080331325531,0.3761861324310303,0.0037048247177153826,-0.028555965051054955,-0.03709276765584946,0.15229709446430206,0.31372398138046265,0.07533907890319824,-0.09792965650558472,-0.009389402344822884,-0.012443064711987972,0.11512710154056549,-0.1650448441505432,-0.024167731404304504,-0.23439083993434906,-0.020508211106061935,-0.311233788728714,0.408936470746994,-0.12709970772266388,-0.026223573833703995,-0.11974628269672394,-0.026616442948579788,-0.18177038431167603,0.43261000514030457,0.14436067640781403,0.15448974072933197,-0.1302681565284729,-0.20046648383140564,-0.07339172065258026,0.2105863392353058,0.19068291783332825,-0.16993606090545654,0.11634702235460281,0.12603119015693665,-0.17386272549629211,-0.2931020259857178,-0.0007060375064611435,0.15245628356933594,0.028054071590304375,0.09549735486507416,-0.314304918050766,0.14905355870723724,0.10221734642982483,0.1404014676809311,0.101155124604702,-0.08847147971391678,-0.10367807000875473,0.2394780069589615,-0.4531916677951813,-0.17853784561157227,-0.204942986369133,-0.033573199063539505,-0.13310487568378448,-0.1633051186800003,-0.4441375732421875,0.11016196757555008,-0.15567578375339508,0.08533641695976257,-0.01462195347994566,-0.22809381783008575,-0.0963616818189621,0.17586806416511536,-0.10277251899242401,0.024730244651436806,0.00711772870272398,-0.013018363155424595,-0.0011376161128282547,-0.01777966134250164,0.011730173602700233,0.029186269268393517,-0.02536575309932232,0.13466259837150574,0.056839875876903534,0.029662316665053368,-0.01181869301944971,-0.15259428322315216,-0.04833822697401047,-0.0020741731859743595,0.24256300926208496,-0.07868729531764984,-0.12989604473114014,-0.060754358768463135,0.027679812163114548,-0.0626504048705101,-0.25415757298469543,0.2908836007118225,0.01991156116127968,0.1416284739971161,0.4473983645439148,-0.13363973796367645,0.11764939874410629,0.3997962772846222,0.05240149423480034,0.18430952727794647,0.2313510924577713,0.09467373788356781,-0.27551528811454773,-0.3102983832359314,-0.061685364693403244,0.4623772203922272,0.07179022580385208,-0.3095124661922455,-0.32397377490997314,-0.18053054809570312,0.2533087730407715,0.1710193157196045,0.09117256850004196,-0.09850878268480301,-0.2223060429096222,0.08342289924621582,-0.007657885551452637,-0.013290655799210072,-0.16189374029636383,-0.18292146921157837,0.17790104448795319,0.5979483723640442,0.18489192426204681,-0.6650280356407166,-0.4112493395805359,0.050242386758327484,0.21251577138900757,0.3916991055011749,0.08476786315441132,-0.25297755002975464,-0.46779218316078186,-0.2686629593372345,-0.25470027327537537,-0.16408906877040863,0.35830268263816833,-0.05481952056288719,0.008382597006857395,0.04562843218445778,0.11387234926223755,0.12353943288326263,-0.3944953680038452,0.1287936270236969,-0.4011525809764862,-0.4892534911632538,0.2512156665325165,0.1590239703655243,-0.07663863897323608,0.05757450312376022,-0.06694283336400986,-0.1807287484407425,-0.24089503288269043,0.0711229220032692,0.1937360316514969,-0.5088219046592712,-0.20652297139167786,0.24384082853794098,0.24823014438152313,0.19791467487812042,-0.15991896390914917,-0.11651390045881271,-0.10898654162883759,0.07425817102193832,0.4377332925796509,0.08936253935098648,-0.20198747515678406,0.06755358725786209,-0.1112585961818695,0.09660550951957703,0.16840860247612,-0.1941201388835907,-0.44069239497184753,-0.0909254401922226,-0.22397582232952118,0.10459554940462112,0.3196841776371002,-0.11152315139770508,-0.4694734215736389,-0.20949795842170715,0.06714021414518356,0.28644633293151855,0.15239663422107697,-0.01736804097890854,0.06567341089248657,0.09878969937562943,0.18968521058559418,0.16287168860435486,-0.12879899144172668,0.08943458646535873,-0.016152458265423775,-0.33020490407943726,-0.03709183633327484,-0.3707634210586548,-0.0014539468102157116,-0.1084473580121994,0.026519352570176125,0.004388675093650818,-0.016568772494792938,-0.062213968485593796,-0.2012868970632553,-0.1540701538324356,-0.14788873493671417,0.0966523215174675,-0.0828026831150055,0.008120972663164139,0.06028283014893532,-0.01845065876841545,-0.26957812905311584,0.2231893092393875,-0.10674091428518295,0.1480943262577057,0.11267368495464325,0.2733723521232605,0.02683642879128456,0.10041028261184692,0.13887298107147217,0.21740494668483734,-0.04517533257603645,-0.07933519035577774,0.05154911428689957,-0.3723141849040985,0.034606557339429855,0.1352517008781433,-0.16066108644008636,-0.04401421919465065,0.1791980117559433,0.03993238881230354,0.0387965552508831,0.05680983513593674,-0.13618281483650208,-0.19892968237400055,0.2229340821504593,0.0355253741145134,0.06682378053665161,-0.0330519936978817,0.04475736990571022,0.24638111889362335,-0.1262281835079193,-0.19016917049884796,-0.1534607857465744,0.06391728669404984,-0.059792324900627136,-0.00871240347623825,-0.039383869618177414,-0.0073642185889184475,-0.028209198266267776,0.04555124789476395,0.1876419484615326,-0.10831332951784134,-0.01918053813278675,0.12433759868144989,-0.04163011908531189,-0.031719401478767395,0.029667330905795097,-0.04764966294169426,-0.04652300104498863,-0.18366152048110962,-0.005032212007790804,0.14478851854801178,0.05531684681773186,0.1439625769853592,-0.09831086546182632,-0.07652707397937775,-0.10952427983283997,-0.06653017550706863,0.03995893895626068,0.1404399871826172,-0.17426693439483643,-0.1512337476015091,-0.11978761851787567,-0.2867271602153778,-0.0429108701646328,0.0978921577334404,-0.09437655657529831,0.08705880492925644,-0.09632311761379242,-0.10484536737203598,0.05959996208548546,0.17762945592403412,0.006505222991108894,0.11895786970853806,0.23434709012508392,-0.13929300010204315,0.09023265540599823,-0.11860757321119308,0.4275129735469818,-0.23987014591693878,-0.06535501033067703,0.0010249298065900803,0.13399259746074677,0.03493605926632881,0.05965545028448105,0.08457581698894501,0.03360743075609207,-0.13784576952457428,0.13046959042549133,0.0542735829949379,-0.11866085231304169,0.19410718977451324,0.19014057517051697,-0.1404527872800827,-0.03267829492688179,0.028877297416329384,0.37853869795799255,0.04470891132950783,0.124008409678936,0.009402128867805004,-0.07759544253349304,0.05706414580345154,0.12715940177440643,0.03825479745864868,-0.25944027304649353,-0.0855078473687172,-0.1440015733242035,0.001202953397296369,0.03697939217090607,-0.05297841504216194,0.23074190318584442,0.07729539275169373,0.20018912851810455,-0.14546054601669312,0.2525671720504761,0.08150921761989594,0.020404784008860588,0.20658765733242035,-0.17922772467136383,0.19414162635803223,-0.20308539271354675,-0.016760101541876793,0.06530071794986725,-0.3628954291343689,0.16108611226081848,-0.12909835577011108,0.14871333539485931,0.42079031467437744,-0.32210052013397217,0.2920701801776886,-0.16194182634353638,-0.08542131632566452,0.2532771825790405,0.071327805519104,-0.22306106984615326,0.3559549152851105,0.12159699201583862,-0.005878310650587082,-0.2568385601043701,-0.0777934268116951,0.07559704780578613,-0.01270564179867506,-0.1537569910287857,0.04696086421608925,-0.029117852449417114,0.14304406940937042,0.0693095400929451,-0.15529274940490723,0.01248529739677906,0.020619211718440056,0.1022903248667717,-0.4313351511955261,0.2734951078891754,0.06338184326887131,0.11578168720006943,-0.2013479620218277,0.09376484155654907,-0.24004782736301422,0.3296351134777069,-0.20295189321041107,0.1116703525185585,-0.15232199430465698,0.13709929585456848,0.10294788330793381,0.09019508957862854,0.17581915855407715,-0.8157380819320679,-0.49236273765563965,0.048204146325588226,0.3005582094192505,-0.34562355279922485,0.020903246477246284,-0.2628905773162842,-0.011797895655035973,-0.05313093215227127,-0.44100409746170044,-0.9037932753562927,0.04396343231201172,-0.4269088804721832,0.155531644821167,0.011021088808774948,0.7159731984138489,0.3056260049343109,0.06060006469488144,-0.439726859331131,0.6519535183906555,-0.0033893182408064604,-0.18616335093975067,0.0074500092305243015,-0.07833220064640045,-0.1487216055393219,-0.09423931688070297,0.07576862722635269,0.26376742124557495,0.2766384780406952,-0.083040751516819,-0.23719340562820435,0.08239060640335083,-0.09065889567136765,-0.7313507199287415,-0.4644605219364166,0.019458670169115067,-0.14300191402435303,0.6533576846122742,0.07290365546941757,-0.06175121292471886,0.5105881094932556,-0.07170603424310684,-0.6168566346168518,0.4724266827106476,0.09265565872192383,0.38990455865859985,-0.3229837417602539,-0.09584364295005798,0.17625010013580322,0.20261724293231964,0.022576112300157547,0.08501927554607391,0.11710451543331146,-0.038197703659534454,0.019151346758008003,-0.2128162831068039,0.28287744522094727,0.055670831352472305,-0.019313348457217216,-0.039313897490501404,-0.03234008699655533,-0.051683209836483,0.006096280179917812,-0.0360739603638649,0.052918691188097,-0.01716301031410694,-0.14903037250041962,0.04751138016581535,-0.0022955392487347126,0.12500591576099396,-0.09712345153093338,-0.13110248744487762,-0.051394205540418625,0.06010089069604874,0.1328524798154831,0.053756892681121826,-0.014807822182774544,-0.17354604601860046,-0.08414365351200104,0.0029889089055359364,0.1794809252023697,-0.20828214287757874,-0.16082218289375305,0.2985556125640869,0.051587846130132675,-0.12671184539794922,0.08384004235267639,-0.039872147142887115,0.20059935748577118,-0.039971597492694855,0.11513778567314148,-0.37803640961647034,0.11923812329769135,0.02431103028357029,0.1600700318813324,0.16307459771633148,-0.04105101153254509,-0.014693495817482471,0.14648696780204773,0.2211340218782425,-0.00024869799381121993,0.2716161608695984,-0.12452433258295059,-0.09208711236715317,-0.01811150088906288,0.0026416361797600985,0.24951240420341492,0.009598605334758759,0.04751398786902428,-0.2473423033952713,0.17789816856384277,0.17739424109458923,-0.03849827125668526,-0.0076091173104941845,-0.3298777937889099,-0.3338718116283417,0.05537179112434387,-0.060444023460149765,-0.22076565027236938,-0.01307463739067316,0.14419947564601898,0.014805079437792301,0.020247530192136765,-0.22989916801452637,0.07556813955307007,0.09355570375919342,-0.13756199181079865,-0.050938766449689865,0.01708524487912655,0.05815672501921654,0.02795148640871048,-0.17706623673439026,0.3822522461414337,0.22569288313388824,0.05714593455195427,0.04623783007264137,0.05122469365596771,0.21247927844524384,0.03475712612271309,0.21458198130130768,-0.25764814019203186,-0.2869017422199249,-0.16918373107910156,0.05171671137213707,-0.17968527972698212,-0.099807009100914,0.08055844902992249,-0.009067706763744354,0.020180586725473404,-0.016335221007466316,0.13767275214195251,0.17625878751277924,-0.21549242734909058,0.00897795706987381,0.01358860731124878,0.09049292653799057,-0.02232508361339569,-0.11407001316547394,-0.08636391162872314,-0.001510697533376515,0.034818947315216064,-0.03355369716882706,0.020965835079550743,-0.010245973244309425,-0.17172981798648834,-0.07728201150894165,0.006483831908553839,0.10689280182123184,0.11742407828569412,0.1587405651807785,0.03956108167767525,-0.19624169170856476,-0.11768956482410431,-0.009336269460618496,0.2127707302570343,0.1309599131345749,-0.2059856504201889,0.07975289970636368,-0.03786217421293259,-0.09909481555223465,-0.034678567200899124,0.021019335836172104,-0.19026273488998413,0.13180220127105713,0.011095470748841763,-0.08972065150737762,-0.04264606535434723,0.03294498100876808,-0.08114124834537506,0.031010491773486137,0.009641759097576141,-0.12594866752624512,-0.2613582909107208,0.016456982120871544,0.15781675279140472,-0.10531477630138397,-0.036075104027986526,0.04146362468600273,0.12521839141845703,0.13278141617774963,-0.22166909277439117,0.1496422439813614,-0.09936229884624481,-0.13014449179172516,-0.07682038098573685,0.0443849079310894,0.1838867962360382,-0.07349597662687302,-0.023134270682930946,-0.02176537737250328,0.09756090492010117,-0.054602984338998795,-0.12850823998451233,-0.2539970278739929,-0.10688087344169617,0.09281051158905029,0.23609031736850739,-0.06386905163526535,-0.23254483938217163,-0.10306026041507721,0.13336296379566193,0.14479480683803558,0.26180025935173035,0.0960049107670784,-0.2010168582201004,0.2205778807401657,0.06726080924272537,-0.13224589824676514,-0.009054365567862988,0.18407955765724182,0.013893465511500835,0.13697734475135803,-0.004313753452152014,-0.16121329367160797,0.020401552319526672,0.019497273489832878,-0.13648900389671326,-0.03728329390287399,