const Model1 = {"version":"0.5.4","metadata":{"date":{"year":2025,"month":10,"day":19,"hour":9,"minute":3,"second":4},"loudness":-23.95357322692871,"gain":0.5510312730984496,"name":"TESTER - TESTER - T3K-sweep-v3","modeled_by":"olasplaysguitar","gear_type":"amp","gear_make":"tz-make","gear_model":"tz-model","tone_type":"overdrive","input_level_dbu":null,"output_level_dbu":null,"training":{"settings":{"ignore_checks":false},"data":{"latency":{"manual":null,"calibration":{"algorithm_version":1,"delays":[-746],"safety_factor":1,"recommended":-747,"warnings":{"matches_lookahead":false,"disagreement_too_high":false}}},"checks":{"version":3,"passed":true}},"validation_esr":0.04189153673540676}},"architecture":"WaveNet","config":{"layers":[{"input_size":1,"condition_size":1,"head_size":8,"channels":16,"kernel_size":3,"dilations":[1,2,4,8,16,32,64,128,256,512],"activation":"Tanh","gated":false,"head_bias":false},{"input_size":16,"condition_size":1,"head_size":1,"channels":8,"kernel_size":3,"dilations":[1,2,4,8,16,32,64,128,256,512],"activation":"Tanh","gated":false,"head_bias":true}],"head":null,"head_scale":0.02},"weights":[-0.008556772023439407,0.6457180976867676,-0.8804382085800171,-0.7360251545906067,-0.3391384184360504,0.2628278136253357,-0.012396435253322124,0.8447675704956055,-0.09430654346942902,0.1024988442659378,-0.4060271978378296,-0.2633604407310486,-1.0316849946975708,-0.6459307074546814,-0.35263940691947937,0.0075599998235702515,0.09588995575904846,0.1841372400522232,-0.18904611468315125,-0.13857725262641907,-0.15394824743270874,0.23827768862247467,0.04690316691994667,0.31404292583465576,-0.13716623187065125,0.0893266573548317,0.3340352773666382,-0.24973207712173462,-0.01589113287627697,0.1649952232837677,-0.17324139177799225,0.0676487609744072,-0.27730754017829895,0.06287813186645508,-0.1117912158370018,-0.04077345132827759,-0.21501193940639496,0.04809701070189476,-0.14182408154010773,0.18527430295944214,0.0504106730222702,0.08803900331258774,-0.11362980306148529,-0.18345996737480164,-0.2672896683216095,0.051649488508701324,0.15095803141593933,0.27793556451797485,-0.1974058747291565,0.05651737377047539,0.28718945384025574,0.013463697396218777,0.13517025113105774,0.22770164906978607,-0.017433399334549904,-0.011574174277484417,0.22968372702598572,-0.22793729603290558,-0.030107934027910233,0.12187892943620682,-0.049950890243053436,-0.012906610034406185,-0.2002735733985901,0.09532605111598969,0.06555075943470001,0.08997471630573273,-0.09198703616857529,0.00428942684084177,-0.13316969573497772,0.22053112089633942,-0.07917170971632004,0.17084352672100067,-0.02035588212311268,0.14926394820213318,0.3471488654613495,0.048738062381744385,0.052385374903678894,0.08683130890130997,-0.07379008829593658,-0.10022125393152237,-0.33443328738212585,0.2251509577035904,0.047241732478141785,-0.03524645045399666,-0.11069764941930771,-0.055425841361284256,-0.2468157708644867,0.012688819319009781,0.03962220251560211,0.08241736143827438,-0.06771545112133026,0.06614398956298828,-0.08365315943956375,0.14671048521995544,-0.12873661518096924,0.11217209696769714,-0.02390631102025509,0.04482228681445122,0.09245144575834274,-0.18093319237232208,0.16901646554470062,0.3230387270450592,-0.13976800441741943,-0.007447896525263786,0.08234930038452148,-0.08233530074357986,-0.08421950787305832,0.10110068321228027,-0.09045621752738953,-0.021537981927394867,-0.2058897465467453,0.1409265249967575,-0.01583232916891575,0.077130027115345,0.16864503920078278,-0.1974935382604599,0.13999028503894806,-0.03802688047289848,0.09377842396497726,-0.14156875014305115,0.09791918843984604,0.08300401270389557,-0.24342486262321472,0.11168999969959259,-0.05900532379746437,-0.2510794699192047,0.013970083557069302,-0.1596965193748474,0.10202851891517639,-0.17821426689624786,0.09162541478872299,-0.04268298298120499,0.0012918568681925535,-0.08124281466007233,0.27793341875076294,-0.05786420404911041,0.11705157160758972,-0.12756624817848206,0.11874760687351227,0.0002516953682061285,0.27052170038223267,0.027486642822623253,0.22640641033649445,-0.17216135561466217,-0.07299456745386124,0.014975137077271938,-0.06611756235361099,0.05171657353639603,0.0001987224241020158,-0.2879081964492798,-0.09401443600654602,-0.04620977118611336,-0.2008894383907318,0.12356751412153244,0.15530285239219666,-0.30313020944595337,0.13786613941192627,-0.1504705399274826,0.02637089416384697,-0.13467001914978027,-0.03572637215256691,0.004367261193692684,-0.21363797783851624,-0.17719972133636475,-0.14113017916679382,0.07806862890720367,-0.012122927233576775,0.17447015643119812,-0.20204640924930573,0.04259973391890526,0.24585948884487152,-0.13256683945655823,0.17411936819553375,0.15902291238307953,-0.2122041881084442,0.05646263808012009,-0.11913122236728668,0.023343442007899284,0.05130414664745331,-0.10520992428064346,-0.1361023485660553,-0.08332207798957825,-0.01671157032251358,0.11398622393608093,0.07486610114574432,0.12476538121700287,-0.1453588604927063,-0.05107709392905235,-0.20182497799396515,0.17425496876239777,0.15179595351219177,0.20287877321243286,-0.19144132733345032,0.04649605229496956,0.003106227610260248,-0.16890232264995575,-0.028393372893333435,0.17143407464027405,-0.1577306091785431,0.04734964668750763,0.12285654991865158,0.01756405457854271,-0.06419061869382858,0.011834773235023022,-0.16206136345863342,0.08723467588424683,-0.11043836921453476,0.18865181505680084,0.035955507308244705,-0.1792410910129547,0.03717324510216713,-0.052455976605415344,0.32338204979896545,-0.09489905834197998,0.020867973566055298,-0.28467288613319397,-0.053064975887537,-0.053172145038843155,-0.1844913512468338,-0.05662558227777481,0.01610552705824375,-0.14826758205890656,0.1195254698395729,-0.03737892955541611,0.15032008290290833,-0.010954007506370544,0.0014325325610116124,-0.2027522176504135,0.0810471773147583,-0.04232823848724365,0.30459997057914734,0.05889561399817467,0.08056674152612686,-0.11122133582830429,0.1963862180709839,-0.12509633600711823,0.3285095989704132,-0.17254172265529633,-0.021956343203783035,-0.24152815341949463,0.12699414789676666,0.1431855857372284,-0.32939785718917847,0.07870880514383316,0.09339426457881927,-0.4458777606487274,0.16239091753959656,-0.0957239493727684,-0.29669108986854553,0.03721114620566368,-0.050957899540662766,-0.271475613117218,0.1829303652048111,-0.005086603574454784,0.12685975432395935,-0.07407257705926895,-0.11279308050870895,-0.02485310286283493,-0.006017791107296944,-0.12066102772951126,0.10974717885255814,0.0390341617166996,0.09731779247522354,-0.08332272619009018,0.09160330891609192,-0.02546321414411068,-0.23221299052238464,0.08383319526910782,0.14712966978549957,-0.14292608201503754,-0.01899809204041958,-0.10780985653400421,0.03481699526309967,-0.027332015335559845,0.020564354956150055,-0.2146303355693817,0.23192057013511658,-0.11601182818412781,0.17631424963474274,-0.00026216564583592117,0.07109899818897247,-0.2346181720495224,-0.031580109149217606,0.07540817558765411,0.183633491396904,0.06333177536725998,-0.009075677022337914,-0.13443008065223694,0.024252496659755707,0.032060205936431885,-0.26200228929519653,0.10931161046028137,0.06580677628517151,-0.19832418859004974,0.00714093865826726,-0.0651499554514885,-0.09050708264112473,-0.06511185318231583,0.08601761609315872,-0.23189082741737366,-0.024077875539660454,0.02686702460050583,0.04303465038537979,-0.005194964352995157,0.03946845978498459,-0.1282445639371872,0.05990292876958847,-0.06513987481594086,0.060686610639095306,-0.050652213394641876,0.009607113897800446,-0.022466585040092468,0.0864107757806778,0.07493369281291962,0.05427392199635506,0.1322077512741089,0.03964238986372948,-0.004416360519826412,0.08833473920822144,-0.11699830740690231,0.008087408728897572,-0.024178924039006233,-0.0365334153175354,-0.022277139127254486,0.11819867044687271,0.0019733670633286238,0.08382343500852585,-0.01743808016180992,0.19709596037864685,-0.055752530694007874,-0.06204957887530327,-0.23794598877429962,0.1450577676296234,0.0565384179353714,0.024541089311242104,0.05487480387091637,0.1396484225988388,0.258775919675827,0.11911876499652863,0.13656704127788544,0.09514008462429047,-0.05060558021068573,0.15442398190498352,0.2074958235025406,-0.08731095492839813,0.16478076577186584,0.19077320396900177,0.07772041112184525,-0.05515511333942413,-0.03025485761463642,-0.06721978634595871,0.0397997684776783,-0.009416169486939907,0.0270425695925951,0.0010987608693540096,0.03795317932963371,-0.010777754709124565,0.16200409829616547,-0.07875175774097443,-0.007484143134206533,-0.19060871005058289,-0.12156267464160919,-0.15724080801010132,0.021626252681016922,0.10115404427051544,0.09991901367902756,0.029813498258590698,-0.1550983488559723,-0.06220556050539017,0.05921558290719986,-0.05602157860994339,0.07984103262424469,-0.14269770681858063,-0.09122112393379211,-0.09860359132289886,0.011450538411736488,0.15210866928100586,0.08864308893680573,0.033973969519138336,0.0945417657494545,0.17142924666404724,0.0424623042345047,0.0909464955329895,0.09483569860458374,-0.041666530072689056,0.16757798194885254,0.039847273379564285,0.0052327681332826614,-0.030112838372588158,0.027838952839374542,-0.07756296545267105,-0.013737979345023632,-0.12233320623636246,-0.17349988222122192,-0.0923721119761467,0.054996684193611145,0.01322710420936346,-0.06208193674683571,-0.07180799543857574,0.12277708947658539,0.12045647203922272,-0.07422355562448502,0.01311162393540144,0.001834206748753786,0.22999590635299683,-0.1852661520242691,0.26773279905319214,-0.05710823833942413,0.022708293050527573,0.2110191434621811,-0.24720963835716248,0.05324074625968933,0.24697041511535645,-0.16269360482692719,-0.02771650068461895,-0.1830412745475769,0.1097755953669548,-0.11519050598144531,0.11968309432268143,0.05136265978217125,0.0903310626745224,-0.21983882784843445,0.17394693195819855,-0.007206280250102282,0.20680172741413116,-0.25087371468544006,0.08203588426113129,-0.22977833449840546,0.07572094351053238,-0.02342953532934189,0.03705889359116554,-0.10789014399051666,0.20477750897407532,0.14123106002807617,-0.26340726017951965,0.02646607905626297,0.16133031249046326,-0.27902480959892273,0.14685958623886108,0.0003790395858231932,-0.3023725152015686,-0.0641544908285141,0.09813600778579712,-0.0609729178249836,-0.06034499779343605,0.08972834050655365,0.023298554122447968,-0.019123125821352005,0.012384388595819473,-0.2108203023672104,0.19751876592636108,0.13628128170967102,0.3073911964893341,0.0032369073014706373,-0.15637722611427307,-0.04604614898562431,0.0714915320277214,0.009716089814901352,-0.2802911102771759,0.02429814822971821,-0.19481933116912842,-0.2114887237548828,0.10505226254463196,-0.07189152389764786,0.19367752969264984,-0.0026857720222324133,0.06228671967983246,-0.16502775251865387,0.010848317295312881,0.015698665753006935,0.22930678725242615,0.07684237509965897,0.06667179614305496,-0.13871753215789795,0.1491410732269287,-0.10978548973798752,0.009516114369034767,-0.01659073680639267,-0.12685799598693848,-0.08073270320892334,-0.020416274666786194,-0.11581642925739288,-0.2673186957836151,0.15969476103782654,-0.07703916728496552,-0.05693816766142845,0.15329398214817047,0.02214192971587181,-0.15823417901992798,0.02241426520049572,-0.08440937101840973,-0.13824860751628876,0.14057154953479767,-0.06131014972925186,0.23202766478061676,-0.058126069605350494,-0.24729789793491364,-0.08183805644512177,0.11395496875047684,0.3857307732105255,-0.13602517545223236,0.1015593558549881,-0.18507061898708344,0.08089768886566162,0.11337629705667496,-0.3334963321685791,0.043553676456213,0.053722083568573,-0.2807076871395111,0.05605509877204895,-0.03461136296391487,0.3335593342781067,-0.04311468079686165,-0.051313936710357666,-0.11649547517299652,0.10966462641954422,-0.020056135952472687,0.2697106897830963,0.08662876486778259,-0.008514143526554108,-0.1847352683544159,-0.025676945224404335,0.047860246151685715,0.1074465736746788,-0.1071295291185379,-0.09474778175354004,-0.11654727905988693,-0.0314437672495842,0.004368085879832506,-0.3148247301578522,0.15389858186244965,0.15342621505260468,-0.36693689227104187,-0.12048811465501785,-0.11580119282007217,-0.25538715720176697,-0.038432881236076355,-0.09905880689620972,-0.2966809868812561,0.02981339767575264,-0.07584000378847122,0.15130731463432312,-0.05465037375688553,-0.06053054332733154,-0.09026814252138138,0.18355496227741241,0.0025557316839694977,0.32537105679512024,-0.12234275788068771,0.0092609329149127,-0.45614269375801086,-0.07437975704669952,0.26741209626197815,-0.40817010402679443,0.09297975897789001,0.11443977802991867,-0.33256831765174866,0.039436280727386475,0.2262648046016693,0.30902570486068726,-0.21045680344104767,-0.21347305178642273,-0.21508651971817017,0.18773488700389862,0.05921905115246773,0.45558446645736694,-0.09633104503154755,-0.1525740772485733,-0.17063580453395844,0.1379411667585373,0.23721419274806976,0.346411794424057,-0.12439776211977005,-0.23657763004302979,-0.32307517528533936,0.19605223834514618,0.09238388389348984,-0.43241816759109497,0.1451425403356552,0.29263776540756226,-0.3623158633708954,-0.055673398077487946,-0.00464665936306119,-0.28062957525253296,0.05407390743494034,0.05453057587146759,-0.2743445932865143,0.123384490609169,0.24398861825466156,0.24448774755001068,-0.05372297391295433,-0.15720732510089874,-0.1909196674823761,0.2486748844385147,0.003321932628750801,0.28438255190849304,-0.40454527735710144,0.1639397293329239,-0.08689233660697937,0.40019068121910095,-0.15749546885490417,-0.2759917974472046,0.17145422101020813,0.10327713191509247,-0.27290794253349304,0.20748379826545715,0.045656029134988785,0.1568344235420227,-0.32344314455986023,0.03293793275952339,-0.16761766374111176,0.06287702172994614,0.09738174825906754,0.1579442024230957,-0.22202318906784058,0.1589919924736023,-0.14648528397083282,0.23620544373989105,0.052433524280786514,0.20818154513835907,-0.3160531520843506,0.15494196116924286,-0.19103020429611206,0.13358910381793976,-0.07398519665002823,-0.31086963415145874,0.40935561060905457,-0.047090910375118256,-0.3536223769187927,0.2660216987133026,0.05783632770180702,-0.1839800924062729,0.3157123327255249,-0.019231069833040237,-0.15947340428829193,0.22938822209835052,-0.08894617110490799,-0.09488127380609512,-0.2379242181777954,0.09983103722333908,-0.1039942279458046,0.094108447432518,0.0032053699251264334,0.02396048791706562,-0.2516718804836273,0.1669418215751648,-0.09672468155622482,0.2759736180305481,-0.14169549942016602,-0.04937564954161644,0.23389609158039093,-0.08711803704500198,0.09939626604318619,0.04709574580192566,-0.15773361921310425,-0.03202905133366585,-0.11100674420595169,0.17976202070713043,-0.1555413007736206,0.10054674744606018,-0.1311047375202179,-0.018125873059034348,-0.05058426037430763,-0.08421926945447922,-0.04080084711313248,0.23718537390232086,-0.09248466789722443,0.15028655529022217,-0.16672086715698242,0.16186732053756714,-0.16593380272388458,0.12124011665582657,-0.06748171150684357,0.02259657345712185,0.19891414046287537,0.06862669438123703,-0.03257792815566063,0.15393288433551788,0.07336778938770294,-0.05483924597501755,0.2798644006252289,-0.12552662193775177,-0.036843668669462204,0.1372048258781433,0.029976818710565567,0.11289799958467484,-0.10072578489780426,-0.08445095270872116,0.04902243614196777,0.030729247257113457,0.049133457243442535,-0.05020733177661896,0.05511648207902908,0.11356332153081894,-0.026415061205625534,-0.10033561289310455,0.12157360464334488,-0.1447022408246994,0.06930150091648102,0.04357333853840828,-0.1026114970445633,0.08875847607851028,-0.10586689412593842,0.06832198053598404,-0.1262497752904892,-0.03566443920135498,-0.002221417613327503,0.1607193946838379,-0.027485469356179237,0.1304691880941391,-0.05438968539237976,-0.09060215204954147,-0.1581754833459854,-0.10455876588821411,0.15233901143074036,-0.009246260859072208,-0.027701087296009064,0.011867739260196686,0.061362940818071365,0.1625179797410965,0.14257219433784485,-0.14217542111873627,0.021040810272097588,-0.0529649592936039,-0.12080605328083038,0.07087094336748123,0.15773892402648926,-0.15242603421211243,0.1242251768708229,-0.0509772002696991,-0.06030896306037903,0.15251943469047546,-0.005788038019090891,-0.023843251168727875,-0.14425711333751678,0.06456101685762405,0.014258945360779762,-0.07475769519805908,-0.009055441245436668,-0.1600245237350464,-0.19022157788276672,0.10502888262271881,0.17580442130565643,0.03833909332752228,-0.02115863561630249,0.18452562391757965,0.17315618693828583,-0.16666224598884583,0.03505637124180794,0.02487032487988472,-0.21535010635852814,-0.052305471152067184,0.04257858172059059,0.2198803871870041,0.04162992909550667,0.0577547550201416,-0.13625797629356384,0.046561941504478455,-0.14023227989673615,-0.010867785662412643,0.07698667794466019,0.14568451046943665,-0.22580599784851074,0.10036160051822662,0.010356822982430458,0.007743409369140863,0.02080293744802475,0.1946612149477005,-0.21258528530597687,0.014526729471981525,0.12196928262710571,-0.22480051219463348,0.1411726325750351,0.1554223746061325,-0.0007211155025288463,-0.032868508249521255,0.2203148454427719,-0.17674459517002106,0.2025010734796524,-0.06494471430778503,-0.2182132601737976,0.017408523708581924,-0.004421314690262079,0.05124783515930176,-0.04349343478679657,-0.11714891344308853,-0.051256585866212845,-0.10750649869441986,-0.02196696400642395,0.040307555347681046,-0.00849929079413414,0.00023384197265841067,0.00133896351326257,0.07068690657615662,-0.03796086087822914,0.02464090660214424,-0.017557507380843163,0.05792761966586113,-0.014871309511363506,-0.0037788590416312218,0.5509335398674011,-0.36046263575553894,0.7642788887023926,-0.6395338177680969,-0.04618158936500549,0.8687501549720764,0.9558628797531128,-0.4821718633174896,0.10609222948551178,0.06354304403066635,-0.45408543944358826,-0.46346572041511536,0.30470791459083557,-0.6781803965568542,0.1453157216310501,0.5159491896629333,-0.07729125022888184,0.19912898540496826,-0.057696081697940826,0.15238231420516968,0.2770807147026062,-0.09765610098838806,0.011994292959570885,-0.059770405292510986,-0.02039693109691143,-0.028101934120059013,0.1437918096780777,0.07462185621261597,0.06865767389535904,0.09586109966039658,0.06644730269908905,-0.14123941957950592,0.08401022106409073,-0.17361897230148315,-0.16359244287014008,0.06364725530147552,0.13017340004444122,-0.06866579502820969,-0.023172900080680847,0.03912962228059769,-0.0998832955956459,0.26964256167411804,0.2031514197587967,0.20529259741306305,0.151627317070961,-0.01886904612183571,0.058304429054260254,0.1132473275065422,0.07198541611433029,0.10358723253011703,0.02955973893404007,0.21873824298381805,-0.13919097185134888,-0.18280602991580963,0.0915399044752121,-0.04297451302409172,-0.04408041387796402,-0.17574161291122437,0.17483751475811005,-0.19349972903728485,0.17171010375022888,0.23051215708255768,0.047635164111852646,-0.015164520591497421,0.1366584599018097,-0.22593584656715393,0.011260267347097397,-0.2343616634607315,0.04700346663594246,0.2184310257434845,-0.053163062781095505,-0.023909857496619225,-0.15395094454288483,0.1077018529176712,-0.04865563288331032,0.051853977143764496,0.16038766503334045,0.1558081954717636,-0.18331041932106018,-0.08660371601581573,-0.39160433411598206,-0.24043451249599457,-0.26615265011787415,0.1670103222131729,0.22993575036525726,0.07528474181890488,-0.013880807906389236,-0.04511988162994385,0.14884065091609955,0.24166323244571686,-0.20563101768493652,0.36136364936828613,-0.2536519467830658,0.20391477644443512,0.019566429778933525,-0.17266018688678741,-0.25043290853500366,-0.04928202927112579,0.08993872255086899,0.061139531433582306,0.2698550522327423,0.28491345047950745,0.1201406717300415,0.06699023395776749,0.11458677798509598,0.007981863804161549,-0.297439843416214,-0.18672385811805725,-0.06329277902841568,-0.12756310403347015,0.13977168500423431,0.1544833481311798,0.15710505843162537,0.10409019142389297,0.23698750138282776,0.14091931283473969,-0.28326013684272766,-0.17844004929065704,0.1348295956850052,0.06756039708852768,0.10486571490764618,-0.310619980096817,-0.1866951882839203,0.07810572534799576,0.23693515360355377,-0.2517634332180023,0.06398438662290573,-0.04470422491431236,0.3579075336456299,0.058647118508815765,0.2877836227416992,-0.19036710262298584,-0.19023992121219635,0.18995137512683868,0.2903916835784912,0.05966540053486824,0.07822000980377197,-0.17259381711483002,0.1502748727798462,-0.2676839530467987,0.14231635630130768,-0.14588837325572968,-0.1261233389377594,0.27258139848709106,-0.02851000428199768,0.03402970731258392,-0.33671993017196655,-0.16162735223770142,-0.026934774592518806,-0.2129599153995514,-0.1699276715517044,0.05063648149371147,-0.321300208568573,-0.27690860629081726,0.33628395199775696,0.330160528421402,0.19228047132492065,-0.016265761107206345,0.053303059190511703,-0.0869658812880516,-0.24356725811958313,0.10231712460517883,0.05526689067482948,-0.19760586321353912,-0.35396406054496765,-0.10810059309005737,0.11717160046100616,-0.02589503675699234,0.02787475287914276,0.11062505096197128,0.1697496473789215,0.261879026889801,0.1716247946023941,0.32358720898628235,-0.187579944729805,-0.16767869889736176,0.16219857335090637,0.3275715708732605,-0.34195539355278015,0.22452524304389954,-0.21463178098201752,-0.3116306662559509,0.0321965217590332,0.017028268426656723,-0.008402985520660877,-0.28991228342056274,-0.20807009935379028,-0.14123722910881042,-0.040459275245666504,0.2094031572341919,0.007276266347616911,0.20929837226867676,-0.13746413588523865,-0.16599638760089874,0.28812283277511597,-0.06764213740825653,0.23159179091453552,0.0554211288690567,0.06564177572727203,-0.06274256855249405,0.21622546017169952,-0.10465384274721146,-0.2686932384967804,-0.4832330346107483,-0.400437593460083,-0.03879145160317421,-0.178643137216568,-0.07632031291723251,-0.21544942259788513,-0.061304815113544464,0.13836531341075897,0.055832963436841965,0.19365866482257843,-0.1517210304737091,-0.10063306242227554,0.1305827498435974,0.2455175668001175,-0.018832841888070107,-0.07899864763021469,0.1991862952709198,0.060943689197301865,-0.19874700903892517,0.014546123333275318,-0.13161273300647736,0.04304814711213112,-0.20362254977226257,-0.11982010304927826,0.11607016623020172,-0.132776141166687,0.1790565848350525,0.1294156014919281,0.05188174173235893,-0.06998763978481293,-0.12594224512577057,-0.05867711082100868,-0.032683294266462326,-0.09057258814573288,-0.09426408261060715,-0.05920146033167839,0.15883883833885193,-0.13965387642383575,0.26998764276504517,0.0034685619175434113,-0.06325461715459824,0.14222140610218048,0.04490090534090996,0.2336602807044983,0.08382466435432434,-0.14760226011276245,0.10491567850112915,-0.0649351179599762,-0.1644188016653061,0.019173460081219673,0.13380669057369232,-0.13940466940402985,0.03325485810637474,0.1723252683877945,0.09163238108158112,0.17289011180400848,-0.13693967461585999,-0.15276962518692017,0.209263414144516,0.060686711221933365,0.06203944981098175,-0.045395780354738235,-0.15509143471717834,-0.11324500292539597,-0.2703397274017334,0.05797664821147919,0.13432928919792175,0.0014583062147721648,0.020255493000149727,0.07958738505840302,-0.1149870827794075,0.13037125766277313,-0.09708724170923233,-0.08286812901496887,-0.04258401691913605,0.08657052367925644,-0.0012546306243166327,0.012395340949296951,-0.08933573961257935,0.07063522189855576,0.005564858205616474,0.0039834752678871155,0.10648906975984573,0.028511125594377518,0.024481525644659996,0.10196927189826965,0.019205981865525246,0.017622869461774826,0.25126633048057556,-0.03618413954973221,-0.03282417356967926,-0.0380229614675045,-0.048614706844091415,0.11913210898637772,-0.12236062437295914,-0.005642244592308998,-0.06830623000860214,-0.19282279908657074,0.00005013827467337251,-0.0340595506131649,-0.03549183905124664,-0.030823728069663048,0.053416907787323,-0.0389539897441864,-0.1058947741985321,0.19405744969844818,0.041524920612573624,-0.10204441100358963,-0.23156291246414185,0.16304320096969604,0.09840119630098343,-0.05872557312250137,0.05299542471766472,0.09643948823213577,-0.11747658997774124,-0.11375963687896729,-0.09185930341482162,0.07353885471820831,-0.5443469285964966,-0.07484880834817886,0.10549582540988922,-0.296758770942688,0.013236002065241337,0.007123903837054968,-0.26664459705352783,0.029287444427609444,-0.02892712503671646,-0.15702731907367706,0.030714746564626694,0.1088472306728363,0.09864646941423416,-0.07517614215612411,-0.0516691617667675,0.01744048297405243,0.05663296580314636,0.10213512182235718,-0.2362893521785736,-0.0391579233109951,0.11910205334424973,0.05448892340064049,0.00123633723706007,0.012760462239384651,-0.14958705008029938,0.05694812536239624,-0.14406563341617584,0.022018570452928543,-0.0649033933877945,0.2298014611005783,-0.19466163218021393,-0.1751241385936737,0.1309145987033844,0.21848319470882416,-0.10103105008602142,-0.1558959037065506,0.07867283374071121,-0.09755893051624298,0.10394959896802902,-0.09126278758049011,0.007590123917907476,-0.21530753374099731,0.1474926620721817,0.13919712603092194,-0.08806939423084259,0.17141780257225037,0.05142205208539963,-0.1301928013563156,-0.17345009744167328,-0.1968582570552826,0.18069452047348022,0.01686888001859188,0.04286723956465721,-0.013320677913725376,0.03131069615483284,0.02089996263384819,-0.0516495443880558,-0.017726173624396324,-0.08962923288345337,-0.13363398611545563,-0.008456242270767689,0.05724876746535301,-0.12880069017410278,-0.14140665531158447,-0.17622768878936768,-0.029095251113176346,0.23299254477024078,0.1654585748910904,-0.18834830820560455,-0.11234670132398605,0.01756012998521328,0.13949216902256012,0.1255648285150528,-0.01397781167179346,-0.09892138838768005,0.0798303410410881,0.005044135265052319,0.04558615759015083,-0.040785230696201324,0.09427081048488617,-0.0367276705801487,0.07383139431476593,-0.16694116592407227,0.005554692819714546,-0.008752592839300632,-0.07740292698144913,-0.005385338794440031,0.03894383832812309,-0.12359769642353058,0.0767417922616005,-0.0007803511107340455,0.06755136698484421,-0.09403285384178162,-0.2327815443277359,-0.1870850920677185,0.180017352104187,-0.028970785439014435,0.10333321243524551,0.04826214537024498,-0.057632457464933395,-0.05994176119565964,-0.0029169826302677393,-0.08218170702457428,-0.03537861630320549,0.11712639033794403,-0.13823483884334564,0.03221247345209122,0.13991884887218475,-0.07730293273925781,0.16945473849773407,0.1809735745191574,-0.19679513573646545,-0.442701131105423,-0.15085037052631378,-0.18240617215633392,-0.03756566345691681,0.03824632987380028,0.0640820637345314,-0.2616029679775238,-0.14151965081691742,0.12260954827070236,0.07923252135515213,-0.07811633497476578,0.20056284964084625,0.11475618183612823,-0.33384114503860474,0.011232680641114712,0.5399108529090881,-0.05990587919950485,0.0389515645802021,-0.013226783834397793,0.1080515906214714,-0.33596089482307434,0.18079082667827606,0.14304038882255554,0.016717765480279922,-0.7529489398002625,-0.022207174450159073,0.0900886058807373,-0.3890148103237152,-0.06947185099124908,0.03366672247648239,-0.25658273696899414,0.06867953389883041,0.3131583034992218,1.2283272743225098,0.18760403990745544,0.35286596417427063,0.20956914126873016,-0.19674301147460938,0.11275561898946762,-0.10035224258899689,-0.14577171206474304,-0.001971047604456544,-0.0004666146996896714,0.14111901819705963,-0.09282457083463669,0.1995709091424942,0.2069137543439865,-0.2014099508523941,-0.11274151504039764,-0.05180903524160385,0.0011566210305318236,0.08878438919782639,-0.0025597407948225737,-0.010933371260762215,0.07929351180791855,-0.07210569828748703,-0.14987528324127197,0.07423911243677139,0.05908040702342987,-0.0801548957824707,0.06352880597114563,-0.10633748769760132,-0.17922621965408325,0.09449727833271027,-0.050161659717559814,0.19562536478042603,-0.17682264745235443,-0.013109658844769001,-0.024096613749861717,-0.0108473626896739,0.13395647704601288,0.13408851623535156,0.10850590467453003,-0.008959266357123852,-0.1269773244857788,-0.12475200742483139,0.012570267543196678,0.21837662160396576,-0.08954674005508423,-0.05255924165248871,-0.09548968821763992,0.27218782901763916,0.02381010912358761,-0.17675288021564484,-0.05390680208802223,0.0585499107837677,0.1037401631474495,0.04108529910445213,0.020845437422394753,0.039356913417577744,0.019208090379834175,-0.07648197561502457,0.21726194024085999,-0.060005418956279755,-0.01509106531739235,-0.003564346581697464,-0.1556764841079712,-0.06684567034244537,-0.01655568554997444,0.1391625851392746,0.01188220176845789,-0.2618009150028229,-0.1581311970949173,0.11745719611644745,0.003153611673042178,0.03926471248269081,0.0975920781493187,0.010655623860657215,-0.003045890247449279,-0.01821446418762207,0.22462785243988037,0.04301103204488754,-0.15085551142692566,-0.052182428538799286,-0.14804436266422272,0.07280273735523224,0.17836563289165497,0.12272684276103973,0.07887328416109085,0.11962292343378067,-0.044927481561899185,-0.007323187775909901,0.1999695748090744,-0.0840478241443634,-0.0417809784412384,-0.1449502408504486,-0.012195056304335594,0.1827784925699234,0.026800084859132767,0.0038534440100193024,0.18240341544151306,-0.007399977650493383,-0.1091257706284523,0.09013973921537399,-0.14523687958717346,-0.16708678007125854,0.10216515511274338,-0.16141246259212494,-0.035210855305194855,-0.11282952129840851,-0.13600771129131317,0.16803275048732758,0.017104193568229675,0.04279504343867302,0.32794705033302307,0.04341602325439453,0.25891751050949097,0.2050711214542389,-0.27736014127731323,-0.11961211264133453,-0.13582108914852142,0.2521882653236389,0.18187643587589264,0.1590217500925064,0.023790953680872917,-0.217925027012825,0.486655592918396,-0.02607831172645092,0.08665157854557037,0.06800303608179092,0.02299376204609871,0.04237894341349602,-0.27040383219718933,0.13532714545726776,0.10642774403095245,-0.1834738552570343,-0.1888601928949356,0.027109388262033463,0.03255736827850342,-0.11433057487010956,0.13881663978099823,0.15545020997524261,-0.10652375966310501,-0.014208653010427952,-0.21335865557193756,0.19461333751678467,-0.3388086259365082,0.13104958832263947,0.2176196575164795,-0.13384658098220825,0.3880135118961334,0.30732500553131104,-0.1700562685728073,0.07066968828439713,0.012063073925673962,-0.22476500272750854,0.01584872230887413,0.16928938031196594,0.008615521714091301,-0.36705711483955383,0.014804139733314514,-0.18283085525035858,0.08634442836046219,0.13519053161144257,0.1825956553220749,-0.018675344064831734,-0.1786292940378189,-0.1736726015806198,-0.05223511904478073,0.13882115483283997,-0.10118089616298676,-0.13010600209236145,-0.10822121053934097,-0.11213406175374985,-0.14192968606948853,-0.2316260188817978,0.10269369184970856,-0.028466664254665375,-0.04941719025373459,0.019715068861842155,-0.12609601020812988,0.09438662230968475,0.12165221571922302,-0.16467732191085815,-0.06070423126220703,-0.007315090857446194,-0.11789102852344513,0.1526937037706375,0.2069012075662613,0.15379734337329865,-0.023764345794916153,0.06851696968078613,-0.1779058277606964,0.06526057422161102,-0.17797331511974335,-0.005099581088870764,0.0033576213754713535,-0.24823962152004242,-0.0034335285890847445,-0.02345183864235878,-0.2383355051279068,-0.06362972408533096,-0.10249119997024536,0.02265440858900547,0.004152167122811079,0.08569075167179108,0.045129045844078064,-0.045202434062957764,0.08982779085636139,0.26645606756210327,0.16434858739376068,0.050585538148880005,-0.07882456481456757,-0.12864427268505096,-0.10296761244535446,0.21462814509868622,-0.044471997767686844,0.18252815306186676,0.12784533202648163,-0.016151824966073036,-0.05857060104608536,0.09620016068220139,0.361410528421402,0.09134674072265625,-0.32127153873443604,0.2905438244342804,0.007511266972869635,0.13844500482082367,-0.12179937958717346,0.03912771865725517,-0.23601634800434113,-0.19934572279453278,0.0033153013791888952,0.1920509934425354,-0.21783515810966492,0.21000583469867706,0.10053015500307083,0.10509897768497467,-0.0855545699596405,0.09086745977401733,-0.21986450254917145,-0.0634443536400795,-0.43145307898521423,0.39782631397247314,0.1569824069738388,0.006767149083316326,0.3082563877105713,0.16554521024227142,-0.07186328619718552,-0.04904887452721596,-0.11650417000055313,-0.020622028037905693,-0.06401769071817398,0.0879923477768898,0.006476628594100475,-0.22087115049362183,-0.1802743673324585,0.14668789505958557,0.11240547150373459,0.0035165841691195965,-0.1962573528289795,0.06408209353685379,0.207685187458992,-0.013026876375079155,0.007945782504975796,-0.0897432267665863,-0.08577099442481995,0.0996064767241478,-0.018851052969694138,0.027043791487812996,-0.07060322910547256,0.061666667461395264,-0.09138351678848267,-0.06181939318776131,0.15147750079631805,0.17128245532512665,0.009475250728428364,0.014451011084020138,-0.1363561898469925,0.02756076492369175,0.2020096480846405,-0.0761740431189537,0.08845587819814682,-0.07583987712860107,-0.1707395315170288,-0.08692321926355362,0.06212060526013374,0.059420712292194366,0.04734581336379051,0.04171212390065193,0.06131242588162422,-0.09132520109415054,0.031585726886987686,0.00482610147446394,-0.08500537276268005,-0.13076740503311157,-0.028822187334299088,0.03932768851518631,-0.01857912726700306,-0.021349502727389336,-0.128914013504982,-0.012462551705539227,0.09328404814004898,0.004205189645290375,-0.11027204990386963,-0.1162664145231247,0.025568103417754173,-0.17028670012950897,-0.03168751299381256,0.07400868088006973,-0.20702753961086273,-0.10512951016426086,-0.09237856417894363,0.14237844944000244,-0.14515601098537445,-0.04693598300218582,-0.004068228416144848,-0.06689120829105377,0.042143698781728745,-0.20587150752544403,0.09603938460350037,0.20060613751411438,-0.045343730598688126,-0.10640832781791687,0.02817152813076973,0.21936272084712982,0.11460763961076736,0.11982971429824829,0.026168053969740868,-0.03812773525714874,-0.09957702457904816,0.17285987734794617,-0.04907836392521858,-0.2381386011838913,-0.12540237605571747,-0.0005650456878356636,-0.1545640230178833,-0.018381521105766296,-0.01652500592172146,0.317660927772522,0.024636059999465942,-0.09195736795663834,-0.0007389300735667348,0.09693863987922668,-0.010474286042153835,-0.027695657685399055,0.130442813038826,0.002184484153985977,0.06895901262760162,0.05839742720127106,0.05328664928674698,-0.11935538798570633,0.10976928472518921,0.060415320098400116,-0.07003203779459,-0.1381434053182602,0.0950808972120285,0.007642103359103203,-0.2563477158546448,-0.24594630300998688,0.0672074556350708,0.22298304736614227,0.06281264126300812,0.0798708125948906,0.03213050588965416,-0.018115190789103508,0.012456313706934452,-0.17668747901916504,0.14478392899036407,0.23165863752365112,-0.09701626747846603,-0.15572793781757355,-0.11039242148399353,0.21978415548801422,0.3257407546043396,0.2667868137359619,-0.08712173998355865,0.08026489615440369,-0.1554403156042099,-0.06471899151802063,-0.18648211658000946,0.03257790580391884,-0.10791756957769394,-0.25176891684532166,-0.051756128668785095,0.05313125625252724,-0.263143926858902,-0.015961695462465286,0.1567739099264145,-0.21705476939678192,-0.15089115500450134,0.19870570302009583,0.03752869367599487,-0.006176759954541922,-0.01878008246421814,-0.004156000912189484,-0.037817612290382385,-0.0014039425877854228,-0.17393560707569122,0.12241119146347046,0.05241996794939041,0.024543508887290955,0.03645842894911766,-0.07945612072944641,-0.01246126089245081,0.04464902728796005,0.10038577765226364,0.19112232327461243,0.12840086221694946,-0.11843445897102356,-0.017539065331220627,0.0734294131398201,-0.029062367975711823,0.13435427844524384,-0.06219471991062164,-0.04166162386536598,-0.06864182651042938,-0.12624703347682953,0.2073376476764679,0.007592021021991968,-0.07072173058986664,-0.10320374369621277,-0.18152272701263428,-0.06056760251522064,0.145551398396492,-0.07824630290269852,0.0389404334127903,0.06901399791240692,-0.05974442884325981,0.0341632105410099,-0.04471978545188904,0.21618278324604034,0.1939191371202469,-0.0384158119559288,0.1498883217573166,-0.1821936070919037,-0.12175232917070389,0.203060582280159,-0.049283914268016815,0.06645967811346054,0.05296529829502106,-0.03902946040034294,-0.1966504603624344,0.11463142931461334,-0.0693422481417656,-0.10781528800725937,0.0289909765124321,0.08536209166049957,-0.0606856606900692,-0.03339922055602074,-0.1317005306482315,0.26808422803878784,0.17441928386688232,0.2004707157611847,-0.013229518197476864,-0.11665976047515869,-0.24115613102912903,0.30447179079055786,-0.01399405300617218,-0.024325938895344734,0.1224079579114914,0.015008087269961834,-0.23573997616767883,0.42343568801879883,0.10422082990407944,0.13540029525756836,-0.6070224642753601,-0.15935783088207245,0.09000986069440842,0.21075373888015747,0.3292849063873291,0.3409199118614197,-0.524745762348175,-0.0029634619131684303,-0.1821102499961853,0.7608432769775391,0.05355395749211311,-0.18612444400787354,0.31327974796295166,-0.2763684093952179,-0.1200181394815445,0.11022206395864487,-0.2221929132938385,-0.14155596494674683,-0.8262717127799988,-0.20617680251598358,-0.2886578142642975,0.4251859784126282,0.007156612817198038,0.03494292125105858,-0.07396960258483887,-0.14561815559864044,-0.16347365081310272,0.02973064035177231,-0.3026304841041565,0.01813082955777645,-0.3689928948879242,-0.07188896089792252,-0.025016633793711662,-0.1345534473657608,0.04896378889679909,0.15777263045310974,-0.036002885550260544,-0.17471818625926971,0.1450427621603012,0.034944336861371994,0.07954054325819016,0.021380741149187088,0.06063515692949295,0.19783179461956024,0.03423928841948509,-0.03531630337238312,0.2233632206916809,-0.19635669887065887,-0.09274876117706299,-0.24131259322166443,0.1075974702835083,0.07745528966188431,-0.10022922605276108,0.06098411977291107,-0.06541191786527634,-0.011144014075398445,-0.1260073333978653,-0.1337970644235611,-0.10074273496866226,-0.13292938470840454,0.05350685119628906,-0.18199759721755981,0.2303014099597931,0.16761773824691772,0.2095746546983719,-0.05517224594950676,0.11388100683689117,0.12116644531488419,-0.0891740545630455,-0.03932773321866989,-0.0941724181175232,-0.05071510747075081,-0.028548704460263252,-0.1520208716392517,-0.06515839695930481,-0.12604427337646484,-0.06514187902212143,0.12592683732509613,0.11034052819013596,-0.13706117868423462,0.09579792618751526,-0.07610432803630829,-0.07038269937038422,0.10389669239521027,0.27208226919174194,0.020418088883161545,0.13156212866306305,-0.01971842348575592,0.047507643699645996,0.05750023201107979,-0.08268510550260544,-0.007018015254288912,-0.22540757060050964,0.036768700927495956,0.1759803742170334,-0.25219252705574036,0.04308120161294937,-0.005053383763879538,0.24000698328018188,-0.29161861538887024,0.09919138252735138,0.09845878183841705,0.042573653161525726,-0.3746287524700165,-0.026929764077067375,-0.06780107319355011,-0.26064446568489075,0.13770096004009247,0.1660996675491333,0.0073354821652174,0.23904964327812195,-0.1993521898984909,0.4495486915111542,-0.396337628364563,-0.01407992746680975,0.018495021387934685,-0.34556394815444946,-0.09685779362916946,0.14774297177791595,0.06680864840745926,-0.1812853366136551,0.08636678010225296,-0.1821150928735733,-0.06467151641845703,0.023792380467057228,0.32157519459724426,0.025327477604150772,0.044392649084329605,0.05530110001564026,-0.015639813616871834,0.07189822196960449,-0.035137858241796494,0.07668524235486984,0.07211314886808395,0.06390044838190079,-0.05449651554226875,-0.04648236557841301,0.05534573644399643,0.057654768228530884,0.0931863859295845,0.05009976774454117,0.021645301952958107,-0.021303562447428703,-0.31055116653442383,0.26498842239379883,0.31589275598526,-0.5377588272094727,0.21564379334449768,-0.7502501010894775,-0.44402456283569336,-0.3631088137626648,0.763824999332428,-0.9379750490188599,-0.5068265795707703,-0.976577877998352,0.18898920714855194,-1.039505124092102,0.2585136592388153,-0.6413194537162781,-0.15135814249515533,0.040286410599946976,-0.0252477265894413,0.3668437898159027,0.24561640620231628,-0.16529415547847748,-0.3936806917190552,-0.0667729303240776,0.0022328272461891174,-0.005066647659987211,-0.030439650639891624,0.021939169615507126,0.1488247960805893,0.1782952845096588,-0.06392361968755722,-0.0541074201464653,0.07180827111005783,-0.156917005777359,0.043365638703107834,0.04429955407977104,-0.2853142023086548,0.2590463161468506,-0.015984730795025826,-0.05158287286758423,0.08966463059186935,-0.06517567485570908,0.04081350192427635,0.4066675007343292,-0.1659204661846161,0.28372567892074585,0.11950747668743134,0.09573369473218918,-0.045959606766700745,-0.22355292737483978,0.03441717475652695,-0.039010342210531235,-0.044575806707143784,0.1711926907300949,-0.10994937270879745,0.017011824995279312,-0.10340594500303268,0.0697619765996933,-0.23214247822761536,-0.05811217799782753,-0.051486462354660034,0.02454075589776039,0.19255411624908447,0.01827816292643547,0.1500655859708786,0.1289941817522049,-0.1658061146736145,-0.19866402447223663,-0.1631559431552887,0.019797509536147118,-0.271224707365036,-0.016997389495372772,-0.1422055959701538,-0.0626973956823349,0.10461009293794632,0.08712956309318542,0.23092706501483917,-0.07600706070661545,-0.03198540210723877,0.011590514332056046,0.28540298342704773,-0.0590854175388813,-0.03182613104581833,0.14967595040798187,0.07626312226057053,0.020127400755882263,0.18972384929656982,0.15677160024642944,0.3993249535560608,-0.10199155658483505,-0.014183125458657742,0.2522289454936981,-0.18165387213230133,-0.24717292189598083,-0.08100486546754837,-0.24486179649829865,-0.2606528103351593,-0.12984302639961243,-0.27157387137413025,0.09186618030071259,0.1820504367351532,-0.1796184629201889,0.3438720703125,-0.010113905183970928,0.2588731348514557,0.16616863012313843,0.11368636786937714,-0.23736728727817535,-0.12806399166584015,-0.29572078585624695,-0.20361782610416412,0.01391072291880846,0.06561575829982758,-0.07742054760456085,0.12672102451324463,-0.20074914395809174,0.10891085118055344,0.2193901538848877,-0.25289082527160645,-0.24353426694869995,0.019042611122131348,-0.0699872374534607,-0.08343788981437683,0.15244533121585846,0.0028179544024169445,-0.0026703958865255117,0.023367036134004593,0.25511613488197327,0.10222280025482178,0.017108840867877007,-0.00012945625348947942,-0.28293702006340027,0.07202797383069992,-0.15920929610729218,-0.076456218957901,0.12908785045146942,0.11767364293336868,0.29192936420440674,-0.2586921155452728,-0.15182867646217346,-0.116993248462677,-0.17592525482177734,0.07591250538825989,0.05289270728826523,-0.08074667304754257,0.293854683637619,-0.28632616996765137,-0.3647153377532959,-0.10120836645364761,-0.24515047669410706,-0.40574511885643005,-0.20206299424171448,-0.05350552126765251,0.03886720910668373,0.20330025255680084,-0.07710957527160645,0.10760826617479324,0.1268678456544876,-0.13416512310504913,0.3068270981311798,-0.01232705544680357,-0.020688870921730995,-0.04192839190363884,0.09455592185258865,0.03771789371967316,-0.027759620919823647,0.1036427691578865,0.0396915078163147,-0.0995805412530899,0.15613648295402527,0.144326850771904,0.35804927349090576,0.042407866567373276,0.47694867849349976,0.1774214506149292,-0.02823532372713089,-0.10525023192167282,0.01367222610861063,-0.2561117112636566,0.07667962461709976,0.056529417634010315,-0.09361892193555832,-0.003311857348307967,-0.05085233598947525,0.1115313172340393,0.1823362112045288,-0.10612775385379791,0.04168744012713432,0.12824037671089172,0.11779604107141495,-0.029929572716355324,0.13656491041183472,0.12720786035060883,0.09584502130746841,-0.1174689382314682,0.09476286917924881,-0.18562324345111847,0.03672369197010994,0.4833744466304779,0.16693174839019775,-0.007951425388455391,0.01715116761624813,0.40134525299072266,0.0881146490573883,-0.16815879940986633,-0.11752007901668549,-0.03599473088979721,-0.2611382007598877,-0.09943757951259613,-0.257478266954422,-0.12089293450117111,0.15587589144706726,-0.1497722715139389,0.032930973917245865,-0.2681739628314972,0.09514398127794266,-0.08455481380224228,-0.1021263599395752,-0.2193177342414856,-0.13716639578342438,0.22410809993743896,-0.2238432615995407,0.15685339272022247,-0.06386910378932953,0.0920470729470253,0.08489727228879929,-0.22590431571006775,-0.01716986671090126,-0.1435413360595703,-0.027818303555250168,0.13777057826519012,-0.033334121108055115,0.10084184259176254,0.146550253033638,0.13894519209861755,-0.07083628326654434,0.22322621941566467,0.10045939683914185,-0.015093564987182617,-0.049452539533376694,0.0947221964597702,0.12656334042549133,0.09650058299303055,-0.02771315909922123,-0.3599853813648224,-0.05312507227063179,0.07658187299966812,0.022925926372408867,-0.06806853413581848,0.06636575609445572,-0.029528120532631874,0.15531164407730103,-0.10805773735046387,0.2979087233543396,0.22140748798847198,0.053796056658029556,0.22214612364768982,-0.17649000883102417,-0.15966688096523285,0.02939651533961296,-0.12762431800365448,0.11768954992294312,0.09439016133546829,0.1385822594165802,0.14882566034793854,-0.0274904016405344,0.09986746311187744,0.15606044232845306,-0.20363473892211914,0.2901962101459503,-0.1562328189611435,-0.0762171596288681,-0.07539011538028717,0.025095300748944283,-0.07246088981628418,-0.04454559460282326,-0.07226040214300156,-0.003641871502622962,0.046936824917793274,0.13106295466423035,0.11794620752334595,0.034444358199834824,0.028757384046912193,-0.11804842948913574,0.0014827689155936241,-0.19938310980796814,-0.05752735957503319,-0.006418169941753149,0.10661521553993225,-0.3734709620475769,0.43991437554359436,-0.1251392364501953,-0.2623232305049896,0.04776223748922348,0.16372789442539215,-0.11063270270824432,-0.12392549216747284,0.07444444298744202,-0.06016739085316658,-0.06377150118350983,0.015529563650488853,0.1490219533443451,-0.04006057605147362,0.13669346272945404,0.41271787881851196,0.04785981401801109,0.055210549384355545,-0.12111269682645798,-0.07251141220331192,0.22772487998008728,0.21373608708381653,-0.10697336494922638,-0.031078170984983444,0.03963357210159302,0.015439331531524658,-0.08272328972816467,-0.24315311014652252,-0.0009301957907155156,0.10653432458639145,-0.06421078741550446,-0.15177781879901886,-0.1826765537261963,0.14014281332492828,-0.23234713077545166,-0.031504660844802856,-0.12221728265285492,0.04128468409180641,0.15497784316539764,0.23224562406539917,-0.16196030378341675,0.10515790432691574,-0.17033714056015015,-0.2415204644203186,0.1740729808807373,-0.026020687073469162,-0.046972792595624924,-0.11749674379825592,-0.05124470219016075,0.18036900460720062,-0.21206939220428467,0.11647123098373413,0.047392040491104126,0.19109421968460083,0.1464051604270935,-0.015622586943209171,-0.10891367495059967,-0.04975078999996185,-0.22045382857322693,0.16867808997631073,-0.028784381225705147,0.11202823370695114,0.06974498927593231,-0.05791093036532402,-0.005473341792821884,0.12960882484912872,-0.11202992498874664,-0.03922681137919426,-0.07709471881389618,-0.1480855941772461,-0.011557127349078655,0.11905248463153839,-0.1004442498087883,-0.3208792209625244,0.044914063066244125,0.1743106245994568,0.11787694692611694,0.2708356976509094,0.015209210105240345,-0.2417609840631485,-0.07437726110219955,-0.0040646265260875225,-0.08990667015314102,-0.025509510189294815,0.20051731169223785,-0.09412068873643875,0.11962133646011353,-0.11097216606140137,-0.3704562187194824,-0.07618129253387451,-0.011145101860165596,-0.21512621641159058,0.14750593900680542,0.024614116176962852,0.18547196686267853,-0.07695018500089645,0.0419032908976078,-0.06541644781827927,0.1410103142261505,-0.005518768448382616,-0.18875843286514282,0.09518830478191376,0.06737931817770004,0.10571325570344925,-0.13256268203258514,-0.02476618066430092,0.05093863606452942,-0.08041268587112427,-0.08647756278514862,0.12351612746715546,-0.006678936071693897,0.08869633078575134,0.1477551907300949,0.04265426844358444,0.1459796279668808,0.02777581661939621,-0.12194648385047913,-0.01622135192155838,0.02855706587433815,0.06796973943710327,0.046943631023168564,0.007884613238275051,0.14063261449337006,0.162264883518219,-0.04839668422937393,-0.17727459967136383,0.06417343020439148,-0.011610779911279678,0.026439229026436806,0.057015761733055115,0.03357914090156555,0.03177953511476517,0.037243738770484924,0.03201552480459213,-0.029850881546735764,0.05925222858786583,0.1596626341342926,0.15910200774669647,-0.16257524490356445,-0.10132783651351929,-0.005129215307533741,-0.13539594411849976,0.09332581609487534,-0.07980257272720337,0.14303530752658844,0.17222392559051514,-0.14143285155296326,0.14986473321914673,0.12430290877819061,0.013671508990228176,0.14891067147254944,-0.1333174854516983,0.1067613959312439,-0.03207516297698021,-0.23011966049671173,-0.017905766144394875,-0.2549394965171814,-0.05285944044589996,-0.03711095079779625,-0.16452503204345703,-0.06351818144321442,0.16014477610588074,0.0434817373752594,-0.1446293145418167,-0.11202209442853928,0.176491379737854,-0.05032335966825485,0.07383411377668381,0.0244300439953804,0.06439536809921265,-0.1277904212474823,-0.1839091181755066,-0.024745602160692215,-0.003996022045612335,0.04326651617884636,0.011955806985497475,0.2187914401292801,0.012648994103074074,0.04188302904367447,0.018137644976377487,-0.07478202134370804,-0.1787639856338501,0.16445006430149078,-0.13925433158874512,0.10447941720485687,0.000744861550629139,-0.12408576905727386,0.07494095712900162,-0.0511702224612236,0.03505925461649895,0.3870461881160736,0.2789113223552704,0.19262656569480896,-0.098702572286129,-0.022011449560523033,0.2431175261735916,0.1762322038412094,-0.21930038928985596,-0.11338738352060318,0.3088829219341278,0.16822032630443573,-0.08592338860034943,0.06697870045900345,-0.04253310710191727,0.16885754466056824,-0.16006408631801605,0.1130274310708046,0.25632432103157043,-0.6252170205116272,-0.18265347182750702,-0.3484534025192261,0.3594638705253601,0.3298751413822174,-0.247132807970047,-0.5404614806175232,0.10170023143291473,-0.4770103991031647,0.22685863077640533,-0.09257975965738297,0.23270221054553986,0.5042058825492859,-0.20343194901943207,-0.1793348491191864,0.3884819746017456,-0.20311051607131958,0.312416136264801,-0.01842944510281086,-0.1820620894432068,-0.08644837141036987,-0.09267015010118484,-0.19022513926029205,-0.12240754067897797,0.30462363362312317,-0.26786553859710693,-0.30788901448249817,0.7927486300468445,-0.13665637373924255,0.26863011717796326,0.2568158805370331,0.11617495864629745,-0.20164020359516144,-0.0903208777308464,-0.10129379481077194,-0.03665214031934738,0.13297516107559204,-0.035495199263095856,-0.10596775263547897,-0.13621385395526886,-0.014302140101790428,-0.1026630774140358,0.058790430426597595,0.1304575800895691,-0.041434336453676224,0.09769854694604874,-0.014310657978057861,-0.05155409872531891,-0.004977632779628038,-0.112638920545578,0.061179015785455704,-0.02603832446038723,-0.05073924735188484,-0.11194856464862823,0.1511494368314743,0.18679308891296387,-0.05793547257781029,-0.1547943502664566,-0.10720448195934296,-0.05414196476340294,0.08113741874694824,0.19448332488536835,0.00750883249565959,-0.10403291136026382,-0.16891340911388397,0.08567254990339279,-0.021753082051873207,0.09288506954908371,-0.05232403054833412,-0.13356266915798187,0.3031279146671295,0.13673143088817596,-0.0026916214264929295,0.03249228373169899,-0.06798844039440155,-0.09023011475801468,0.11557036638259888,0.09800500422716141,0.15296995639801025,-0.033662308007478714,-0.40599656105041504,-0.03866617754101753,0.08032088726758957,-0.045043859630823135,-0.029891224578022957,0.2017311304807663,0.0005309602129273117,-0.004275547806173563,0.13073785603046417,0.2612493634223938,0.11761682480573654,-0.010482358746230602,-0.02687353640794754,-0.07900882512331009,-0.10260079056024551,-0.12601979076862335,-0.233535036444664,-0.0041097551584243774,0.10757892578840256,-0.10567744076251984,-0.14641475677490234,0.030269593000411987,-0.10001777112483978,-0.1378324180841446,0.043410979211330414,0.10213413834571838,-0.043579548597335815,0.09616538882255554,0.004093105439096689,-0.13486438989639282,0.09682633727788925,-0.07022470980882645,0.024456530809402466,0.06475554406642914,-0.13132163882255554,0.0739295706152916,-0.1916668713092804,0.06400316208600998,-0.12806108593940735,-0.13854221999645233,-0.11993946135044098,-0.1461864411830902,0.28718653321266174,0.059254176914691925,-0.009584316983819008,-0.07044582813978195,-0.05086611583828926,0.09165112674236298,-0.019636055454611778,-0.08552096039056778,0.005636225454509258,0.06372600048780441,0.27802589535713196,-0.022969039157032967,0.18401916325092316,-0.03265431523323059,-0.22736692428588867,0.07567400485277176,-0.08019301295280457,-0.2514803111553192,0.016981983557343483,-0.05701592564582825,-0.03174391761422157,-0.07881314307451248,-0.260764479637146,-0.10806401818990707,0.05962429195642471,-0.016978072002530098,-0.26162534952163696,0.10090015083551407,-0.1903194934129715,0.040445227175951004,0.19873137772083282,-0.1356266438961029,0.08925504982471466,0.027783077210187912,0.20273615419864655,0.2084563821554184,-0.023610634729266167,-0.08143334835767746,0.10753320902585983,0.11168143898248672,-0.28599244356155396,-0.060462065041065216,0.07868631929159164,0.05305785685777664,-0.045395638793706894,-0.012842047959566116,-0.07203064113855362,-0.04352123662829399,0.06544047594070435,-0.09483542293310165,0.005745847709476948,-0.15485641360282898,0.10293340682983398,0.013383082114160061,-0.1139746829867363,-0.005229693837463856,-0.08692733198404312,-0.09914259612560272,0.16570764780044556,0.14722058176994324,0.25116556882858276,-0.15609827637672424,-0.04329156503081322,0.22331832349300385,0.08455631881952286,-0.08227436989545822,-0.069881871342659,0.04082121700048447,0.12286513298749924,-0.1796393245458603,-0.055620305240154266,0.11130700260400772,0.09560049325227737,-0.11582624167203903,-0.07383993268013,-0.060238759964704514,0.07441868633031845,0.1676490306854248,-0.05859962850809097,-0.055767763406038284,0.05221256613731384,-0.05384876951575279,0.18097065389156342,0.28465840220451355,0.16096319258213043,-0.2872534394264221,0.12374294549226761,0.11947061121463776,-0.02900751121342182,-0.10610958188772202,0.23196347057819366,-0.09247435629367828,0.24083423614501953,-0.038758784532547,-0.10413378477096558,0.07500665634870529,0.16222785413265228,-0.0740296021103859,0.06498493999242783,-0.1191786527633667,-0.01726291887462139,0.03672131150960922,-0.4109130799770355,0.2515295147895813,0.2895817756652832,0.11906643956899643,0.1405041664838791,-0.049187347292900085,-0.07089164108037949,0.3283602297306061,-0.030861524865031242,-0.19585910439491272,-0.009092817083001137,0.08438511937856674,0.476558119058609,-0.1524665802717209,-0.4289441406726837,0.26349860429763794,-0.4959782660007477,-0.1592668890953064,-0.2413834184408188,0.04472086578607559,0.048525620251894,-0.41037508845329285,-0.4665638208389282,0.010354193858802319,-0.4585821032524109,0.2294832468032837,0.3949723243713379,-0.0794219821691513,0.3119865357875824,-0.041029300540685654,-0.09098199754953384,0.15460100769996643,-0.4035705029964447,0.8873438239097595,-0.45691660046577454,-0.23744171857833862,-0.06977464258670807,0.0568353645503521,-0.1711188405752182,0.008357143960893154,0.014004947617650032,0.061037544161081314,-0.006022144109010696,0.2085278034210205,0.3211030662059784,0.43917566537857056,-0.01938549429178238,0.18897776305675507,0.32498204708099365,0.04600943252444267,-0.32455217838287354,-0.08755899220705032,0.32933658361434937,0.27302080392837524,-0.020525531843304634,-0.012356322258710861,0.031302038580179214,0.11119332164525986,0.0002611468662507832,0.00707979267463088,-0.05113501101732254,0.18010397255420685,0.25588029623031616,0.33917656540870667,-0.0991395115852356,0.18106049299240112,0.05125656723976135,-0.2795873284339905,-0.06542212516069412,0.28744569420814514,-0.0038111743051558733,0.07764159888029099,0.22033800184726715,-0.053367167711257935,-0.1300147920846939,-0.18821153044700623,0.25801700353622437,0.29310062527656555,-0.05808878690004349,-0.19138501584529877,-0.017365794628858566,-0.2661720812320709,0.012156513519585133,0.4275529086589813,0.12978315353393555,-0.15729649364948273,0.45284968614578247,-0.19846032559871674,-0.3129240572452545,-0.07219167053699493,-0.22451640665531158,-0.12051554024219513,-0.3777724504470825,-0.5167003273963928,0.11516532301902771,0.01593821868300438,-0.2094682902097702,0.04087568819522858,0.06708026677370071,-0.07864068448543549,-0.016413453966379166,0.07341428846120834,0.049374889582395554,0.24471507966518402,-0.15819230675697327,0.07866153120994568,0.01944689452648163,0.013738228008151054,-0.06876899302005768,0.03804885223507881,-0.1126822680234909,-0.1424511969089508,0.02529611624777317,-0.019258376210927963,0.18137459456920624,0.16860947012901306,0.017805147916078568,-0.12453468888998032,-0.28420642018318176,-0.16538986563682556,0.1362801194190979,-0.1902405172586441,-0.05944165587425232,-0.038234587758779526,-0.18628180027008057,-0.10836860537528992,-0.06582996994256973,0.04018372297286987,0.10351461172103882,-0.09813451021909714,0.15999607741832733,-0.021860230714082718,-0.017280835658311844,-0.008787714876234531,-0.08846403658390045,-0.052144307643175125,0.25922420620918274,-0.007837141864001751,0.048247527331113815,0.032995838671922684,0.02353484556078911,-0.2082207202911377,0.03668738901615143,-0.15199026465415955,-0.06166943535208702,-0.2285650372505188,0.20084960758686066,0.06290961802005768,-0.2460995465517044,-0.2032294124364853,-0.2074156403541565,0.04049587994813919,-0.004089657682925463,-0.07821948081254959,0.058274317532777786,0.08210040628910065,0.014189327135682106,-0.024808289483189583,-0.08320113271474838,-0.08582793176174164,0.08228318393230438,-0.08973722904920578,0.1159888505935669,-0.025609884411096573,0.26809561252593994,-0.09031778573989868,0.02298792451620102,0.07397996634244919,-0.12322141230106354,0.10235997289419174,-0.1926441788673401,0.13873864710330963,-0.07704601436853409,-0.09493452310562134,0.11079633980989456,0.16490621864795685,0.03770294785499573,-0.09253653138875961,0.45391178131103516,-0.13471874594688416,-0.05338027700781822,-0.18169042468070984,-0.16365957260131836,0.04957364872097969,0.2774776816368103,-0.0774369016289711,0.12412836402654648,-0.001986777177080512,0.11747143417596817,0.08413457870483398,0.2242351919412613,-0.004497352987527847,0.04533925652503967,-0.3016538918018341,0.01731562241911888,-0.06267216056585312,-0.012600664980709553,0.13250504434108734,0.14481110870838165,-0.16749359667301178,-0.057876016944646835,-0.09906033426523209,0.08569605648517609,-0.007861150428652763,-0.007866558618843555,0.16441142559051514,0.057901766151189804,-0.05941598862409592,0.030964737758040428,0.010627739131450653,0.002861677436158061,-0.06288891285657883,-0.07015246897935867,0.07890539616346359,-0.04318051412701607,0.14462657272815704,-0.051200855523347855,-0.025006599724292755,0.0339973121881485,-0.022334715351462364,0.11651050299406052,0.04029172658920288,0.020104698836803436,-0.22922152280807495,-0.05257873237133026,0.09305726736783981,0.1879797875881195,0.04785480350255966,0.152143657207489,-0.11914493888616562,0.17064030468463898,0.04665839672088623,-0.1266174465417862,0.014994502998888493,-0.03357315808534622,-0.056969139724969864,-0.2520414888858795,-0.031869351863861084,0.1358589380979538,0.03551511839032173,0.438035249710083,0.12639839947223663,0.14630717039108276,0.03345835581421852,-0.10812337696552277,-0.08005624264478683,-0.13805381953716278,0.14894838631153107,-0.08825893700122833,-0.1814136654138565,0.07405209541320801,-0.08528593182563782,-0.09834519028663635,-0.18301571905612946,0.044884420931339264,0.1394072324037552,-0.061389341950416565,-0.09717012196779251,-0.11808759719133377,-0.026593944057822227,0.014935804530978203,-0.06186922267079353,-0.07417096197605133,-0.055888496339321136,-0.1258874237537384,0.1573806256055832,0.07436350733041763,0.1910342276096344,-0.060214441269636154,-0.17777855694293976,-0.01918465457856655,0.21621863543987274,0.03705499693751335,0.031804438680410385,-0.010494455695152283,-0.08193166553974152,-0.13502444326877594,0.03812693431973457,-0.149474635720253,-0.03148780018091202,0.3285844922065735,0.09769146144390106,-0.1321674883365631,0.21757109463214874,-0.01192380953580141,0.09128397703170776,-0.2433680295944214,-0.2674434781074524,-0.15431353449821472,-0.21896404027938843,0.006618517450988293,0.0217134952545166,0.26118025183677673,-0.009013291448354721,0.09358640760183334,0.19875778257846832,-0.07262630015611649,0.19563643634319305,0.01847318559885025,-0.07331045717000961,0.16713275015354156,0.1549631804227829,-0.02036523073911667,-0.13432350754737854,-0.4299004375934601,0.1426045298576355,0.05772098898887634,0.05782570317387581,0.007312348112463951,0.08763781934976578,-0.12054584920406342,0.03006340004503727,-0.023103997111320496,-0.12659545242786407,-0.13830091059207916,-0.061266276985406876,0.22324830293655396,0.046734217554330826,-0.10264046490192413,0.09399479627609253,0.004280751571059227,0.08988545089960098,0.5008905529975891,-0.1451432704925537,0.16411791741847992,-0.20187623798847198,-0.0789935290813446,0.07277523726224899,-0.10681302100419998,0.16701549291610718,0.15125416219234467,0.2367425411939621,-0.05875926464796066,-0.07187195867300034,0.4328233599662781,0.052527379244565964,0.025904374197125435,0.021820614114403725,-0.03264898434281349,0.06424729526042938,-0.025399100035429,-0.047434911131858826,-0.0223455298691988,0.04565737769007683,0.0434277206659317,-0.014468897134065628,0.04000308737158775,-0.046153049916028976,-0.00974670797586441,0.0017409652937203646,0.05745156854391098,-0.041483063250780106,-0.43200379610061646,0.8144358992576599,0.17053155601024628,-0.8742479085922241,0.17281557619571686,-0.3147282600402832,-0.11927391588687897,0.5346384048461914,-1.0259959697723389,1.1208940744400024,0.550074577331543,-0.024818062782287598,-0.331937700510025,0.2056782841682434,-0.8665037155151367,0.14655809104442596,-0.10500294715166092,0.03417230397462845,-0.0855039730668068,-0.04503621906042099,0.08087099343538284,0.16745848953723907,0.09761211276054382,0.0921289250254631,0.36343008279800415,0.24457044899463654,0.14847305417060852,-0.0822526216506958,-0.1374627649784088,-0.029444247484207153,-0.10243036597967148,-0.01656968705356121,-0.1511736363172531,0.04991903528571129,-0.013385438360273838,0.23676764965057373,0.013574746437370777,0.046144094318151474,-0.2701718211174011,-0.3197673559188843,0.05023300647735596,0.03291725739836693,0.006631312891840935,0.1409711241722107,0.07714884728193283,0.1474512815475464,0.022542327642440796,-0.10555657744407654,-0.11236259341239929,0.15210282802581787,-0.03670630604028702,0.26483139395713806,-0.14262579381465912,0.06290417909622192,-0.1997772455215454,-0.3258466422557831,0.09727702289819717,-0.3273397982120514,0.07876230031251907,0.2962098717689514,0.05289469286799431,0.01600835844874382,0.006005600560456514,-0.005382097791880369,0.12214882671833038,0.11957196146249771,0.1572231501340866,-0.18310339748859406,0.2275787889957428,-0.3087295889854431,0.11960039287805557,0.34722596406936646,-0.09581924974918365,0.21573349833488464,-0.04844488576054573,0.04386718198657036,0.15247057378292084,0.1119002029299736,-0.2262054979801178,0.1369837522506714,-0.37002578377723694,0.1923840343952179,-0.2584676444530487,0.00721648009493947,-0.04105216637253761,0.16040055453777313,-0.02541193924844265,0.05383160337805748,-0.11698489636182785,-0.1592622697353363,0.12152885645627975,-0.11677613109350204,-0.30104634165763855,0.21781888604164124,-0.21452784538269043,-0.3133351504802704,-0.2131161093711853,-0.09941796958446503,0.17962074279785156,-0.30675405263900757,-0.1939302235841751,0.4442136883735657,0.4146108329296112,-0.3207838833332062,-0.24370914697647095,0.035676512867212296,0.14128701388835907,0.04234173148870468,0.11860205978155136,0.2061697095632553,0.21560251712799072,-0.049518514424562454,0.13806182146072388,0.06682433933019638,0.054407358169555664,0.27581512928009033,0.16341502964496613,0.04294714704155922,-0.14017654955387115,-0.20754648745059967,0.013624553568661213,0.14358392357826233,-0.12742075324058533,0.18418656289577484,0.18021242320537567,-0.004638232756406069,0.04020075127482414,-0.03611670434474945,0.13037993013858795,-0.20371484756469727,0.0031109910923987627,0.022458745166659355,-0.027254607528448105,0.13664212822914124,0.021882589906454086,-0.03615758195519447,-0.07667060941457748,-0.1796705275774002,0.23857079446315765,0.014327464625239372,0.05367892235517502,0.0897957906126976,-0.027055727317929268,-0.2427327036857605,0.4552992284297943,0.16749665141105652,-0.0014828105922788382,0.27869755029678345,-0.11173545569181442,-0.41721880435943604,-0.11341012269258499,-0.2277710884809494,0.20800012350082397,-0.16837690770626068,0.18014392256736755,0.025011230260133743,0.02898157574236393,0.0946330726146698,-0.2662881910800934,0.13970404863357544,-0.09596633166074753,-0.07725720852613449,0.17953360080718994,-0.016406379640102386,0.037162818014621735,-0.12029606103897095,-0.15073174238204956,-0.02769199013710022,0.03875288739800453,0.1269853413105011,0.00970161147415638,0.013109007850289345,0.01630483753979206,-0.001766809495165944,0.021112540736794472,0.14681115746498108,0.03930220007896423,-0.030741872265934944,-0.07727512717247009,0.09338559955358505,0.05502083897590637,0.013874208554625511,-0.10370180755853653,0.3070930242538452,0.031121958047151566,-0.12492330372333527,-0.02014269307255745,-0.01904895156621933,-0.020807873457670212,-0.09109735488891602,0.16021636128425598,-0.002284222049638629,-0.08833330124616623,-0.1344997137784958,-0.033181194216012955,-0.3096001446247101,0.17808827757835388,0.46276432275772095,0.23808653652668,-0.05145358294248581,-0.40894633531570435,0.18892258405685425,0.12088523060083389,-0.276233434677124,-0.15116159617900848,-0.13737855851650238,0.16183406114578247,-0.4848216474056244,-0.26837706565856934,-0.03652001544833183,0.20022465288639069,0.08811777085065842,0.10220431536436081,0.031953115016222,-0.16077031195163727,-0.045228470116853714,0.12594100832939148,-0.08807837218046188,0.0004050974966958165,0.18952849507331848,0.1385553479194641,0.14340771734714508,-0.15055179595947266,-0.14829255640506744,0.05337339639663696,-0.0711200013756752,-0.035034649074077606,0.009447039104998112,-0.06237832084298134,0.07112845778465271,-0.15854740142822266,0.08539079129695892,-0.0828336775302887,0.26504817605018616,-0.19553014636039734,-0.14217373728752136,0.09929285943508148,-0.19743724167346954,-0.056708741933107376,0.15946131944656372,0.2727252244949341,-0.07379520684480667,-0.14548949897289276,-0.10902941972017288,-0.00954550039023161,0.029535185545682907,-0.2756950259208679,0.35331133008003235,0.041692111641168594,0.24623219668865204,0.19092406332492828,-0.17825131118297577,-0.025724580511450768,-0.15829716622829437,-0.31433263421058655,-0.10538703948259354,-0.2738836109638214,-0.021935736760497093,-0.43284401297569275,-0.18227288126945496,-0.29566335678100586,0.035214439034461975,-0.2383115440607071,-0.0009089914383366704,0.06403686106204987,0.21833468973636627,0.09830949455499649,-0.13596351444721222,-0.1945122629404068,0.15691612660884857,-0.10483057796955109,0.08415178209543228,0.060649462044239044,0.048651617020368576,0.09212097525596619,-0.018380988389253616,0.10935892909765244,0.03437372297048569,0.006321114022284746,-0.09183117747306824,-0.12058837711811066,0.03223380818963051,0.06364399194717407,0.10261444747447968,0.13577216863632202,0.02405540831387043,-0.0005724180373363197,0.012692099437117577,0.07353173941373825,0.07365138083696365,-0.14855220913887024,0.07050000131130219,-0.049201980233192444,-0.022778606042265892,-0.16753028333187103,0.14548899233341217,0.1530139446258545,0.18126827478408813,0.10641991347074509,-0.0170641727745533,-0.35459867119789124,-0.20956659317016602,0.15889990329742432,-0.4054407477378845,0.33013057708740234,-0.04566509649157524,0.013557094149291515,-0.02779150940477848,-0.054842621088027954,0.08748811483383179,0.023188486695289612,0.11303550750017166,-0.23977352678775787,0.10050694644451141,-0.024187719449400902,0.2550039291381836,-0.018864842131733894,-0.045876190066337585,-0.1002473533153534,0.3079550266265869,-0.1385103464126587,-0.07140660285949707,-0.22957924008369446,-0.25164148211479187,-0.24899549782276154,-0.040760304778814316,0.07259262353181839,-0.07209417223930359,-0.020200161263346672,-0.1277427077293396,-0.04624135047197342,-0.16976496577262878,-0.02825828269124031,-0.07087455689907074,-0.09343118220567703,0.03560249134898186,0.11160607635974884,0.05182880163192749,0.2630710303783417,-0.1740577071905136,-0.01076801959425211,0.2018033117055893,0.09485767036676407,-0.010823540389537811,-0.4566512703895569,-0.03964228555560112,0.16681227087974548,0.09703579545021057,0.06571352481842041,0.09779399633407593,0.28909623622894287,0.33642980456352234,-0.2510022222995758,-0.09545430541038513,0.16998183727264404,0.04868657514452934,0.10957533866167068,-0.16945703327655792,-0.1344297230243683,-0.21319428086280823,0.24613772332668304,-0.05565516650676727,-0.03228520601987839,0.038961928337812424,0.038709916174411774,-0.11106617748737335,0.21069170534610748,-0.03993469476699829,0.18530726432800293,-0.21095576882362366,-0.19848071038722992,-0.061402563005685806,0.18874047696590424,0.06386619061231613,-0.297400563955307,0.1805218756198883,-0.10830361396074295,-0.15056854486465454,0.031119264662265778,0.18539603054523468,0.08730698376893997,0.32271164655685425,-0.08483704924583435,0.03276578709483147,-0.2345004677772522,-0.15348242223262787,0.2023562341928482,0.022310905158519745,-0.2455613613128662,-0.2184426337480545,-0.0887656882405281,0.10737977921962738,-0.07671162486076355,0.15567223727703094,0.11458129435777664,0.11144358664751053,-0.049014557152986526,-0.11811931431293488,-0.3710198700428009,-0.03294043615460396,-0.22528932988643646,0.032202016562223434,0.09967324882745743,0.04101710021495819,0.019503038376569748,-0.03662537783384323,0.1415262669324875,-0.03399895131587982,0.09867823868989944,0.1276681274175644,0.15881919860839844,-0.14953847229480743,0.03552976995706558,-0.07031065225601196,0.039823248982429504,0.11157135665416718,-0.10733237117528915,-0.03439570590853691,0.05719246715307236,-0.08191057294607162,0.06034253537654877,-0.14865514636039734,-0.09825596958398819,0.07582158595323563,0.026343153789639473,0.17503920197486877,-0.041970059275627136,0.05332925170660019,-0.16162800788879395,-0.05257323384284973,0.05058640241622925,-0.09812457859516144,0.46868130564689636,0.15977796912193298,-0.01275506429374218,-0.03508203849196434,0.27315592765808105,0.37590378522872925,0.060994602739810944,-0.2404436469078064,-0.16611512005329132,0.045265164226293564,-0.10030733048915863,0.13931675255298615,0.06514879316091537,-0.037617363035678864,0.11961759626865387,0.11243495345115662,0.018376536667346954,0.2309311032295227,-0.04718592390418053,-0.08340120315551758,0.019146978855133057,-0.07150938361883163,0.16544733941555023,-0.003370479214936495,-0.160197451710701,-0.28997206687927246,-0.1433437168598175,-0.029025819152593613,0.03669262304902077,0.131850466132164,0.2517782151699066,-0.2348051518201828,0.029118752107024193,0.1753367930650711,-0.024612778797745705,0.06134410947561264,0.1382826566696167,-0.189997136592865,-0.006815196480602026,0.0970207154750824,-0.1947278529405594,-0.3347657024860382,-0.05079485848546028,-0.1755681335926056,0.15443803369998932,0.1712304949760437,0.18031463027000427,-0.10737881064414978,0.12721171975135803,-0.14077351987361908,0.29526814818382263,0.08300242573022842,-0.12463756650686264,0.07671092450618744,0.062236130237579346,0.009730050340294838,-0.04880534112453461,-0.07221797853708267,0.05624409019947052,0.08732235431671143,-0.14779961109161377,-0.09486830979585648,0.3038240671157837,0.10513745248317719,-0.013394119217991829,0.0042955889366567135,-0.1407097578048706,0.029405277222394943,0.19356057047843933,0.029049810022115707,-0.2752358019351959,-0.10097644478082657,-0.042367689311504364,-0.2712501585483551,-0.1706126481294632,-0.03685538470745087,-0.01664956472814083,-0.08131615072488785,0.007932063192129135,0.11031587421894073,-0.1575312465429306,0.02134663239121437,-0.009268253110349178,0.013926568441092968,-0.014807131141424179,0.006772944238036871,-0.31622377038002014,-0.017731308937072754,-0.01663140021264553,-0.16199123859405518,0.01022481918334961,0.1429969072341919,0.17816999554634094,-0.16199594736099243,0.15270864963531494,0.5659440755844116,-0.624309778213501,0.22107456624507904,0.2069881558418274,0.14404772222042084,-0.33741870522499084,0.14521002769470215,0.5601433515548706,0.1974334716796875,-0.402498334646225,-0.3759736716747284,-0.01391803752630949,0.23371821641921997,0.11146025359630585,-0.03786488622426987,-0.557415783405304,-0.07938980311155319,-0.012425759807229042,0.012774799019098282,0.19067642092704773,-0.04454498738050461,-0.13494598865509033,-0.17880338430404663,0.09782643616199493,-0.17261429131031036,0.4746944308280945,0.13057832419872284,0.07950350642204285,0.042186953127384186,-0.1555240899324417,-0.16846878826618195,0.001429874449968338,0.11310043185949326,-0.16849039494991302,-0.3695198595523834,-0.11886018514633179,-0.040348827838897705,0.16478189826011658,-0.017207173630595207,-0.2017132192850113,0.0033168713562190533,0.0319136343896389,-0.039597369730472565,-0.22445693612098694,0.1031956747174263,0.18877451121807098,-0.12249890714883804,0.1626444160938263,0.018200837075710297,0.04809350520372391,0.08361460268497467,-0.26082485914230347,-0.19606941938400269,0.10184460133314133,0.04442545399069786,0.16016702353954315,-0.017240995541214943,0.08251418173313141,-0.049523577094078064,-0.2570718228816986,-0.05980828404426575,0.06858518719673157,0.08103237301111221,-0.18071837723255157,0.13539767265319824,0.16928118467330933,-0.14672985672950745,-0.16810519993305206,-0.1522621363401413,0.01145113818347454,-0.057166241109371185,0.10654531419277191,0.045740291476249695,0.08828876912593842,0.03402678668498993,-0.0018980976892635226,-0.02820901945233345,0.0202863197773695,0.3210084140300751,0.08061619102954865,-0.23035836219787598,0.027168525382876396,-0.01901080459356308,-0.25577595829963684,0.16412770748138428,-0.011646204628050327,-0.013469865545630455,0.05963399261236191,0.05157751590013504,-0.2438967078924179,0.08717937767505646,0.10109549760818481,-0.14381717145442963,0.04098115488886833,-0.1095542460680008,-0.12363941222429276,0.6174540519714355,1.1873067617416382,0.24722637236118317,0.10553772002458572,-0.3297802209854126,0.1691262125968933,0.24874792993068695,-0.7667226791381836,0.06275336444377899,-0.5168336629867554,0.5674338340759277,0.002744979690760374,-0.3515780568122864,0.09260243922472,0.03908140957355499,-0.8597592115402222,0.18131078779697418,-0.08290161937475204,0.3884891867637634,-0.6041834950447083,0.1613379567861557,-0.3703492283821106,-0.5571218729019165,-0.14342597126960754,0.5952924489974976,-0.43233510851860046,0.28972378373146057,0.06791053712368011,-0.022810442373156548,-0.07841354608535767,0.2766347825527191,-0.22086024284362793,-0.1767124980688095,-0.816535472869873,0.2908547818660736,-0.08274969458580017,0.08378728479146957,-0.023640545085072517,0.21957458555698395,-0.0015422191936522722,0.03408505767583847,0.061051882803440094,-0.34225723147392273,0.5010147094726562,-0.09491348266601562,-0.6255583763122559,0.4051174819469452,0.059849463403224945,-0.48926663398742676,0.12578345835208893,-0.08622677624225616,0.06104174256324768,0.06861457228660583,0.09451217949390411,0.09892650693655014,-0.4619295597076416,0.27813467383384705,0.006988263223320246,0.2627466022968292,-0.18070392310619354,-0.139714315533638,-0.09722965955734253,-0.046807847917079926,0.21008862555027008,-0.06702002882957458,-0.185512974858284,-0.014650563709437847,-0.13475479185581207,0.004069946240633726,-0.11179292947053909,0.0067414818331599236,-0.05678191035985947,-0.006864581722766161,-0.14864419400691986,0.13547198474407196,0.022246532142162323,0.2222876250743866,-0.00039490420022048056,0.060352783650159836,-0.15251286327838898,0.15540271997451782,0.24010494351387024,0.27552369236946106,-0.29348576068878174,0.13364101946353912,-0.26554104685783386,-0.03442755341529846,-0.04626233130693436,0.16773159801959991,0.05162651464343071,-0.02136143483221531,0.3053165376186371,-0.09210139513015747,-0.14121021330356598,0.2539861500263214,-0.1356690376996994,-0.17301437258720398,0.11762876808643341,-0.34162086248397827,-0.047262661159038544,-0.2765391170978546,0.09363335371017456,-0.0345013290643692,0.16207702457904816,0.028857430443167686,0.23629185557365417,-0.0827232301235199,0.015096185728907585,0.13837961852550507,0.06728566437959671,0.15424028038978577,-0.06536412239074707,0.36022135615348816,-0.4046388268470764,-0.17555227875709534,-0.0831289067864418,0.06262849271297455,0.017371511086821556,-0.021360788494348526,0.07076523452997208,0.010476548224687576,0.047401200979948044,0.0854995995759964,-0.11471156030893326,-0.008436908014118671,0.039222899824380875,-0.0688479095697403,0.26762017607688904,-0.159770667552948,-0.07749179005622864,-0.0886853039264679,-0.246206596493721,0.006959819234907627,-0.01949433423578739,-0.14129000902175903,-0.06722906976938248,0.0612480528652668,-0.24856938421726227,0.13070327043533325,0.0011194607941433787,-0.2076893150806427,-0.010769817978143692,-0.07684942334890366,-0.04709259793162346,-0.1941978484392166,0.0922716036438942,-0.02362782321870327,0.03601537272334099,-0.12985318899154663,0.2232772260904312,0.009219895116984844,0.06637478619813919,0.18326576054096222,-0.03948803246021271,-0.14154461026191711,-0.3961031138896942,-0.028497163206338882,-0.06443534791469574,0.08538366854190826,0.23510967195034027,0.005835971795022488,0.076541468501091,0.07644892483949661,0.068464495241642,-0.09942144900560379,-0.07172465324401855,-0.01951657049357891,0.0020085268188267946,-0.08639466762542725,-0.18972907960414886,0.11732093244791031,0.009123646654188633,0.08560395240783691,-0.001550489105284214,0.0868595540523529,0.09402035176753998,-0.15184170007705688,-0.10297875851392746,0.03119550831615925,-0.41349145770072937,-0.008116953074932098,-0.13174410164356232,0.17969682812690735,-0.11026981472969055,-0.1097564771771431,-0.021408874541521072,-0.2316305786371231,-0.010540204122662544,-0.17547498643398285,0.16665539145469666,0.3098627030849457,0.04415242001414299,-0.2214421033859253,-0.11130396276712418,0.22474583983421326,0.15179242193698883,0.10627249628305435,-0.18525336682796478,-0.06920439004898071,-0.09798707813024521,0.12630429863929749,-0.11499088257551193,0.04339176043868065,0.17424827814102173,-0.0910503938794136,-0.22961881756782532,-0.08922462910413742,-0.0330127477645874,-0.3046969473361969,-0.2586640417575836,-0.03705430403351784,-0.11234015971422195,-0.07020123302936554,0.09124024212360382,-0.07862599194049835,-0.039257265627384186,-0.08287660777568817,-0.1525648832321167,0.18140092492103577,-0.0712629109621048,0.05961579084396362,0.11495520174503326,0.04111063852906227,-0.1584811955690384,0.18354029953479767,0.03643534705042839,0.03687640652060509,-0.06950033456087112,0.09028112888336182,0.08824872225522995,-0.04651279374957085,0.07664665579795837,-0.029843593016266823,0.12300552427768707,-0.17026396095752716,0.023005638271570206,-0.04905368387699127,0.17669716477394104,0.0753721371293068,-0.0844729095697403,0.18761642277240753,0.0949549749493599,-0.07727338373661041,0.19670037925243378,-0.05308449640870094,-0.20999957621097565,0.06471115350723267,-0.07913991063833237,0.013694237917661667,-0.16447921097278595,0.025797909125685692,-0.20205487310886383,0.03782276809215546,0.13771486282348633,0.07150278985500336,0.17457982897758484,0.050163447856903076,0.02912149392068386,-0.16297896206378937,-0.050176288932561874,-0.16820894181728363,0.19410322606563568,0.11648289859294891,-0.08941547572612762,-0.12436660379171371,0.11037394404411316,-0.3048517405986786,0.013293924741446972,0.04165966808795929,-0.1345624476671219,-0.21007280051708221,0.008836076594889164,0.09804192930459976,-0.07297073304653168,0.027481891214847565,0.250916063785553,0.10639172047376633,0.0998920127749443,0.050960224121809006,0.016954947263002396,0.06223980709910393,0.0810009092092514,-0.005034426227211952,0.0084463469684124,-0.012964483350515366,0.10239706188440323,-0.2287973016500473,-0.16714267432689667,0.16742412745952606,0.04680635407567024,0.2201947271823883,0.032028671354055405,0.10671190917491913,0.06117618829011917,-0.13090886175632477,-0.11003633588552475,0.012509549036622047,0.016984503716230392,0.08587034046649933,-0.004136953502893448,0.14066055417060852,-0.03140556439757347,0.2060571014881134,0.04559972137212753,-0.026370881125330925,-0.10437501221895218,-0.16822656989097595,0.08258332312107086,0.16282975673675537,-0.011690166778862476,0.052775222808122635,0.05214381217956543,-0.09792278707027435,-0.040978189557790756,0.038697097450494766,0.003175840014591813,-0.11195356398820877,0.15796910226345062,0.09004431217908859,-0.08687140047550201,0.17347665131092072,0.0011074538342654705,-0.16899614036083221,-0.12502525746822357,-0.07980763912200928,-0.05017923563718796,-0.15945519506931305,-0.18092750012874603,0.0021623505745083094,0.03870708495378494,-0.10782182216644287,0.042678236961364746,0.09523627907037735,0.017648831009864807,0.10382800549268723,0.16517508029937744,0.08643753081560135,0.2282930165529251,0.3861719071865082,-0.3293101191520691,0.08015323430299759,0.11305716633796692,-0.35241982340812683,-0.26561009883880615,0.5435747504234314,0.17492085695266724,0.26305127143859863,-0.21900025010108948,-0.22597013413906097,-0.13270772993564606,-0.010905774310231209,0.3755231201648712,-0.1545049250125885,-0.5052110552787781,-0.012705896981060505,-0.11247345060110092,0.3301031291484833,-0.3620041310787201,-0.026008104905486107,0.1536732167005539,-0.5403775572776794,0.29509711265563965,0.5784326791763306,-0.056328997015953064,0.2712966799736023,0.04454135522246361,-0.054477509111166,-0.29060688614845276,0.2974417805671692,0.7288875579833984,-0.29161402583122253,-0.7750325798988342,-0.46049371361732483,-0.131997212767601,0.17030707001686096,0.2926653027534485,0.22463446855545044,-0.2566673755645752,0.328669011592865,0.12327512353658676,-0.26529186964035034,-0.026520008221268654,0.19002395868301392,0.10164956748485565,-0.10978454351425171,-0.13354326784610748,0.050911907106637955,0.04599348455667496,0.1819964349269867,-0.0629936084151268,-0.13727612793445587,0.04080234467983246,-0.08275971561670303,0.014396242797374725,-0.027407458052039146,0.2737888693809509,0.024325858801603317,0.1196494773030281,-0.033766262233257294,-0.46303659677505493,-0.15323016047477722,0.025932466611266136,0.05201667547225952,0.16858796775341034,0.0611746720969677,-0.08791274577379227,0.09798283129930496,0.02531788870692253,0.07424613833427429,-0.09531258046627045,0.10247790068387985,-0.06595958769321442,0.01626485027372837,0.1081700474023819,-0.22639741003513336,0.08963102102279663,0.06859509646892548,0.013278384692966938,-0.07894852757453918,0.010983356274664402,-0.08652844280004501,0.020163053646683693,0.04237043857574463,-0.1804400235414505,0.05715186893939972,0.1609639674425125,0.15099097788333893,0.18817125260829926,0.11351519823074341,-0.08808877319097519,0.38341307640075684,-0.24561844766139984,-0.016086719930171967,-0.06927867233753204,0.11437074840068817,-0.020655063912272453,0.1352054476737976,0.0790422111749649,-0.010804267600178719,-0.08469204604625702,0.03195953741669655,0.09799159318208694,-0.002893822267651558,-0.020188860595226288,0.03507498651742935,0.02509567327797413,-0.0815788134932518,0.02829253301024437,0.7830309867858887,0.17649100720882416,0.5866649746894836,-0.8431928157806396,-0.5500704050064087,-0.1185852587223053,0.2799173593521118,-0.07797455042600632,0.37865665555000305,0.2893136143684387,-0.9410353899002075,0.5000419616699219,-0.15059415996074677,-0.6732621192932129,-0.07018650323152542,-0.29945915937423706,-0.14248228073120117,-0.19532600045204163,0.2862549424171448,-0.053283821791410446,0.11634951084852219,0.22898820042610168,-0.18759483098983765,-0.23818303644657135,-0.17613323032855988,0.20359830558300018,-0.17020629346370697,-0.18302972614765167,0.10490585118532181,-0.24781949818134308,-0.07052550464868546,-0.13172605633735657,-0.11055061221122742,-0.09973511844873428,0.02051655948162079,-0.1432579606771469,-0.10035832971334457,0.007157664746046066,0.14041514694690704,-0.05516166612505913,-0.12475971132516861,-0.14037156105041504,-0.22488248348236084,-0.027577629312872887,0.07930832356214523,-0.06377291679382324,0.06780557334423065,-0.029772924259305,-0.13300982117652893,0.06864985078573227,-0.09071720391511917,-0.21028393507003784,-0.020720116794109344,-0.24083556234836578,-0.40226179361343384,0.06619107723236084,0.1594751924276352,-0.14965486526489258,-0.24250422418117523,-0.1402864158153534,0.08942750096321106,-0.1512715369462967,0.0692092552781105,0.35277995467185974,-0.033791616559028625,-0.004465129226446152,-0.15676765143871307,0.24956931173801422,0.16942350566387177,0.11476581543684006,0.31509509682655334,0.0964791402220726,-0.1259947419166565,-0.1547778695821762,0.21738651394844055,0.002935092430561781,0.12360842525959015,0.13904161751270294,-0.07365710288286209,-0.3003925383090973,0.28867682814598083,-0.07765765488147736,-0.10838060081005096,0.06725416332483292,-0.008582276292145252,0.010313494130969048,-0.037339597940444946,-0.10918238759040833,0.2715999484062195,0.07758475840091705,0.012904715724289417,0.18605579435825348,-0.1817655861377716,-0.20664924383163452,-0.056587427854537964,-0.2055201232433319,-0.17332732677459717,0.3242549002170563,0.07918519526720047,0.19397763907909393,-0.020462093874812126,-0.046426743268966675,-0.19369414448738098,0.17516028881072998,-0.049845896661281586,0.2867049276828766,0.07383959740400314,0.3135104775428772,-0.34757840633392334,0.16875948011875153,-0.37931016087532043,0.04134247824549675,-0.14638864994049072,-0.19649697840213776,-0.30406278371810913,-0.0730249434709549,-0.11137185245752335,-0.11804819852113724,0.398477166891098,-0.15518701076507568,-0.29167234897613525,0.17204178869724274,-0.019741930067539215,-0.17302200198173523,0.1849345862865448,-0.14320063591003418,-0.1380447894334793,-0.22248423099517822,-0.08629510551691055,0.2995339035987854,-0.23360176384449005,0.13962921500205994,0.22017332911491394,-0.007658157963305712,-0.10967615246772766,0.2511805593967438,0.22076283395290375,-0.014209568500518799,0.04650681093335152,0.056788597255945206,0.08455590903759003,-0.11212118715047836,0.08847641199827194,-0.061386264860630035,-0.2849966883659363,0.05505547299981117,-0.026739642024040222,0.018984679132699966,0.4942896366119385,0.016198590397834778,-0.43434974551200867,-0.04676255211234093,-0.15264208614826202,-0.094660684466362,0.06599671393632889,-0.03598550334572792,0.539336085319519,0.10642573982477188,0.07108037173748016,-0.12964506447315216,-0.053519509732723236,0.24943959712982178,-0.1008034497499466,-0.024123238399624825,-0.18662986159324646,0.14751648902893066,-0.06098197028040886,0.12437707185745239,-0.21689669787883759,-0.21943971514701843,0.012868094258010387,-0.04167279601097107,0.08090302348136902,-0.09365333616733551,0.011231211945414543,-0.15227769315242767,-0.10894482582807541,0.10123157501220703,-0.2412327527999878,-0.12541109323501587,-0.29353854060173035,0.0010148824658244848,0.14077182114124298,-0.11593707650899887,0.06656200438737869,-0.05318780243396759,-0.14936093986034393,-0.061124447733163834,-0.14387722313404083,-0.16129687428474426,0.06404951959848404,0.020913979038596153,0.12051646411418915,-0.020997989922761917,-0.05382095277309418,0.034066710621118546,-0.14406415820121765,-0.1401866227388382,0.16547930240631104,0.06213665381073952,-0.04912693426012993,0.2955884039402008,0.32227417826652527,0.25938695669174194,-0.3377288579940796,0.1980440616607666,-0.19373966753482819,0.019461454823613167,0.09303976595401764,0.14682339131832123,0.13297916948795319,0.19645163416862488,-0.16103799641132355,0.14179271459579468,0.13952650129795074,0.00428867107257247,0.10028184950351715,0.0052253482863307,-0.445282518863678,-0.186519056558609,-0.12207739800214767,0.3686688244342804,0.0067183892242610455,-0.24912245571613312,-0.14454476535320282,0.054685648530721664,0.13352929055690765,0.29670435190200806,0.050056491047143936,-0.2145010530948639,-0.011309514753520489,0.07258892059326172,-0.10599499940872192,0.273119181394577,0.19470052421092987,-0.04786702245473862,-0.19262909889221191,-0.1327509582042694,-0.20073595643043518,0.14940471947193146,0.2675693929195404,-0.07213684916496277,0.20338627696037292,0.08108380436897278,-0.2806486189365387,-0.19099681079387665,0.30256280303001404,0.1320345550775528,0.03544779121875763,0.016114063560962677,-0.24144592881202698,0.04233664274215698,-0.03349056839942932,-0.007696853019297123,0.10624914616346359,0.15106730163097382,-0.08187200129032135,0.15345950424671173,-0.09645175188779831,-0.14822597801685333,-0.11840158700942993,-0.3197591304779053,0.07610725611448288,-0.004987122491002083,-0.18094775080680847,0.1780717670917511,-0.027808886021375656,0.054374732077121735,0.09382292628288269,0.0018946824129670858,-0.11432958394289017,0.055271051824092865,-0.16055519878864288,0.0477457121014595,0.039155904203653336,-0.020821550861001015,0.0316380150616169,-0.0038467799313366413,-0.0022617019712924957,0.04298754408955574,-0.05659664422273636,0.131626158952713,0.0653572827577591,0.0018076575361192226,-0.023409148678183556,-0.10577718168497086,-0.03201993927359581,0.011788586154580116,0.052210599184036255,-0.03391418233513832,-0.20438434183597565,-0.0486774742603302,0.31768032908439636,-0.21651820838451385,0.01258509885519743,-0.07546165585517883,-0.0014989001210778952,-0.034908030182123184,0.03482205420732498,0.055012039840221405,0.09175291657447815,0.23709531128406525,-0.3590123653411865,0.01920437067747116,0.10296783596277237,-0.007491758093237877,0.1277158558368683,-0.009229657240211964,0.2758086621761322,-0.021840525791049004,0.14540305733680725,-0.18293850123882294,0.025473304092884064,-0.20497000217437744,0.04574926570057869,0.04280531778931618,0.010516383685171604,0.14793777465820312,0.08364744484424591,-0.1190604567527771,-0.021568508818745613,0.024846568703651428,-0.13894084095954895,-0.10867845267057419,-0.016445331275463104,0.006096009165048599,0.23612946271896362,-0.06041262298822403,-0.16446153819561005,0.10429738461971283,0.027973178774118423,0.002369532361626625,0.14203496277332306,-0.010182227939367294,0.16217300295829773,-0.2979276478290558,-0.03259841352701187,-0.04215873032808304,0.05134456232190132,-0.01391756720840931,-0.25697121024131775,0.14576628804206848,-0.009916522540152073,0.03825877234339714,-0.14650879800319672,-0.15018942952156067,0.13957622647285461,-0.1200372725725174,-0.06006068363785744,-0.1237502321600914,0.3107621967792511,-0.01839049533009529,-0.06404046714305878,0.16815026104450226,-0.1600884646177292,0.14519572257995605,-0.05779310315847397,-0.2051180601119995,-0.11471929401159286,0.007997664622962475,-0.011797012761235237,0.19402660429477692,0.1441510170698166,0.03165937960147858,0.01358774583786726,0.0005542361177504063,0.15133452415466309,-0.00469062477350235,-0.1518922597169876,-0.13958877325057983,-0.03048582375049591,-0.14535024762153625,-0.0595499649643898,-0.09847331792116165,-0.023848189041018486,0.1332157701253891,0.19464892148971558,-0.019200125709176064,0.32826894521713257,0.04957000911235809,-0.25957152247428894,0.01818997599184513,-0.18506275117397308,0.03075551986694336,0.30830147862434387,-0.47469180822372437,0.03659486398100853,0.1899154931306839,0.253081351518631,0.23749186098575592,0.18818089365959167,-0.13989441096782684,0.09256275743246078,-0.2655911445617676,0.5412003397941589,-0.27081185579299927,-0.41896146535873413,-0.33481448888778687,-0.012749255634844303,0.03335188701748848,0.49358850717544556,-0.046449966728687286,-0.469900906085968,0.5002619028091431,-0.266963928937912,0.30813977122306824,0.16452139616012573,-0.008133715018630028,0.8640901446342468,-0.16065548360347748,-0.1774265617132187,0.7082452774047852,0.5801041722297668,0.06441139429807663,0.18176628649234772,-0.012499969452619553,0.04570644348859787,-0.46325966715812683,0.8046529293060303,0.14179882407188416,0.12965649366378784,-0.06042330712080002,-0.09214141219854355,-0.4296574592590332,0.7861242890357971,0.03553491830825806,-0.568606972694397,0.23549599945545197,0.23018938302993774,-0.4794866740703583,0.4098494350910187,0.11193680763244629,0.3933325707912445,-0.10051251202821732,0.056072693318128586,0.0031921404879540205,0.23085369169712067,-0.23256981372833252,0.005963602568954229,0.22322195768356323,0.026730988174676895,0.21977928280830383,-0.445869117975235,0.016514163464307785,0.07197458297014236,0.3300664722919464,0.057101137936115265,0.1914413869380951,-0.25859159231185913,0.4234897792339325,0.355115681886673,-0.19169464707374573,-0.12950114905834198,-0.3704749345779419,-0.16959388554096222,0.07375667989253998,0.3132210075855255,-0.13297632336616516,-0.19421201944351196,-0.1154574528336525,-0.32226142287254333,-0.3382054567337036,0.11323554813861847,0.11626364290714264,-0.08221722394227982,-0.07819844037294388,-0.1056254580616951,0.10253466665744781,0.01197060663253069,0.03918015956878662,0.07346659898757935,0.23935773968696594,-0.2587616443634033,-0.18377043306827545,-0.3496229946613312,-0.2667642831802368,-0.03112264908850193,0.14701861143112183,0.06751980632543564,0.07315495610237122,0.14791768789291382,0.07680793106555939,-0.03363970294594765,0.09709884226322174,0.015089857392013073,-0.11101492494344711,0.013044697232544422,0.01912909559905529,0.38556617498397827,-0.2707854211330414,0.19550156593322754,0.04583454504609108,-0.09907624870538712,-0.059754423797130585,-0.05204407498240471,0.22763575613498688,-0.0759439766407013,-0.2969822287559509,0.003229290246963501,-0.06477147340774536,-0.059883963316679,0.05490587651729584,0.17070168256759644,-0.012148351408541203,0.03560587391257286,-0.004834182560443878,0.2075621783733368,-0.11044980585575104,0.022275567054748535,0.09183401614427567,-0.2991703152656555,0.09246914088726044,0.19177569448947906,-0.01688016951084137,-0.19701114296913147,-0.11321019381284714,-0.3399950861930847,0.047550514340400696,-0.02175716497004032,-0.09764000028371811,0.12157143652439117,0.049498140811920166,0.11232098191976547,0.05940613895654678,0.3602529764175415,0.12736384570598602,0.04014871269464493,0.185116246342659,-0.06558357924222946,0.050188589841127396,-0.37593674659729004,-0.11200686544179916,-0.0024518147110939026,0.24853451550006866,0.015587041154503822,0.07311499118804932,-0.2285710573196411,0.08122875541448593,0.0782543420791626,0.11375052481889725,-0.1151680275797844,-0.13266755640506744,-0.24596254527568817,-0.1301848441362381,-0.08133146911859512,-0.2394121140241623,0.21291005611419678,0.02796369418501854,0.2328985184431076,-0.07047880440950394,0.0019553254824131727,-0.2196882665157318,-0.08492430299520493,-0.08273915946483612,0.04237094148993492,-0.11682386696338654,0.021782750263810158,0.23271113634109497,0.11681322753429413,-0.0644078180193901,-0.1911088079214096,-0.06657927483320236,0.08723664283752441,0.1334490329027176,0.1778242141008377,0.0998428538441658,-0.04954185709357262,-0.020016375929117203,-0.09558373689651489,-0.083025261759758,0.17595204710960388,0.09926268458366394,-0.2519347071647644,0.18581818044185638,0.08478517830371857,0.01774495281279087,-0.16070722043514252,0.1330389827489853,-0.013130704872310162,-0.07827410846948624,-0.2140783667564392,-0.20817838609218597,-0.2088961899280548,-0.20819328725337982,-0.039715394377708435,0.03525005653500557,0.0571436733007431,0.14465470612049103,0.0384635254740715,0.0648103654384613,-0.0664188414812088,0.049207836389541626,-0.024189477786421776,0.14163699746131897,0.05118176341056824,0.1006963923573494,-0.05686252564191818,-0.09560825675725937,-0.06618920713663101,-0.09215060621500015,-0.24295192956924438,0.046903401613235474,0.2609606087207794,0.10859953612089157,0.018432481214404106,0.1729239821434021,0.014975180849432945,0.04032548516988754,-0.17994366586208344,0.03076825849711895,-0.08608725666999817,0.06980519741773605,0.02314566634595394,-0.04457549378275871,-0.01892523467540741,0.14121441543102264,0.09269168227910995,-0.07875333726406097,0.072518490254879,-0.12659241259098053,-0.09780308604240417,-0.09429596364498138,0.015565567649900913,0.21631191670894623,0.1932719349861145,0.7541009187698364,0.17948982119560242,-0.03794456645846367,-0.187436044216156,0.03217780217528343,0.20623785257339478,-0.5480780601501465,0.08420751243829727,0.0908409133553505,0.49914199113845825,-0.0587257444858551,-0.1985718011856079,0.07486802339553833,0.16571827232837677,0.1330803632736206,0.12778286635875702,-0.4384639859199524,-0.0791388526558876,-0.1535240262746811,0.08306232839822769,0.19054491817951202,-0.37952920794487,-0.3516889214515686,0.11213315278291702,0.08109870553016663,0.18930968642234802,0.13407686352729797,-0.01375410333275795,-0.20253172516822815,-0.007437967229634523,-0.0417875237762928,0.0860988050699234,-0.1325528770685196,-0.25695472955703735,0.08411560952663422,0.16280891001224518,-0.005646051838994026,-0.1138763576745987,-0.04475361481308937,0.09888678789138794,-0.2416844218969345,-0.03201790153980255,-0.0279278215020895,-0.041958730667829514,0.14808465540409088,0.04888175427913666,-0.011700287461280823,0.2946600317955017,-0.09778757393360138,-0.07752158492803574,0.21864381432533264,0.05598820745944977,-0.011648290790617466,-0.043892376124858856,-0.02582651376724243,-0.021024242043495178,-0.2095165103673935,-0.03611943870782852,0.10184291005134583,-0.10483753681182861,-0.14014530181884766,0.10995718836784363,0.047763556241989136,0.0779738575220108,0.029751252382993698,-0.05659593641757965,-0.14282000064849854,0.1422569900751114,-0.02278420515358448,0.06792725622653961,0.0586099773645401,0.23551909625530243,0.0721215158700943,0.27346786856651306,-0.12666401267051697,-0.048711471259593964,0.23837631940841675,-0.21520258486270905,-0.007609738036990166,0.18009650707244873,-0.12160429358482361,-0.03109390288591385,-0.13931329548358917,-0.06223678961396217,0.026438357308506966,-0.19852539896965027,0.0012782783014699817,0.09528603404760361,0.2751029431819916,0.012097773142158985,-0.016999227926135063,-0.0026378403417766094,0.0022786727640777826,-0.06589577347040176,0.27383798360824585,0.018014585599303246,0.07527261227369308,0.02340436913073063,-0.15208403766155243,-0.1876693069934845,0.03836824372410774,0.1384609043598175,0.10689476132392883,-0.033253610134124756,0.19243106245994568,0.029672807082533836,-0.2283511459827423,-0.07940881699323654,-0.0686471238732338,0.02125566452741623,-0.09881631284952164,0.029453827068209648,0.2426735758781433,-0.026736466214060783,-0.025642860680818558,-0.1369083970785141,0.014198043383657932,0.06990977376699448,0.2507438659667969,0.10133516788482666,0.1777338683605194,0.15956424176692963,-0.07007281482219696,-0.06959018111228943,-0.13351429998874664,0.23791566491127014,0.2496061772108078,-0.2587869465351105,0.03647531941533089,0.08435934036970139,-0.19845546782016754,-0.017927300184965134,0.012060311622917652,-0.13408972322940826,0.06386402994394302,0.18158966302871704,-0.1301259845495224,0.13216331601142883,0.011377586983144283,-0.29838407039642334,-0.029610268771648407,-0.03755512833595276,0.06840724498033524,-0.08275476843118668,0.13496725261211395,0.012568128295242786,-0.10375488549470901,-0.11682452261447906,0.11469834297895432,-0.024877116084098816,0.036155667155981064,-0.0720742866396904,0.10201138257980347,0.10676921159029007,-0.13995184004306793,-0.09142688661813736,-0.01789294183254242,0.3121088445186615,0.07769396901130676,0.030799625441432,-0.28582054376602173,-0.03378082439303398,-0.054427143186330795,-0.12245788425207138,0.010047022253274918,-0.16830019652843475,-0.010993937030434608,0.14795556664466858,0.0012004240415990353,-0.0630619078874588,0.035453129559755325,0.1849335879087448,0.053169675171375275,0.16363175213336945,0.13164053857326508,-0.13582944869995117,0.0204447153955698,0.045031044632196426,-0.2817220389842987,-0.016928067430853844,0.09348965436220169,-0.01465331856161356,-0.0301950816065073,0.09555543959140778,-0.20670633018016815,-0.09165486693382263,0.08865873515605927,-0.3946458399295807,-0.06709742546081543,-0.06028137728571892,-0.0011005393462255597,0.2003943771123886,