const Model2 = {"version":"0.5.4","metadata":{"date":{"year":2025,"month":4,"day":17,"hour":16,"minute":27,"second":0},"loudness":10.83100509643555,"gain":0.15011584970992578,"name":"Darkglass Crunch - Vintage Deluxe","modeled_by":"elmeri","gear_type":"amp","gear_make":"tz-make","gear_model":"tz-model","tone_type":"overdrive","input_level_dbu":null,"output_level_dbu":null,"training":{"settings":{"ignore_checks":false},"data":{"latency":{"manual":null,"calibration":{"algorithm_version":1,"delays":[17],"safety_factor":1,"recommended":16,"warnings":{"matches_lookahead":false,"disagreement_too_high":false}}},"checks":{"version":3,"passed":true}},"validation_esr":0.006125053217003044}},"architecture":"WaveNet","config":{"layers":[{"input_size":1,"condition_size":1,"head_size":8,"channels":16,"kernel_size":3,"dilations":[1,2,4,8,16,32,64,128,256,512],"activation":"Tanh","gated":false,"head_bias":false},{"input_size":16,"condition_size":1,"head_size":1,"channels":8,"kernel_size":3,"dilations":[1,2,4,8,16,32,64,128,256,512],"activation":"Tanh","gated":false,"head_bias":true}],"head":null,"head_scale":0.02},"weights":[0.0007032033754512668,0.4130465090274811,-0.45103350281715393,-0.6810182929039001,-0.19742201268672943,0.040211062878370285,-0.004996538162231445,0.7110975384712219,0.0023306196089833975,0.17523351311683655,-0.19944405555725098,0.03663897514343262,-0.8231860399246216,-0.5431831479072571,-0.1739196479320526,-0.013575992546975613,0.08223214745521545,0.09318946301937103,-0.060488831251859665,-0.11967906355857849,-0.008711704052984715,0.05619080364704132,0.03078516758978367,0.170510932803154,0.043137647211551666,0.07558288425207138,0.1979691982269287,-0.06693577766418457,-0.04256005212664604,0.011529139243066311,-0.001603723387233913,0.1008448377251625,-0.12552900612354279,-0.09231270104646683,-0.09861946105957031,-0.13927820324897766,-0.16328957676887512,0.06791145354509354,-0.006955198477953672,0.006322901230305433,0.046449437737464905,-0.09938127547502518,0.03220518305897713,-0.17957022786140442,-0.14890989661216736,-0.12307019531726837,0.12777593731880188,0.14097806811332703,-0.021702317520976067,0.0007147556752897799,0.05132915452122688,0.1367693543434143,0.11733894795179367,0.09064288437366486,0.16380789875984192,-0.026208845898509026,0.09131190925836563,-0.04688144102692604,-0.05521143600344658,-0.028743863105773926,0.11613264679908752,0.04713864624500275,-0.11795255541801453,-0.012342479079961777,0.09586649388074875,0.09215246886014938,-0.26855599880218506,-0.04380737990140915,0.1003350168466568,0.288750022649765,-0.03101818449795246,-0.05677222087979317,-0.09335000067949295,0.20040741562843323,0.11441177129745483,-0.027814479544758797,0.09532447159290314,-0.1293533444404602,-0.1280890256166458,-0.13381904363632202,-0.13371296226978302,0.26079076528549194,0.21658530831336975,-0.15759903192520142,-0.029698612168431282,-0.10415644198656082,-0.014876008033752441,0.09214119613170624,0.05677967146039009,-0.0822945237159729,-0.05100800842046738,0.013074338436126709,0.11671939492225647,0.20093081891536713,-0.08015476912260056,-0.09972652047872543,-0.08648380637168884,0.03591599687933922,-0.09366709738969803,-0.16054746508598328,0.21776333451271057,0.08831653743982315,-0.21858848631381989,0.04363679513335228,-0.1483582705259323,-0.15478281676769257,-0.04693599417805672,-0.11483781784772873,-0.15278276801109314,0.0249016135931015,-0.1407812386751175,0.055661316961050034,-0.03634920343756676,0.13098293542861938,0.07504069060087204,-0.10854597389698029,0.12780264019966125,-0.092280313372612,0.0034161575604230165,-0.12758956849575043,0.1450408548116684,-0.006895393133163452,-0.24122744798660278,0.16471140086650848,-0.14323344826698303,-0.22762320935726166,0.06510461866855621,-0.09399913251399994,0.06986456364393234,-0.2493373453617096,-0.06459184736013412,-0.019821159541606903,-0.017554523423314095,0.0022947415709495544,0.28045350313186646,-0.11681947112083435,0.021741755306720734,0.0453866645693779,0.13657709956169128,0.09205622971057892,0.2773571312427521,-0.0182405486702919,0.14917239546775818,-0.16834892332553864,-0.00941017922013998,-0.10802166163921356,0.09521178901195526,0.059831712394952774,-0.08639001101255417,-0.28613051772117615,-0.037810735404491425,-0.1364847719669342,-0.19646619260311127,0.17602498829364777,0.07600358128547668,-0.2784331440925598,0.19259338080883026,-0.13247981667518616,0.00010991807357640937,-0.016330672428011894,-0.01917940378189087,-0.0034610109869390726,-0.2113420069217682,-0.1308179646730423,-0.008948197588324547,0.10347630828619003,-0.058458853513002396,0.046097710728645325,-0.23750559985637665,-0.0005172132514417171,0.1178380697965622,-0.1655254364013672,0.12907636165618896,0.033714815974235535,-0.23864418268203735,0.0923243835568428,-0.0020297691226005554,0.0466911755502224,0.11504951119422913,-0.1182367205619812,-0.06072316691279411,-0.03691475838422775,0.10814715176820755,0.15020592510700226,0.09636014699935913,0.02714262716472149,-0.15568137168884277,-0.03033357858657837,-0.10169526189565659,0.1932266503572464,0.11219260841608047,0.09017778187990189,-0.2219850867986679,0.004219678230583668,-0.14041249454021454,-0.2336270660161972,-0.07534866780042648,0.043525952845811844,-0.19344185292720795,0.0050461143255233765,-0.0031662355177104473,-0.013310369104146957,-0.11276958882808685,-0.11416369676589966,-0.1941094696521759,0.18636345863342285,-0.015158537775278091,0.13444921374320984,-0.04338489845395088,0.10220163315534592,-0.08025327324867249,-0.030782481655478477,-0.0745268315076828,-0.02967759780585766,0.006778004579246044,0.11022920161485672,-0.1076720729470253,-0.07047449797391891,0.21419915556907654,-0.11634653061628342,-0.013142557814717293,0.21907801926136017,0.0456991009414196,0.025318771600723267,-0.1934209167957306,0.10346321016550064,0.024504706263542175,0.04712164029479027,0.06684516370296478,-0.021713536232709885,-0.10164546221494675,0.12481901049613953,0.002628421178087592,0.09161943942308426,0.07002491503953934,-0.08296211808919907,-0.008514675311744213,-0.08958450704813004,-0.07790602743625641,0.1305622011423111,0.024521751329302788,0.0945359468460083,-0.027053551748394966,-0.031016282737255096,0.07881345599889755,-0.037332408130168915,0.10324796289205551,-0.11510990560054779,0.09700114279985428,-0.02495752088725567,-0.08173396438360214,0.09265347570180893,0.10946574062108994,-0.005029295105487108,-0.11838749051094055,-0.039845917373895645,-0.07567333430051804,-0.018016597256064415,-0.012025874108076096,-0.13348713517189026,0.06888871639966965,0.15360218286514282,0.10798557847738266,-0.03999754786491394,-0.020870689302682877,-0.012082706205546856,-0.20096759498119354,-0.030842171981930733,0.16191351413726807,-0.09295392036437988,-0.12815266847610474,-0.13501262664794922,-0.026216324418783188,0.05584515631198883,-0.09600882977247238,-0.09190013259649277,0.21490277349948883,-0.1348358690738678,0.1495545655488968,0.10860192030668259,0.07197163254022598,-0.10705935209989548,-0.08637361228466034,0.06432832777500153,0.15518994629383087,0.17549018561840057,0.011827869340777397,-0.10496459156274796,-0.07439078390598297,-0.015745744109153748,-0.19492986798286438,0.006340154446661472,0.08233807981014252,-0.16765354573726654,-0.10466782748699188,-0.05265504866838455,-0.05621898174285889,-0.1795138567686081,0.10468677431344986,-0.17716461420059204,-0.12623253464698792,-0.0006569839315488935,-0.05371947959065437,-0.03768879175186157,0.06569819897413254,-0.09582149237394333,-0.01661268249154091,0.1587742120027542,0.24860969185829163,-0.12681175768375397,-0.2186686396598816,-0.2116631716489792,0.14810669422149658,-0.15294376015663147,-0.14385128021240234,0.20322735607624054,-0.16249337792396545,-0.16919945180416107,0.16945144534111023,0.06436537206172943,0.1570081263780594,-0.12185989320278168,-0.12176389992237091,0.00849060993641615,0.13598735630512238,0.2243955135345459,0.2892979383468628,-0.09326151758432388,0.06748945266008377,-0.039045240730047226,0.053532760590314865,-0.041402947157621384,0.31186217069625854,-0.028543369844555855,-0.17016054689884186,-0.1283433884382248,0.23959341645240784,0.07965045422315598,0.10758721083402634,0.18561707437038422,-0.13226205110549927,-0.25375789403915405,0.2263651043176651,-0.01786823756992817,-0.28135254979133606,0.23664413392543793,-0.013867425732314587,-0.0884569063782692,0.021110747009515762,-0.05410918965935707,-0.06104446202516556,0.16451647877693176,-0.04329748824238777,0.038934219628572464,-0.011949621140956879,0.21791067719459534,0.09000260382890701,0.10203879326581955,-0.26000410318374634,-0.10589289665222168,-0.13252387940883636,-0.30355775356292725,-0.2632010877132416,0.07877291738986969,-0.06534012407064438,0.016532642766833305,0.09623108804225922,-0.02214619889855385,0.0003437464765738696,-0.035028185695409775,-0.08756008744239807,0.07655583322048187,-0.019483989104628563,0.08423654735088348,0.013861932791769505,-0.0524711050093174,0.014991194009780884,0.11196687072515488,0.09323984384536743,0.2519652545452118,0.24495753645896912,-0.019154420122504234,-0.06436033546924591,-0.00559496833011508,0.042833346873521805,0.04551450163125992,0.007171325851231813,0.058843694627285004,-0.21025784313678741,-0.0827600359916687,-0.017741989344358444,-0.19355124235153198,-0.224568709731102,-0.11476971954107285,-0.249338760972023,-0.01814713142812252,0.08472943305969238,-0.12260260432958603,-0.03654799610376358,0.06135924905538559,0.08951963484287262,0.03094879910349846,-0.10041303187608719,0.2324589043855667,0.16079816222190857,-0.18385730683803558,0.035253796726465225,0.006196644622832537,0.01917796954512596,-0.022373253479599953,-0.19204121828079224,0.05250724405050278,0.03415060415863991,-0.0779387429356575,-0.02032184787094593,0.010695516131818295,0.027616994455456734,-0.13613729178905487,-0.05843334645032883,0.04471676051616669,0.03360648453235626,0.008409961126744747,0.1239883229136467,-0.012241354212164879,0.012913014739751816,-0.12572802603244781,0.11236268281936646,-0.021575070917606354,0.021474216133356094,-0.03754677623510361,-0.17709127068519592,-0.04786582663655281,0.2255924940109253,-0.07278478145599365,-0.11454864591360092,0.012817704118788242,-0.07077332586050034,-0.2248225063085556,0.14781512320041656,-0.23302946984767914,-0.24534890055656433,-0.06488446891307831,-0.11286356300115585,0.014510187320411205,-0.050235383212566376,0.07738566398620605,0.0397358313202858,0.08320365846157074,-0.012391317635774612,-0.1690627485513687,0.17034898698329926,0.027330124750733376,0.1960413157939911,0.017788277938961983,-0.05020156130194664,0.0716114491224289,0.05059944465756416,0.11924059689044952,-0.16991226375102997,0.008762188255786896,-0.09501960873603821,-0.09970860183238983,0.0833408460021019,-0.1618780642747879,0.08653077483177185,0.007765875197947025,-0.004303085617721081,-0.13290739059448242,0.0860600620508194,-0.10098572820425034,0.1213383823633194,0.08949113637208939,0.07100477814674377,0.00781007157638669,0.10660357028245926,-0.1926838457584381,-0.08684846758842468,0.010109578259289265,-0.01709139160811901,0.02075454778969288,-0.03957301378250122,-0.08618596196174622,-0.12880118191242218,0.15497854351997375,0.037308670580387115,0.05369766429066658,0.13994650542736053,0.13024349510669708,-0.047379881143569946,0.006599961780011654,0.016738446429371834,-0.019123069941997528,0.12113171070814133,-0.08618831634521484,0.1514817774295807,0.10901078581809998,-0.09380441904067993,-0.09570770710706711,-0.006297928746789694,0.1723354458808899,0.013826023787260056,0.1164136752486229,0.028508756309747696,-0.05463670939207077,0.09163010120391846,-0.12265940755605698,-0.1057291030883789,0.03524337336421013,-0.07265406101942062,-0.07586666941642761,-0.05560445040464401,0.08778323978185654,0.06580417603254318,-0.07119517773389816,0.07194218039512634,-0.008024082519114017,0.0749267190694809,0.05188059061765671,0.23908554017543793,0.005737865809351206,0.00039197737351059914,0.02242564596235752,-0.04115167260169983,-0.07648448646068573,0.03598367050290108,-0.06300103664398193,0.11882451921701431,-0.171958789229393,-0.006588885094970465,-0.13502062857151031,0.10482122004032135,0.09435724467039108,-0.1530739665031433,-0.2722683846950531,-0.13249489665031433,-0.04347122088074684,-0.1843843013048172,-0.11593808233737946,-0.0794980525970459,-0.0901578813791275,-0.08821506798267365,-0.004389315377920866,-0.0285889133810997,-0.044638216495513916,0.06699132919311523,0.18065065145492554,-0.08642125129699707,-0.04563719034194946,-0.06391923874616623,0.17004705965518951,-0.0869164913892746,-0.12724190950393677,0.1138245016336441,-0.038653042167425156,0.038304153829813004,-0.04640587046742439,0.021413881331682205,-0.017961034551262856,0.06788630038499832,-0.04325680062174797,-0.15666569769382477,-0.06953929364681244,-0.0028955708257853985,0.15812276303768158,-0.08149859309196472,0.08442557603120804,-0.04241013154387474,0.007969015277922153,0.16789737343788147,0.10183939337730408,0.12368098646402359,0.02836214005947113,-0.06025594100356102,-0.07128901034593582,0.042683400213718414,0.13554070889949799,-0.0764225423336029,-0.08166925609111786,0.06927194446325302,0.11677740514278412,0.010537928901612759,-0.11000441014766693,-0.1647733747959137,0.08778626471757889,-0.0005466354195959866,-0.10427750647068024,0.07981500774621964,0.06786052137613297,0.09416001290082932,0.06367050856351852,-0.08299674093723297,-0.13084663450717926,-0.11879980564117432,0.1504267007112503,0.06471308320760727,0.018888169899582863,-0.12553557753562927,0.10045188665390015,0.18102969229221344,0.12427064776420593,-0.09691675752401352,-0.005621049553155899,-0.09836238622665405,0.1699318289756775,-0.025643091648817062,-0.0662778988480568,0.10238537937402725,-0.09000896662473679,-0.0673038512468338,-0.04601534083485603,-0.008951866067945957,-0.12368849664926529,0.08693348616361618,-0.11204581707715988,0.051531825214624405,0.09221824258565903,0.09069719165563583,0.012066120281815529,0.1595001369714737,-0.022460879758000374,-0.06862518191337585,0.09876423329114914,0.07389429211616516,-0.14160895347595215,-0.0056320009753108025,-0.09045615047216415,0.12558571994304657,0.02149917185306549,-0.08198167383670807,-0.008994575589895248,0.12325026094913483,0.08496980369091034,0.04499081149697304,0.04601720720529556,0.09066764265298843,-0.03889374062418938,-0.032637547701597214,-0.0960194543004036,-0.058609116822481155,0.10906685143709183,-0.08800829201936722,0.013877316378057003,0.0336502268910408,-0.01300867274403572,-0.2251214236021042,0.25580886006355286,-0.05534493550658226,0.25415685772895813,-0.23434893786907196,-0.008639341220259666,0.22020426392555237,-0.17896060645580292,0.13515326380729675,0.01341757457703352,-0.251134991645813,-0.053892482072114944,-0.06974532455205917,0.28110963106155396,0.02557729370892048,0.06760936975479126,0.0023481487296521664,-0.052559446543455124,-0.04237290844321251,0.01427999697625637,0.03625775873661041,0.15591856837272644,-0.15132689476013184,0.10386951267719269,-0.15854766964912415,0.24868036806583405,-0.13948582112789154,0.11097794771194458,-0.17246794700622559,0.0780109316110611,0.09346182644367218,0.01595478504896164,0.004130482207983732,0.1410432755947113,-0.021979762241244316,-0.013838855549693108,0.2648436427116394,-0.21575847268104553,-0.005926215555518866,0.10569705069065094,-0.06931024044752121,0.08482684195041656,-0.1175450012087822,-0.1451650708913803,0.059194181114435196,0.0517558827996254,0.001815794501453638,-0.0751807689666748,0.20373506844043732,0.06592283397912979,-0.005754087120294571,-0.24750900268554688,0.17034460604190826,-0.12389314919710159,-0.08608891069889069,0.09034135937690735,-0.07413554936647415,-0.04365779832005501,-0.0485246367752552,0.017529070377349854,-0.011719542555510998,-0.11839388310909271,-0.03943343833088875,-0.0002611967211123556,0.016113750636577606,0.10444241762161255,0.10688579082489014,-0.1424577236175537,-0.14801621437072754,-0.14139622449874878,0.23557539284229279,-0.03348861262202263,0.10194498300552368,-0.04494112357497215,0.10445711016654968,0.012773433700203896,0.2096484750509262,-0.05569712445139885,0.013906328938901424,0.07160208374261856,-0.0984734520316124,-0.08970518410205841,0.20559579133987427,-0.1312229484319687,-0.0290102306753397,-0.004144274163991213,-0.03060787357389927,0.02123202197253704,0.05270804837346077,0.01927901618182659,-0.0824485570192337,0.15959426760673523,-0.00160546216648072,-0.17964191734790802,0.09923011809587479,-0.18081997334957123,-0.04549020901322365,-0.006678922567516565,0.1926582306623459,-0.10551952570676804,0.0744098573923111,0.205455020070076,0.02916523441672325,-0.06399651616811752,0.05195355787873268,-0.1133907362818718,-0.1092362254858017,-0.0463130921125412,0.16898833215236664,0.11576101183891296,-0.02828284725546837,0.08617942780256271,-0.18576674163341522,0.031351372599601746,0.002960649784654379,-0.11026286333799362,0.04242638498544693,0.036907993257045746,-0.14177915453910828,0.06358908861875534,0.12081365287303925,-0.10513073951005936,0.030614009127020836,0.06397343426942825,-0.11040308326482773,-0.023774441331624985,-0.01708395779132843,-0.1177777349948883,0.15986578166484833,0.01085056271404028,0.10085789859294891,-0.012003837153315544,0.07747897505760193,-0.07527134567499161,0.20759230852127075,-0.20466482639312744,-0.1267288476228714,0.18793213367462158,0.00991005264222622,0.07773137837648392,-0.14495278894901276,0.0027390499599277973,-0.06965064257383347,-0.032760415226221085,-0.01179460622370243,-0.1442204713821411,-0.20149514079093933,-0.06122352555394173,-0.12699931859970093,0.06623676419258118,-0.0394568108022213,0.030430316925048828,-0.00025628891307860613,0.056115277111530304,-0.017089130356907845,0.02842605672776699,0.36988571286201477,-0.2720404267311096,0.7064074277877808,-0.5962463617324829,-0.0024698006454855204,0.979211151599884,0.8928121328353882,-0.5370020270347595,0.10824442654848099,0.07241236418485641,-0.43817728757858276,-0.30761346220970154,0.2375287413597107,-0.5798099637031555,0.10145564377307892,0.41861358284950256,0.055057670921087265,0.2163977175951004,0.028693078085780144,0.2793235778808594,0.3204076588153839,-0.27250829339027405,0.2876679301261902,0.03227315843105316,-0.0516434982419014,-0.13123191893100739,0.0761566087603569,-0.061692118644714355,0.0213109590113163,0.06733974814414978,0.04770159348845482,0.11697690188884735,-0.1733171045780182,-0.007606903091073036,-0.2848157584667206,-0.11661568284034729,-0.1593821793794632,-0.15318451821804047,-0.23546743392944336,0.03308108448982239,0.06487854570150375,0.17364078760147095,-0.10013984888792038,-0.09456612169742584,0.06141916289925575,-0.17769579589366913,0.23366376757621765,0.07825731486082077,0.1536463499069214,0.02164379507303238,0.08804785460233688,0.04334457218647003,-0.03769303858280182,0.19202470779418945,0.18175168335437775,-0.35329025983810425,0.023018740117549896,-0.2096603959798813,-0.006170111708343029,-0.2198997586965561,0.09433074295520782,0.17224417626857758,-0.035030167549848557,0.02751835249364376,0.2135930210351944,-0.09112630784511566,-0.018508803099393845,-0.15872369706630707,-0.01640927977859974,0.10545983910560608,0.04320704936981201,-0.10207714885473251,-0.25472933053970337,0.02376561239361763,-0.05922861769795418,0.04818131402134895,0.04427742213010788,0.2615047097206116,-0.2712993919849396,0.05049774423241615,-0.19673025608062744,-0.1734190732240677,-0.20354369282722473,-0.08899784088134766,0.27412497997283936,0.10953407734632492,0.22876451909542084,-0.17787906527519226,0.059671416878700256,0.42249423265457153,-0.2622494399547577,0.23239882290363312,-0.05931863561272621,0.1574903279542923,-0.2200346142053604,0.0734814926981926,-0.21888932585716248,-0.004355417098850012,0.09481263160705566,0.04158246889710426,0.2029699683189392,0.20154216885566711,0.2369486540555954,0.16706715524196625,0.1843748539686203,-0.03196873143315315,-0.17171861231327057,-0.13675400614738464,0.016055695712566376,-0.16151022911071777,0.15376542508602142,0.03919009864330292,0.25398263335227966,0.24399980902671814,0.25846514105796814,0.22775839269161224,-0.13238731026649475,-0.15176016092300415,0.10393361747264862,-0.19608084857463837,0.08246855437755585,-0.27107518911361694,-0.3168768286705017,-0.06907016038894653,0.1351151168346405,-0.21044142544269562,-0.04417544975876808,0.10356838256120682,0.18980370461940765,0.08796928822994232,0.2895384132862091,-0.18376488983631134,-0.23547481000423431,0.1723102629184723,0.2748250365257263,0.20217151939868927,0.1943521499633789,-0.18380267918109894,0.24176959693431854,-0.1908545047044754,0.04270206019282341,-0.20619818568229675,-0.01977439597249031,0.02559814602136612,-0.06595540046691895,-0.010616541840136051,-0.28309252858161926,-0.2887982130050659,0.08987408131361008,-0.07665499299764633,-0.21884964406490326,-0.13470816612243652,-0.21677930653095245,-0.23015838861465454,0.09003407508134842,-0.15433917939662933,0.031589411199092865,-0.10166937112808228,0.07985971122980118,-0.016887588426470757,-0.16005289554595947,0.07085635513067245,0.13812169432640076,-0.09213220328092575,-0.19735682010650635,-0.12433009594678879,0.10404444485902786,-0.2008061408996582,-0.052456293255090714,0.20840959250926971,0.15893219411373138,0.23217687010765076,0.052605610340833664,0.2965432107448578,-0.19686545431613922,0.10649003833532333,0.129023015499115,0.14762882888317108,-0.29527580738067627,-0.030088629573583603,-0.07581204175949097,-0.24023613333702087,-0.0021417567040771246,-0.18886373937129974,-0.0007656071102246642,-0.22701990604400635,-0.26295599341392517,-0.2929399013519287,0.027491053566336632,0.19210781157016754,0.005479798652231693,0.04292614012956619,-0.06398237496614456,-0.2717285752296448,0.19317719340324402,-0.10172111541032791,0.07265207171440125,-0.043482597917318344,0.031246693804860115,0.09469664841890335,0.013819897547364235,-0.21667972207069397,0.013699859380722046,-0.073316790163517,-0.035630080848932266,0.12561529874801636,-0.1663215607404709,-0.21066921949386597,0.1702527552843094,-0.024304140359163284,0.17315399646759033,0.12955676019191742,0.3159579336643219,0.09436026215553284,0.16125032305717468,0.1352100521326065,0.15849213302135468,-0.15568074584007263,-0.07974071800708771,-0.033385246992111206,0.06925112754106522,-0.06235392764210701,-0.2942063808441162,0.023205768316984177,0.1669464111328125,-0.1318461149930954,-0.08309438824653625,0.19190733134746552,0.05547027662396431,0.4084659516811371,0.27145901322364807,-0.11380191892385483,-0.07160601019859314,-0.07583849877119064,0.004341809079051018,0.009358543902635574,-0.12725402414798737,0.05586341395974159,-0.3496536612510681,0.058375220745801926,-0.058203134685754776,0.39423230290412903,0.018634630367159843,-0.16779343783855438,-0.03606386482715607,0.07328448444604874,0.23662568628787994,0.004474826157093048,-0.24339772760868073,0.15017205476760864,-0.09777116775512695,-0.16483888030052185,0.17247861623764038,0.13073016703128815,-0.19749288260936737,0.14020951092243195,0.10096041858196259,0.061128269881010056,0.1213856041431427,-0.24671414494514465,-0.02368967793881893,0.10881310701370239,0.013793385587632656,0.13412979245185852,-0.13419944047927856,-0.2187248319387436,-0.15910527110099792,-0.1390777975320816,0.03728678077459335,0.23640882968902588,0.02551947347819805,-0.22915486991405487,0.01512831449508667,-0.08149798214435577,0.1382264941930771,-0.14753521978855133,0.029828302562236786,0.05538390949368477,0.07056169956922531,0.06068699434399605,-0.02506953477859497,-0.09650098532438278,0.012432360090315342,-0.015398446470499039,-0.022574763745069504,0.026786742731928825,0.04922505468130112,0.053180065006017685,-0.14841672778129578,-0.07256440818309784,0.3048400580883026,-0.32597121596336365,-0.41446709632873535,-0.0888630822300911,0.08089049160480499,-0.01060538087040186,0.130129873752594,-0.10938911885023117,-0.04459426552057266,0.03779063746333122,-0.002119662007316947,-0.08346064388751984,-0.08267904072999954,0.14188754558563232,0.05190955474972725,-0.020852316170930862,-0.013037679716944695,0.08780660480260849,-0.01707063987851143,0.02213192917406559,0.12367292493581772,-0.21311302483081818,-0.06214574724435806,-0.03908466175198555,-0.0458182655274868,-0.06277158111333847,0.232172891497612,-0.10929004848003387,-0.0719088688492775,-0.08293505012989044,0.1624346375465393,-0.12254651635885239,0.038559745997190475,0.3272262215614319,0.010348915122449398,-0.09692177921533585,0.13183537125587463,0.41064512729644775,0.40268006920814514,-0.01164815854281187,-0.04648401588201523,0.11150259524583817,0.1481209546327591,0.11529113352298737,0.08408425748348236,-0.1868176907300949,-0.2857092618942261,0.2393368035554886,0.05679115653038025,-0.23565804958343506,-0.4418201744556427,0.3791196048259735,0.12371375411748886,0.09670352190732956,0.0853913202881813,-0.1363106071949005,0.04482303559780121,-0.2397269904613495,0.15640000998973846,-0.0922030583024025,-0.022982299327850342,-0.23939912021160126,-0.021759863942861557,0.07034124433994293,0.032048776745796204,0.03782404586672783,-0.12141797691583633,0.048284534364938736,-0.1497393548488617,0.05012623220682144,-0.032322756946086884,-0.07145906239748001,-0.10954921692609787,0.13104911148548126,-0.01899287849664688,-0.22379045188426971,0.16092155873775482,-0.05529754236340523,-0.05704724043607712,-0.4605633318424225,-0.22848476469516754,-0.28442978858947754,-0.03823230043053627,0.37756451964378357,0.039893876761198044,0.19648611545562744,0.13477261364459991,0.01935916766524315,-0.014383475296199322,0.15268398821353912,-0.11450419574975967,-0.18387053906917572,0.14361464977264404,0.09640568494796753,-0.23441895842552185,-0.03407564386725426,0.1244448870420456,-0.011235088109970093,0.00016887785750441253,-0.02569316141307354,0.06575769931077957,0.017572809010744095,0.13547849655151367,0.11020449548959732,-0.08463345468044281,0.044613201171159744,0.15196621417999268,-0.06903533637523651,0.15574385225772858,0.01961192488670349,0.24934203922748566,-0.028062444180250168,0.15759804844856262,-0.1299087107181549,-0.364333838224411,0.022801581770181656,0.09327566623687744,-0.018589382991194725,-0.040927015244960785,-0.2289731800556183,0.14240862429141998,0.00004998092117602937,0.04840206727385521,-0.3003859221935272,-0.19077152013778687,-0.3459228575229645,0.2273482084274292,0.02197502925992012,-0.11385049670934677,0.24161264300346375,0.060882359743118286,0.017178332433104515,0.1471690982580185,0.22068457305431366,-0.09148060530424118,0.03347872570157051,-0.0036770517472177744,0.07066941261291504,0.21432903409004211,0.028467455878853798,0.15520700812339783,0.2560688853263855,-0.13518448173999786,-0.31497901678085327,-0.12375042587518692,0.07347806543111801,0.07757023721933365,0.049260832369327545,0.18710662424564362,-0.12313447892665863,-0.274286150932312,0.11116117984056473,-0.045937586575746536,-0.2564627528190613,-0.053056683391332626,-0.07552822679281235,0.06200899928808212,-0.19150424003601074,0.0740530863404274,0.12167173624038696,0.25908762216567993,0.14672206342220306,-0.11642441153526306,-0.26687145233154297,0.06362627446651459,0.21109801530838013,0.11867877840995789,-0.19467036426067352,-0.025482842698693275,0.21690046787261963,-0.02150854468345642,0.12888215482234955,0.17279447615146637,-0.1490020602941513,-0.16521774232387543,-0.37280574440956116,-0.10341060161590576,0.21519072353839874,-0.023028038442134857,-0.18970268964767456,-0.4328453838825226,-0.16541284322738647,-0.24836628139019012,-0.538787305355072,0.058362919837236404,-0.03762083500623703,0.11746170371770859,-0.1750440150499344,0.053445905447006226,0.32526272535324097,-0.1355963945388794,-0.07023824006319046,0.010132254101336002,0.023201940581202507,0.09692496806383133,0.10088570415973663,0.041691891849040985,0.022294791415333748,0.027511654421687126,-0.04746006429195404,-0.006110992282629013,0.17571911215782166,-0.006420519202947617,-0.08475970476865768,-0.09637841582298279,-0.12912485003471375,0.24772128462791443,-0.1434459090232849,0.12462561577558517,-0.06810583174228668,-0.2198227494955063,-0.0007917178445495665,0.28797978162765503,0.03697672113776207,0.11919646710157394,-0.08674060553312302,0.029124457389116287,-0.026203425601124763,-0.1045193299651146,-0.11760365962982178,0.13974404335021973,-0.23907090723514557,0.0522775799036026,-0.07252673804759979,-0.09677314013242722,0.19653154909610748,-0.09755255281925201,-0.1835939884185791,0.2559657394886017,0.07298838347196579,-0.011137057095766068,0.001419950625859201,0.09187044203281403,-0.15443342924118042,0.01313006691634655,0.026877887547016144,-0.03516928479075432,0.037976570427417755,-0.1515558362007141,0.0816127359867096,0.00653815409168601,-0.187031552195549,0.10041692107915878,0.00027024169685319066,-0.15931837260723114,-0.0690009593963623,-0.11186027526855469,-0.07160493731498718,0.13044901192188263,-0.01262060459703207,-0.045811522752046585,0.07685773074626923,0.018857033923268318,0.13514180481433868,-0.19750063121318817,0.0548056922852993,0.2905008792877197,0.015074176713824272,0.1618330180644989,0.14769628643989563,-0.21469753980636597,0.23504497110843658,0.06717127561569214,0.21001872420310974,-0.13109669089317322,0.19876527786254883,0.03873944655060768,0.1427512764930725,0.052994292229413986,0.1864265650510788,-0.014829764142632484,0.015748266130685806,0.08578524738550186,0.11030740290880203,-0.07574369758367538,0.0030062890145927668,-0.18655556440353394,0.22315122187137604,-0.04779206961393356,0.1735999882221222,-0.193960502743721,0.06903985142707825,-0.327268123626709,0.14631853997707367,0.20768746733665466,0.1414857655763626,-0.11188268661499023,0.2531813979148865,0.04674527049064636,0.2091781049966812,0.2662123739719391,0.3527775704860687,0.03346041962504387,-0.14344801008701324,0.055420491844415665,0.14636674523353577,-0.06462416797876358,0.008418685756623745,-0.11261452734470367,-0.009307716973125935,-0.14048802852630615,0.13650648295879364,0.21398460865020752,0.028423484414815903,0.17002427577972412,-0.023313822224736214,-0.03566179424524307,0.005918256007134914,0.2169385403394699,-0.06962229311466217,0.05566111579537392,-0.17808203399181366,0.0003879583382513374,0.15728315711021423,0.09118364751338959,-0.12448380887508392,0.09173189103603363,-0.20035387575626373,0.1526656597852707,-0.09736889600753784,0.03867141529917717,-0.0009472636738792062,-0.0037802057340741158,0.1288645714521408,0.17788495123386383,0.01990193873643875,-0.1742008477449417,-0.22775761783123016,-0.044118866324424744,-0.016558688133955002,-0.07959558069705963,0.07190495729446411,0.03497517853975296,0.10981661826372147,-0.0825904980301857,0.19841668009757996,0.03319826349616051,-0.11106383800506592,-0.16551189124584198,-0.14988893270492554,-0.01781890168786049,0.0238280538469553,0.1257336139678955,-0.03682076930999756,-0.11075374484062195,-0.0454566515982151,0.05959443747997284,-0.15785889327526093,-0.14146548509597778,0.20082898437976837,0.01109290774911642,-0.0893927812576294,0.005468772258609533,-0.18325427174568176,0.13775372505187988,0.0976334884762764,0.02560257725417614,-0.014132319949567318,0.013809881173074245,-0.16443504393100739,0.2353512942790985,0.18183526396751404,0.07787766307592392,0.07457898557186127,0.03585559129714966,-0.2014254927635193,0.05848860740661621,0.01624223403632641,0.01564326137304306,-0.05472468212246895,-0.08414976298809052,0.04554993286728859,-0.12129278481006622,0.13564814627170563,-0.019441885873675346,0.0633697360754013,0.14407649636268616,0.052517056465148926,0.14351032674312592,0.061551205813884735,0.0005526432651095092,0.15899303555488586,0.183844655752182,0.1108444333076477,-0.08132448047399521,-0.30351951718330383,-0.34366896748542786,-0.4370063245296478,0.15693700313568115,0.09822261333465576,0.3867607116699219,0.16802150011062622,0.04669888690114021,-0.03180138021707535,0.02415131777524948,0.03435758501291275,-0.02753004990518093,-0.1523626297712326,0.03350607305765152,0.056097615510225296,0.04556027054786682,-0.03197172284126282,0.10226379334926605,-0.21197836101055145,-0.13196086883544922,0.08086535334587097,0.00312134250998497,-0.11322905868291855,-0.005534069612622261,-0.021102413535118103,0.057791296392679214,-0.08906365185976028,0.12720084190368652,0.013085347600281239,-0.21503093838691711,0.19313882291316986,0.12529313564300537,0.23430797457695007,0.056403305381536484,0.07907522469758987,0.19420304894447327,0.022389989346265793,0.10465940833091736,-0.03453598916530609,0.06852590292692184,-0.08966485410928726,0.2982093393802643,0.026992546394467354,0.037904538214206696,-0.1787482649087906,0.1905972957611084,0.049969203770160675,-0.1255006343126297,0.25013941526412964,0.2266007959842682,0.48675137758255005,-0.05189879238605499,-0.10761165618896484,-0.31311118602752686,-0.053235750645399094,0.038475435227155685,-0.08602267503738403,-0.08012782037258148,-0.08920612186193466,-0.03986814618110657,-0.2662820816040039,0.10388118028640747,-0.007899005897343159,0.1582159698009491,-0.048373643308877945,0.04971868544816971,-0.14607380330562592,0.1783105432987213,0.20078736543655396,0.06974053382873535,0.05782449617981911,0.1501489132642746,-0.03200705721974373,-0.027253756299614906,0.08441031724214554,0.04038018733263016,-0.2480829358100891,0.18103793263435364,-0.24757379293441772,-0.16621392965316772,-0.10089969635009766,-0.1932007372379303,-0.1295245885848999,-0.36255261301994324,-0.15576213598251343,-0.08078251034021378,-0.058016326278448105,-0.11451640725135803,-0.21091453731060028,-0.05070729926228523,-0.08825314044952393,-0.01963799074292183,0.0835457444190979,-0.12053981423377991,0.2002643197774887,-0.061306457966566086,0.06386105716228485,0.06611175835132599,0.03480107709765434,-0.02677680179476738,-0.006217965856194496,-0.21796101331710815,-0.18824242055416107,-0.09193314611911774,-0.05740814283490181,-0.07461323589086533,-0.058150794357061386,-0.25190386176109314,0.08962161093950272,0.05065489560365677,-0.06843363493680954,-0.000039418620872311294,0.16116753220558167,0.28131040930747986,0.0886596292257309,0.10506294667720795,0.11133672297000885,-0.00793056096881628,-0.024436723440885544,0.30036506056785583,-0.05770011618733406,-0.10122306644916534,-0.009471419267356396,-0.012380106374621391,-0.06031116098165512,0.055424485355615616,-0.22888334095478058,0.15445028245449066,-0.09737218916416168,-0.09284999221563339,0.0961437076330185,-0.09289370477199554,0.15847335755825043,-0.12618042528629303,0.0471237488090992,0.07357994467020035,0.0826224759221077,-0.15025179088115692,0.007105464115738869,-0.3371029794216156,-0.05255220830440521,-0.00871287938207388,-0.2316599041223526,-0.05505027249455452,-0.2437351495027542,-0.30620667338371277,-0.11639414727687836,0.1684245616197586,0.16155962646007538,0.08325522392988205,0.23686306178569794,0.0020276422146707773,-0.03694511950016022,0.2052782028913498,0.004420990124344826,-0.18267975747585297,-0.120934396982193,0.25130629539489746,0.08568044751882553,-0.048618875443935394,0.24743659794330597,0.09863090515136719,0.017250044271349907,0.2971595227718353,0.15289360284805298,0.25313058495521545,-0.23339158296585083,-0.12640176713466644,-0.17289970815181732,0.23105613887310028,0.0086187943816185,0.039677947759628296,-0.09963587671518326,-0.1064533218741417,-0.15976205468177795,-0.1255277395248413,0.23435766994953156,0.09080088883638382,-0.15030018985271454,0.0715554729104042,0.5225047469139099,0.3810855448246002,-0.06822618842124939,0.35301098227500916,0.09910662472248077,-0.06728167831897736,-0.05630393698811531,0.10326071828603745,0.2373342216014862,-0.022455032914876938,-0.006473244167864323,-0.16435183584690094,0.1752384603023529,0.12895843386650085,-0.08647571504116058,0.118301160633564,0.11235379427671432,-0.06927210837602615,0.007454863283783197,0.004585342016071081,-0.097157783806324,0.13568313419818878,-0.023897569626569748,-0.027969399467110634,-0.15914835035800934,-0.18670326471328735,0.1969725787639618,-0.19985808432102203,-0.12787467241287231,0.02558061294257641,-0.2128930538892746,-0.14593712985515594,0.09363456815481186,-0.034312669187784195,0.10268459469079971,0.030951453372836113,-0.20750792324543,0.04991845414042473,-0.113806813955307,0.21458446979522705,0.2096666544675827,-0.04913417249917984,0.016438812017440796,-0.2126518338918686,-0.11595375090837479,0.07733801752328873,-0.1438915878534317,0.0098929638043046,-0.15735983848571777,-0.06253283470869064,-0.25183284282684326,0.1040436252951622,-0.06280829012393951,0.025343773886561394,-0.012454546988010406,-0.05240723118185997,-0.07311845570802689,-0.08725815266370773,0.27004826068878174,0.12171464413404465,0.16683770716190338,0.1265658736228943,0.3405342102050781,-0.03965170681476593,-0.24661114811897278,-0.12368779629468918,-0.13674552738666534,0.011204869486391544,0.08575037866830826,-0.02832387201488018,-0.03194607421755791,0.10102637857198715,0.019967027008533478,0.02589508146047592,-0.24392838776111603,-0.04604482650756836,0.040581099689006805,0.08197785913944244,0.29742884635925293,0.03788774833083153,-0.07144424319267273,-0.04356316849589348,-0.07178068906068802,0.28331178426742554,0.1382184773683548,-0.13934040069580078,0.17022711038589478,-0.146663099527359,-0.013526607304811478,0.14296841621398926,0.01572050340473652,0.27377814054489136,-0.08366555720567703,-0.2912440299987793,0.1566864252090454,-0.16363266110420227,0.20318898558616638,-0.1178499087691307,-0.0014594593085348606,-0.19338181614875793,-0.14984039962291718,-0.32867297530174255,0.0994882732629776,-0.09274328500032425,0.1980101764202118,-0.11826235055923462,-0.09173480421304703,-0.1487119048833847,-0.18883958458900452,0.5969176888465881,-0.041392046958208084,-0.07378659397363663,-0.06074628233909607,0.05761716142296791,-0.043267086148262024,-0.14582061767578125,-0.012485134415328503,0.18890908360481262,0.018947437405586243,0.1490624099969864,0.14312739670276642,-0.06301099061965942,-0.10857903957366943,0.18258894979953766,0.2809947729110718,0.11640223115682602,0.0073914662934839725,0.09328886866569519,-0.19885720312595367,0.04567675665020943,-0.10956919938325882,-0.07345663011074066,-0.011407004669308662,0.02924097515642643,0.0875769779086113,-0.01593327336013317,0.05336420238018036,0.08999317139387131,0.13635192811489105,-0.302310585975647,-0.1391540765762329,0.11225096136331558,-0.21681368350982666,0.13336776196956635,-0.0953340083360672,-0.21552538871765137,-0.07320021837949753,-0.04604187607765198,-0.09188579767942429,-0.16922742128372192,0.1398179531097412,-0.11659489572048187,0.022211628034710884,-0.13419905304908752,0.11685455590486526,-0.2863014042377472,-0.0521877147257328,-0.13672569394111633,-0.03049519471824169,-0.06729070097208023,0.051679838448762894,-0.08676570653915405,-0.008821282535791397,0.07999743521213531,-0.23681187629699707,-0.00363193079829216,0.046915896236896515,0.02669874206185341,-0.046581342816352844,-0.186056450009346,0.10199904441833496,-0.03295211121439934,0.15889950096607208,0.025284769013524055,0.0767984688282013,-0.2473345398902893,0.020056551322340965,-0.14521248638629913,-0.04694780334830284,-0.1282445341348648,-0.19321280717849731,0.13545431196689606,0.32979950308799744,-0.018990615382790565,0.12863007187843323,-0.20709121227264404,-0.012910033576190472,0.06992971152067184,-0.10540899634361267,-0.1672661304473877,-0.025091463699936867,-0.2826117277145386,0.2291507124900818,0.2226225733757019,0.1833532452583313,-0.07957828789949417,-0.07280628383159637,-0.1430315226316452,0.3312302827835083,0.13917577266693115,0.3047071397304535,0.1267341822385788,0.22895757853984833,0.02375900000333786,0.13428455591201782,-0.11237587034702301,0.08124913275241852,0.09915317595005035,0.14272534847259521,-0.049255527555942535,-0.0875001773238182,0.06628444045782089,0.05428144335746765,0.2526450455188751,0.0017663155449554324,0.10071828961372375,0.04180564731359482,-0.3757462799549103,0.20453637838363647,0.18253368139266968,-0.29327839612960815,0.04588690772652626,-0.5802302360534668,-0.24149012565612793,-0.1992277354001999,0.555140495300293,-0.5534061789512634,-0.38440173864364624,-0.7701621651649475,0.12469004094600677,-0.4886358380317688,0.15878714621067047,-0.40568068623542786,-0.2870419919490814,-0.08249682188034058,0.05286023020744324,0.3784162402153015,0.08918900787830353,-0.05311091989278793,-0.1942947804927826,-0.13382934033870697,-0.036585014313459396,0.1540243774652481,0.09287620335817337,0.12189573794603348,0.27628499269485474,-0.10866226255893707,-0.19854174554347992,0.10077887028455734,0.13055258989334106,0.14426469802856445,-0.056568801403045654,-0.12839806079864502,-0.3373010456562042,0.2034292221069336,-0.03397732600569725,-0.12800432741641998,0.484806090593338,-0.5082246661186218,-0.16361741721630096,0.1757667511701584,0.05494730547070503,-0.3818708658218384,0.15770602226257324,0.15855754911899567,0.13351735472679138,-0.08792515844106674,-0.03811836987733841,-0.14954254031181335,-0.000899177452083677,0.169815793633461,-0.12656722962856293,0.10021987557411194,-0.03005233407020569,-0.2047625184059143,-0.2747523784637451,-0.35741814970970154,-0.1037052795290947,0.09099842607975006,0.40702521800994873,0.02368176355957985,0.22313742339611053,0.05283093824982643,-0.25063759088516235,0.026485342532396317,-0.22188878059387207,-0.008472748100757599,-0.07853208482265472,-0.06912004202604294,-0.06440097093582153,0.10058107227087021,0.11764544993638992,0.1744832992553711,0.2799716889858246,-0.14169810712337494,-0.020000139251351357,0.034275900572538376,0.45067447423934937,0.3184986412525177,-0.18508842587471008,-0.16991929709911346,0.13978205621242523,0.0077475872822105885,0.11112666875123978,0.20799008011817932,0.39275676012039185,-0.2807295322418213,-0.1911918967962265,0.3583141565322876,-0.09649821370840073,-0.13991430401802063,-0.16341589391231537,-0.14400359988212585,0.18312059342861176,-0.11107422411441803,-0.26846879720687866,-0.06664764136075974,0.0181017704308033,-0.19043433666229248,-0.01707666553556919,-0.09053271263837814,0.17578665912151337,0.2543160915374756,-0.02656782977283001,-0.09582243114709854,-0.1848400980234146,-0.2183082550764084,0.3644810914993286,0.005820074118673801,0.06391187012195587,0.02932153269648552,0.23400728404521942,0.0739518404006958,0.14092962443828583,0.09940330684185028,-0.24349245429039001,-0.21389271318912506,0.05900225415825844,-0.21282954514026642,-0.25587862730026245,0.19817011058330536,0.1316915899515152,0.03666211664676666,-0.22257396578788757,0.24153122305870056,0.16126564145088196,0.02785686030983925,0.09218930453062057,0.04963138699531555,0.1839068979024887,-0.14787156879901886,-0.01990867592394352,0.09101881831884384,-0.022631105035543442,0.04791713133454323,-0.21695365011692047,0.15892872214317322,-0.1875556856393814,-0.00435326062142849,0.12086236476898193,0.04864202067255974,0.08064154535531998,0.1888064295053482,-0.14103417098522186,-0.07813847810029984,-0.1759064793586731,-0.15790826082229614,0.10223342478275299,-0.08772812783718109,-0.047940440475940704,0.1683420091867447,0.26627302169799805,0.03548668697476387,-0.04095006361603737,0.11166838556528091,-0.11056797206401825,0.23614220321178436,-0.06684824824333191,-0.028359340503811836,-0.05628359690308571,-0.005622170865535736,0.08050350099802017,-0.18147413432598114,0.1531824767589569,-0.033639609813690186,-0.07484476268291473,0.27414456009864807,0.1889510303735733,0.2150850147008896,0.19405491650104523,0.13552576303482056,0.10329525917768478,-0.19985109567642212,-0.11956317722797394,-0.053636033087968826,-0.19206880033016205,0.13092759251594543,0.054086826741695404,-0.10419014096260071,-0.06739683449268341,-0.08927248418331146,0.28065502643585205,0.14793387055397034,-0.3296854794025421,0.011984272859990597,0.1760355830192566,-0.09687238186597824,-0.07453557103872299,0.033963803201913834,-0.08639197051525116,0.21465088427066803,-0.15426640212535858,0.17634586989879608,-0.1013474389910698,-0.2029058039188385,0.22304321825504303,0.2942587733268738,-0.31411007046699524,0.4305900037288666,0.3064747154712677,-0.19040577113628387,0.12642580270767212,0.10412083566188812,0.04613709822297096,-0.18194891512393951,-0.08857952058315277,-0.16956715285778046,-0.1811983287334442,0.007289485074579716,-0.012814226560294628,-0.05297255888581276,-0.12736140191555023,0.17754484713077545,-0.10528402775526047,-0.1943962574005127,-0.24060213565826416,-0.16231396794319153,0.23319880664348602,-0.08458602428436279,0.05003221333026886,0.014015705324709415,0.1616247147321701,0.1472674012184143,-0.2451004981994629,0.44169390201568604,-0.28108489513397217,0.06652471423149109,-0.04731415957212448,-0.10169755667448044,0.16175702214241028,0.2911176383495331,0.04007741063833237,-0.17038144171237946,0.4243616461753845,0.18068115413188934,-0.07986725866794586,0.022476354613900185,0.020030325278639793,0.1089172288775444,-0.036252181977033615,-0.2817274332046509,-0.23232680559158325,0.06107909604907036,0.12547899782657623,0.014796147122979164,-0.14892567694187164,-0.10853719711303711,-0.023935357108712196,-0.14276020228862762,-0.30174413323402405,0.27561336755752563,0.2161312997341156,0.23150436580181122,0.12100166827440262,-0.2335330992937088,-0.15097425878047943,-0.11476180702447891,-0.2796790301799774,0.09861848503351212,-0.23431946337223053,0.15126395225524902,0.034762393683195114,-0.08085097372531891,0.31402966380119324,0.021565105766057968,0.101878322660923,0.13483108580112457,-0.12434861809015274,-0.0765824019908905,-0.14602519571781158,0.10626903921365738,0.015497323125600815,-0.04987451061606407,-0.0002271627017762512,0.21284134685993195,0.1467461735010147,0.2566879391670227,0.13964800536632538,-0.02113546058535576,-0.024320974946022034,-0.17148245871067047,-0.004682427737861872,-0.2753945291042328,0.018731357529759407,-0.04930954426527023,-0.0956517904996872,-0.05539405718445778,-0.18591846525669098,0.07279472798109055,-0.1688505858182907,0.0046470314264297485,0.1301862746477127,0.030660677701234818,-0.007806573994457722,0.05956485494971275,-0.14281147718429565,-0.115256167948246,0.14345157146453857,-0.009826458059251308,-0.10883127152919769,0.12146677821874619,0.029995551332831383,0.08132534474134445,-0.030144846066832542,0.0578773058950901,0.24455340206623077,0.01604614220559597,0.11590223759412766,-0.13489197194576263,-0.09905187785625458,0.0588587187230587,0.004952006507664919,-0.017976345494389534,0.0004115317715331912,-0.15099555253982544,-0.03402728959918022,0.003949359059333801,-0.021081190556287766,-0.23369035124778748,-0.010135352611541748,-0.1445518583059311,-0.019167045131325722,-0.0591258704662323,0.0953356996178627,-0.17041371762752533,0.21252620220184326,0.014244250021874905,0.22085335850715637,0.26031336188316345,-0.11201208084821701,0.26771536469459534,-0.0692116990685463,0.018457215279340744,0.0023823308292776346,-0.04892237111926079,-0.33281344175338745,-0.02902151085436344,-0.055575333535671234,-0.16844534873962402,-0.03277068957686424,-0.11236141622066498,0.33427518606185913,-0.09643594920635223,-0.18456880748271942,0.01108045969158411,-0.2013276219367981,-0.02436511032283306,0.09263598173856735,0.07225266098976135,0.13173100352287292,-0.45599365234375,-0.015546324662864208,-0.12933702766895294,-0.24925240874290466,0.02756713330745697,0.047476626932621,-0.27381429076194763,-0.0695125088095665,-0.2064928412437439,0.038645241409540176,0.08516404032707214,0.27221623063087463,-0.12359484285116196,0.0023587748873978853,-0.1772363930940628,0.24638302624225616,-0.06082389876246452,-0.20666950941085815,0.25140225887298584,-0.010171192698180676,0.008459405042231083,-0.0702727884054184,-0.014153067953884602,-0.23080946505069733,-0.10631870478391647,-0.23199522495269775,-0.09581025689840317,0.544918417930603,0.19185855984687805,-0.12274753302335739,0.14979813992977142,0.12337575107812881,-0.005598013289272785,-0.16635212302207947,0.1599045693874359,-0.02148096077144146,-0.28951600193977356,0.032476603984832764,0.06187732145190239,-0.07777896523475647,-0.29686298966407776,-0.1838715672492981,0.003899854142218828,-0.08564411103725433,-0.2645041346549988,0.09903110563755035,0.17892833054065704,0.0891343429684639,0.17084144055843353,0.12576597929000854,0.013491217978298664,0.05505077540874481,0.2185870260000229,0.2727947235107422,0.12572410702705383,0.04046928137540817,-0.04626818746328354,-0.000266019138507545,0.0021124095655977726,0.04756368324160576,0.004707445856183767,-0.4068467319011688,-0.03510212153196335,-0.32887664437294006,0.011842187494039536,0.2616262435913086,0.08539213240146637,-0.06547132134437561,-0.22232399880886078,0.017978200688958168,-0.2659018337726593,-0.24507106840610504,-0.15193648636341095,-0.136915385723114,-0.2847834527492523,-0.10895871371030807,0.15299202501773834,-0.018628038465976715,0.036359358578920364,-0.09047847241163254,-0.05103381723165512,0.010109533555805683,0.04681980237364769,0.22525927424430847,-0.009880066849291325,0.19103918969631195,0.2203938364982605,0.0784415677189827,0.08542891591787338,-0.04037943109869957,-0.1571759283542633,-0.018079744651913643,-0.32034143805503845,-0.31390976905822754,0.09688027948141098,0.00031505193328484893,0.107604019343853,-0.04798262566328049,-0.07061709463596344,-0.388995498418808,0.07308842241764069,-0.02766321785748005,0.10369434207677841,-0.07115331292152405,0.09921850264072418,0.058834146708250046,0.09379333257675171,-0.26221898198127747,-0.33067646622657776,0.10530342161655426,-0.007365393918007612,-0.12738686800003052,0.023938307538628578,0.00401018001139164,-0.2348618060350418,-0.011442558839917183,0.04342726618051529,-0.10144580155611038,0.14256367087364197,0.19044430553913116,-0.029435794800519943,-0.26613348722457886,-0.10195571184158325,0.5420160293579102,0.13485711812973022,0.0478288009762764,0.20862489938735962,0.2619449496269226,-0.06639217585325241,-0.12810640037059784,0.017812641337513924,0.235360249876976,-0.12397471070289612,0.1270628720521927,0.1957317590713501,-0.12491782009601593,0.11546462029218674,0.16698729991912842,-0.14228558540344238,0.19753214716911316,-0.06304333359003067,0.0573463998734951,0.011253542266786098,0.14751309156417847,0.11624468117952347,-0.1341167688369751,-0.03388427942991257,-0.1338040679693222,-0.11214932799339294,-0.14668124914169312,0.17287006974220276,-0.056141193956136703,-0.1506074070930481,-0.07119176536798477,0.08161254227161407,-0.1316893994808197,0.31041577458381653,0.06566354632377625,-0.012434463016688824,-0.20616981387138367,-0.09501166641712189,-0.08650343865156174,-0.01375510636717081,-0.02448035031557083,0.06696029007434845,-0.21371950209140778,0.10903770476579666,0.04178238660097122,0.0032761162146925926,-0.31646761298179626,-0.013927890919148922,0.35806411504745483,0.19607383012771606,0.00729658966884017,-0.18100813031196594,0.08795886486768723,-0.02988365665078163,0.20693372189998627,0.12179487943649292,0.14813512563705444,-0.1260169893503189,0.0799945741891861,0.02219085581600666,-0.22053217887878418,0.053698401898145676,-0.09991316497325897,-0.041636012494564056,0.07152804732322693,-0.4235917031764984,-0.036515384912490845,-0.16307713091373444,-0.033547814935445786,0.2572591304779053,-0.13167507946491241,0.3355746865272522,-0.1233404204249382,-0.16597260534763336,-0.11345256119966507,0.336095929145813,0.15772923827171326,0.0578557513654232,-0.2606632709503174,-0.008046363480389118,-0.11004137247800827,0.27200084924697876,0.1450752466917038,0.0950903594493866,-0.24817080795764923,0.31316128373146057,0.12132172286510468,0.27194127440452576,0.2126682996749878,0.035635240375995636,-0.17599309980869293,0.1285850554704666,0.27580884099006653,-0.10434968769550323,0.17259258031845093,0.09495311975479126,-0.23455044627189636,0.13317307829856873,0.09518831223249435,-0.18311849236488342,-0.17186413705348969,-0.12966325879096985,-0.10317040979862213,0.07321387529373169,0.019732875749468803,-0.013276983983814716,0.11453299969434738,0.006268688477575779,-0.18049634993076324,-0.06591127812862396,0.03459560498595238,-0.01780446618795395,0.01766839437186718,-0.14657500386238098,0.0503876693546772,-0.11776021867990494,0.17595377564430237,-0.06298685073852539,-0.044496625661849976,-0.10884218662977219,-0.07933851331472397,0.1503376066684723,0.18478840589523315,-0.11418075114488602,-0.042594969272613525,-0.10623122751712799,0.20071838796138763,-0.14237739145755768,0.04839553311467171,-0.16461943089962006,-0.10561361163854599,0.0015151114203035831,-0.008770928718149662,-0.05164660885930061,-0.09715136885643005,-0.09285058081150055,-0.2047155648469925,-0.1740417331457138,0.01906229741871357,-0.1561558097600937,-0.10617774724960327,-0.05441310256719589,0.1918027102947235,-0.19599691033363342,-0.00953773781657219,0.14456500113010406,0.015109003521502018,0.04724900424480438,-0.005436060018837452,0.20274873077869415,-0.09228183329105377,0.15248934924602509,0.21372902393341064,0.31229907274246216,-0.02963910438120365,0.10467467457056046,-0.03166890889406204,-0.05959886312484741,-0.05674838647246361,-0.018183954060077667,0.02690880186855793,-0.09070765227079391,-0.34461918473243713,0.08663509786128998,0.10484784096479416,0.11105848103761673,-0.10307592153549194,-0.13891762495040894,0.06649357080459595,-0.06427568197250366,0.034615788608789444,0.11525388062000275,-0.11128467321395874,0.028176063671708107,-0.19108730554580688,0.17967964708805084,-0.13352589309215546,0.03262333199381828,0.19683875143527985,-0.1951494961977005,-0.24885499477386475,0.10689306259155273,0.20697250962257385,-0.0015619482146576047,0.09973563998937607,0.2245253026485443,0.17840799689292908,0.014834732748568058,0.15152089297771454,0.2616346478462219,-0.18773192167282104,-0.12491022050380707,0.03980167582631111,-0.1256970465183258,-0.06375198811292648,0.024782316759228706,-0.1525842845439911,-0.2558732032775879,-0.027078868821263313,-0.04525537043809891,0.010546243749558926,0.032824788242578506,-0.10092145949602127,0.172992542386055,-0.026652710512280464,-0.08993076533079147,0.223512202501297,0.1347770392894745,-0.1494455337524414,-0.3158937692642212,0.05103468522429466,0.07677934318780899,-0.20757707953453064,-0.04468023404479027,0.016869498416781425,-0.027050822973251343,-0.11741767078638077,0.09885130822658539,-0.24392728507518768,-0.027595236897468567,-0.039700400084257126,0.0635092481970787,0.007878201082348824,0.10157126188278198,-0.0008289551478810608,0.19098049402236938,-0.10939426720142365,0.12492328137159348,-0.1765756458044052,-0.04144706577062607,0.3184712529182434,0.07561267167329788,-0.23996759951114655,0.19334585964679718,-0.015357761643826962,-0.18758782744407654,0.1033049002289772,0.14463137090206146,0.04250346124172211,0.4527245759963989,-0.011101692914962769,-0.023177755996584892,0.16420753300189972,-0.0373583622276783,-0.22771021723747253,-0.22455863654613495,-0.3317268192768097,0.027228357270359993,0.054141566157341,0.08358655124902725,-0.19799290597438812,0.009905902668833733,0.06751637905836105,-0.3370344042778015,-0.17692148685455322,-0.2787666320800781,-0.14715714752674103,0.07715187966823578,-0.16453216969966888,0.0863155648112297,0.09724213182926178,0.06539695709943771,-0.11058727651834488,-0.0070344917476177216,0.1726265549659729,0.30195221304893494,-0.021565234288573265,-0.03720579296350479,-0.06629905104637146,-0.1371324062347412,0.15116414427757263,0.08347983658313751,0.07153207063674927,0.01166991051286459,-0.1910773664712906,0.03474471718072891,0.09453776478767395,-0.1286088079214096,0.3724498152732849,-0.07345617562532425,-0.2554921805858612,-0.09229462593793869,-0.13671286404132843,-0.36641499400138855,-0.20302428305149078,0.09173933416604996,-0.09193002432584763,-0.07759644091129303,-0.3010271191596985,-0.058368049561977386,-0.16046395897865295,-0.2724267244338989,0.0068093352019786835,0.06144366040825844,0.006111586466431618,-0.0460008904337883,-0.03776559606194496,-0.04747693985700607,0.027156077325344086,0.004230486694723368,0.04221558943390846,0.05487995967268944,0.009559882804751396,0.17423652112483978,0.14695170521736145,0.044652219861745834,0.22691069543361664,0.02791941910982132,0.059782639145851135,-0.18288923799991608,0.014450396411120892,-0.054951347410678864,-0.2725547254085541,0.10124262422323227,0.21823875606060028,-0.09724351763725281,-0.05491815134882927,-0.04009092226624489,0.06436403840780258,-0.05286632478237152,0.0400618314743042,-0.12062370032072067,-0.005734619684517384,-0.13541287183761597,0.1333058774471283,-0.03482099995017052,-0.04409553110599518,0.09776967763900757,0.04661461338400841,-0.09064995497465134,0.05615038052201271,0.13660790026187897,-0.2218417376279831,-0.18739159405231476,0.09704386442899704,0.043845828622579575,0.12223314493894577,0.020122045651078224,-0.16241493821144104,-0.0002810250734910369,-0.0003855866671074182,0.00462388014420867,0.11982313543558121,-0.1726960837841034,-0.059725191444158554,-0.20814703404903412,-0.06017125025391579,0.06140421703457832,-0.11430399864912033,-0.30419886112213135,-0.029275745153427124,0.06401468813419342,-0.17387770116329193,-0.3466193377971649,-0.20598696172237396,0.10258075594902039,-0.16649429500102997,-0.02336692065000534,-0.19653058052062988,0.1257161647081375,0.02074432000517845,0.25989583134651184,-0.06783672422170639,-0.22536620497703552,-0.4076113998889923,-0.10114239156246185,-0.31248632073402405,0.07749959081411362,-0.25069230794906616,-0.11687663197517395,-0.25009748339653015,-0.04373893886804581,-0.09091057628393173,0.15201495587825775,-0.01663806103169918,0.07165063917636871,-0.12431805580854416,-0.08852126449346542,0.11980912834405899,-0.21549803018569946,0.015451086685061455,0.2542654275894165,-0.06581380218267441,-0.01882017031311989,0.12539170682430267,-0.15765897929668427,-0.044165123254060745,-0.5686280727386475,0.03188702464103699,-0.04860815033316612,0.18197880685329437,-0.11518506705760956,-0.17819902300834656,-0.17463433742523193,-0.19568757712841034,-0.14068423211574554,0.12587779760360718,-0.027628440409898758,0.018769077956676483,0.1339598447084427,0.10468439757823944,0.30670037865638733,0.3358035981655121,-0.05974026396870613,-0.05846050754189491,-0.18767595291137695,-0.1671428233385086,-0.07311563938856125,-0.09688560664653778,0.15857002139091492,-0.0250859335064888,-0.21165280044078827,-0.07600249350070953,-0.2844577133655548,0.20408092439174652,-0.16366170346736908,0.037381600588560104,-0.29798927903175354,-0.11158179491758347,0.006419484503567219,0.2527488172054291,0.08038613200187683,0.09740880131721497,-0.03376607596874237,-0.12995436787605286,0.09190063923597336,0.06822046637535095,-0.03818047419190407,-0.08120947331190109,0.03040560521185398,0.07504314184188843,0.28454479575157166,0.1043105348944664,0.26886817812919617,0.19269438087940216,0.3854062259197235,0.19429367780685425,0.02949516288936138,0.021402578800916672,0.23060765862464905,-0.32139071822166443,0.014170708134770393,0.17517255246639252,-0.16846130788326263,-0.12774276733398438,-0.0226700771600008,-0.15950845181941986,0.15161703526973724,0.012464486993849277,0.36192843317985535,0.07127004861831665,-0.088516965508461,0.029224229976534843,-0.1378622055053711,0.2842734456062317,-0.11567121744155884,0.17106013000011444,-0.006976181175559759,0.22542545199394226,-0.06456389278173447,0.031537946313619614,-0.1525738388299942,0.021691981703042984,-0.07738915085792542,0.2557395100593567,0.04624298959970474,0.11384943872690201,-0.16993026435375214,-0.0038264745380729437,-0.26058775186538696,0.09919214248657227,0.01440373808145523,0.004632452502846718,-0.1219169944524765,-0.030650891363620758,0.34863394498825073,-0.07764160633087158,-0.03988666087388992,-0.12786652147769928,-0.17060962319374084,-0.07453124970197678,0.04156114533543587,-0.28348588943481445,0.09090013802051544,0.34576913714408875,-0.053862206637859344,0.24109330773353577,0.07777868956327438,-0.1128496527671814,-0.10676728188991547,-0.06500156223773956,-0.06471753120422363,-0.03559594973921776,-0.04584726318717003,-0.1842525452375412,0.06335300952196121,-0.11830531060695648,-0.2009446769952774,-0.3007200062274933,0.14235718548297882,0.10836828500032425,-0.23878149688243866,0.014661832712590694,-0.11998125910758972,-0.360332727432251,-0.008059157058596611,0.09195965528488159,-0.06184770166873932,-0.017600657418370247,-0.23172278702259064,0.08506552129983902,0.14394816756248474,0.20201502740383148,0.08979491144418716,0.08770696073770523,-0.11904340982437134,0.17741672694683075,-0.22788719832897186,0.08331608027219772,-0.03411367908120155,0.06333034485578537,-0.15858271718025208,-0.08692564815282822,0.09538684040307999,-0.30036690831184387,0.027239060029387474,-0.45143574476242065,-0.014399629086256027,0.09447118639945984,-0.07339571416378021,0.02261783555150032,-0.12362485378980637,-0.03158770874142647,-0.29347383975982666,-0.05513235181570053,-0.1474902182817459,-0.17226125299930573,0.21874505281448364,-0.23472493886947632,0.14600029587745667,0.2847646474838257,-0.26839783787727356,0.10816539824008942,0.20885783433914185,0.16404256224632263,0.15375277400016785,0.06235109269618988,0.251293420791626,-0.19998294115066528,-0.2264346331357956,0.15123863518238068,-0.3823210597038269,0.19444122910499573,0.1650308221578598,-0.09641049057245255,-0.09328412264585495,-0.11772345006465912,0.1364220380783081,0.16873639822006226,-0.06965868175029755,-0.07969967275857925,-0.07283727824687958,-0.2310543954372406,-0.01954513043165207,0.23714116215705872,-0.5444857478141785,0.15444113314151764,0.06867453455924988,-0.2561081051826477,0.13725212216377258,-0.003772887634113431,-0.3441140949726105,-0.03220744431018829,0.11543609946966171,0.03708542883396149,0.5130466818809509,-0.17432616651058197,-0.1892061084508896,-0.1081070825457573,0.17694590985774994,0.023134922608733177,-0.030249474570155144,0.06368791311979294,-0.09248551726341248,0.011253119446337223,0.10488969832658768,-0.06629037857055664,-0.09619857370853424,0.10099237412214279,0.18672388792037964,-0.0033818099182099104,-0.21854622662067413,-0.27209722995758057,-0.06313423067331314,-0.12871500849723816,0.10917811840772629,-0.22222791612148285,-0.42103856801986694,0.4501174986362457,0.3717166781425476,-0.2955588698387146,0.08327790349721909,-0.0063926903530955315,-0.0713886171579361,0.3447403013706207,-0.36550042033195496,0.6492645144462585,0.2804275155067444,-0.05136499181389809,-0.11600057780742645,0.12085865437984467,-0.6209790110588074,0.08858329057693481,0.03524867817759514,0.012304939329624176,0.1262875199317932,-0.07514774799346924,-0.10097169876098633,0.16721944510936737,0.08296680450439453,0.342288613319397,0.02160799503326416,0.15840016305446625,0.11730296164751053,-0.18239019811153412,-0.2054416537284851,-0.10505610704421997,0.39688190817832947,0.12790420651435852,-0.2815209925174713,-0.019711729139089584,-0.0868275910615921,0.09115692973136902,0.3026956021785736,-0.12373331189155579,-0.45640435814857483,-0.5379006266593933,0.14562414586544037,-0.08266573399305344,0.2602926194667816,0.4586660861968994,0.4538899064064026,0.5788968205451965,-0.14617851376533508,0.23747184872627258,0.37845301628112793,0.10726837068796158,-0.2761205732822418,-0.14187046885490417,-0.4127916991710663,0.2642703354358673,-0.28150779008865356,-0.01382287498563528,0.14889918267726898,-0.16980239748954773,0.09642940759658813,0.22359700500965118,-0.2196824848651886,0.052319835871458054,0.20467650890350342,0.25168174505233765,0.03569543734192848,0.22230525314807892,0.034192997962236404,-0.19329452514648438,-0.01780673675239086,-0.16500017046928406,0.16414940357208252,0.15760469436645508,0.06443367153406143,0.10385533422231674,0.2628134489059448,0.10330882668495178,0.04128875583410263,0.0871899425983429,0.004334411583840847,0.38071566820144653,-0.09271816909313202,0.1566094160079956,0.1325964480638504,0.2566908597946167,-0.13862745463848114,-0.10251863300800323,-0.1200353279709816,0.4164249897003174,-0.15471577644348145,-0.24967142939567566,0.2703726291656494,-0.036506157368421555,-0.1378018707036972,0.0767824575304985,0.13019023835659027,0.018718725070357323,0.07129314541816711,-0.1389440894126892,-0.1704823225736618,-0.20421993732452393,-0.028234943747520447,0.38159483671188354,-0.21436652541160583,-0.21300333738327026,-0.25860595703125,0.011590257287025452,0.21659599244594574,0.1738693118095398,0.23003916442394257,0.37771451473236084,0.03938625380396843,0.06402458995580673,0.08181246370077133,-0.34588587284088135,-0.031781043857336044,0.3191182315349579,-0.0692216083407402,0.10741512477397919,-0.28209421038627625,-0.2276109755039215,0.056586191058158875,0.37035316228866577,0.03649524971842766,0.19556818902492523,0.4087766408920288,0.33437225222587585,0.1421726942062378,0.2700054943561554,-0.1720755249261856,-0.2912202775478363,-0.14049318432807922,-0.014647300355136395,0.021427113562822342,0.046422943472862244,-0.17192086577415466,0.008699242025613785,-0.019924677908420563,0.06646475940942764,0.12286572903394699,0.06420343369245529,0.07040931284427643,0.061682917177677155,-0.1528061032295227,-0.3393608629703522,0.04305366799235344,0.01361618097871542,0.016592450439929962,0.22661325335502625,-0.14384126663208008,-0.16666290163993835,-0.03186175227165222,-0.08575461804866791,0.189946249127388,-0.07776343822479248,0.2503284215927124,-0.1838671714067459,0.06226159259676933,0.06908079236745834,0.059226274490356445,0.27899426221847534,-0.23829422891139984,-0.1754775196313858,0.05092247202992439,-0.08547933399677277,0.2966645061969757,0.03768187016248703,-0.25863322615623474,-0.23169788718223572,0.12825918197631836,0.09660562127828598,-0.1890905201435089,0.013935210183262825,0.14198879897594452,0.1975909322500229,-0.06709103286266327,0.2768293619155884,0.016781197860836983,-0.14103350043296814,-0.17286673188209534,0.08918172121047974,-0.17441174387931824,0.09250479191541672,-0.14603780210018158,0.27432674169540405,-0.001280104974284768,-0.21834123134613037,0.06761925667524338,0.010051926597952843,-0.2296912670135498,0.1465776264667511,0.20234115421772003,0.20856499671936035,0.10493800789117813,-0.1425272822380066,0.08980120718479156,-0.17395897209644318,-0.22295230627059937,0.27962467074394226,0.19086278975009918,0.13227948546409607,-0.1715819388628006,0.018645014613866806,0.34092816710472107,-0.3225579857826233,-0.045530904084444046,0.07707389444112778,0.4356938898563385,-0.3054831027984619,-0.1905556321144104,-0.054791998118162155,-0.11731275171041489,-0.061847247183322906,0.20046226680278778,-0.27629101276397705,-0.2278444617986679,0.08329359441995621,-0.2782307267189026,-0.19461195170879364,-0.10477202385663986,0.031017299741506577,-0.0286452267318964,-0.07644200325012207,-0.19234976172447205,-0.2790219485759735,0.12344607710838318,-0.23037317395210266,0.0020590629428625107,-0.1915251761674881,-0.1502494215965271,0.04612649977207184,-0.2031196802854538,0.12335699796676636,-0.035443052649497986,0.09238055348396301,-0.22233624756336212,0.04989596828818321,-0.0017307399539276958,-0.1908358931541443,0.10116549581289291,0.2944825291633606,0.20704954862594604,-0.1064588651061058,-0.23228345811367035,-0.21615412831306458,-0.11328372359275818,0.14817695319652557,-0.4117223918437958,-0.10995733737945557,0.21596071124076843,0.062271848320961,0.1388503760099411,0.15548130869865417,0.0547720305621624,-0.08538449555635452,-0.5390916466712952,-0.2727730870246887,-0.07850944995880127,-0.06876111030578613,-0.3761255443096161,-0.0030483456794172525,-0.11468388885259628,-0.1677546501159668,-0.24422654509544373,0.11512657254934311,0.26359355449676514,0.05754128098487854,0.35808834433555603,-0.23189891874790192,0.07356774806976318,-0.1779758334159851,0.5367019176483154,-0.06899181753396988,0.1028003841638565,0.12346874177455902,0.10039833188056946,0.040145475417375565,0.3471035659313202,0.2430669069290161,0.056279946118593216,-0.15183795988559723,-0.1549183428287506,0.004375751595944166,0.08806480467319489,0.11009012907743454,0.05149977654218674,0.17886559665203094,0.008399597369134426,-0.06872409582138062,-0.4508107602596283,0.019563747569918633,-0.13465897738933563,0.06703164428472519,0.15133331716060638,-0.04391710087656975,0.11143346130847931,0.1259545087814331,0.0016748419729992747,0.07134989649057388,0.2028261423110962,-0.12621308863162994,-0.17493513226509094,-0.16471222043037415,-0.037681516259908676,0.07888907939195633,-0.10917030274868011,0.00888239685446024,-0.02917523682117462,0.0157887265086174,-0.143570214509964,0.049192581325769424,-0.051799941807985306,0.11331294476985931,-0.03031637705862522,0.18162162601947784,0.08018730580806732,0.23304453492164612,-0.21740993857383728,-0.1001017615199089,-0.054465290158987045,0.23484183847904205,0.06272929161787033,-0.018063446506857872,-0.31304165720939636,-0.07921509444713593,-0.06741848587989807,-0.053582075983285904,0.03003995306789875,-0.09141220897436142,0.08056289702653885,-0.15090712904930115,0.010188507847487926,-0.09590031951665878,-0.2519160509109497,0.2395782768726349,-0.17648544907569885,0.18553526699543,0.3387690782546997,0.0545831173658371,0.23720698058605194,-0.012723245657980442,0.09814952313899994,-0.001470471266657114,-0.03627605736255646,0.15458296239376068,-0.06437112390995026,0.2367904931306839,0.1877356618642807,0.009949279017746449,0.01997332274913788,0.043279826641082764,0.1741115152835846,-0.19350506365299225,0.21144524216651917,0.02978496067225933,0.06702715903520584,0.18984505534172058,0.0039270841516554356,-0.1820743829011917,0.022061049938201904,0.013998791575431824,0.039496880024671555,-0.10965494066476822,-0.09484595060348511,0.04064425453543663,0.01217459887266159,0.03975199535489082,0.35543856024742126,0.010247444733977318,0.07082998007535934,-0.06826189905405045,-0.12934225797653198,-0.1070147454738617,0.13172443211078644,-0.09923964738845825,-0.15404881536960602,0.25084707140922546,-0.23180413246154785,-0.07862507551908493,0.12201832979917526,0.09200673550367355,-0.17385974526405334,0.0039888168685138226,0.06019453704357147,0.11998347193002701,0.47061586380004883,-0.11207272857427597,0.23574844002723694,-0.068755604326725,-0.01353146880865097,-0.04220016300678253,-0.09095238894224167,0.19983674585819244,-0.04316922277212143,0.02214141935110092,-0.16834793984889984,-0.03206682205200195,-0.15261997282505035,-0.09149149060249329,-0.27474698424339294,-0.14389532804489136,0.12504278123378754,-0.02150116115808487,0.0038388902321457863,-0.0882607027888298,-0.04742211475968361,0.042676009237766266,0.07026994228363037,-0.04188358783721924,-0.1011030301451683,0.04161185771226883,0.034909650683403015,-0.17910224199295044,0.14401796460151672,0.051111724227666855,0.06340189278125763,-0.09369762986898422,0.04160761088132858,-0.05175333842635155,-0.05609229579567909,-0.060292378067970276,0.032584335654973984,-0.09331899136304855,0.16480201482772827,0.12245466560125351,-0.15593668818473816,0.1216132864356041,-0.3642607629299164,0.11455625295639038,0.07161711156368256,-0.06222401559352875,0.17485979199409485,-0.12443321943283081,0.15526609122753143,-0.7339097261428833,0.06838209182024002,-0.1381804496049881,0.6419484615325928,-0.13420213758945465,-0.258259117603302,-0.18449117243289948,-0.028908774256706238,-0.06915222108364105,-0.07663504779338837,0.011250428855419159,-0.007852395996451378,-0.1738472580909729,-0.24441589415073395,-0.31884685158729553,0.16435885429382324,0.1934482902288437,-0.10580579191446304,-0.09569621086120605,0.0021870124619454145,0.09071721881628036,0.32428473234176636,0.1277487725019455,-0.31289780139923096,-0.2860865890979767,-0.16947436332702637,0.00870480202138424,0.19751419126987457,0.1426440179347992,0.13135473430156708,-0.23772676289081573,-0.05757014453411102,0.011138135567307472,-0.4126346707344055,0.0638793408870697,0.22506582736968994,-0.28173404932022095,0.1433527022600174,0.14353694021701813,-0.41365644335746765,-0.28224635124206543,-0.11045419424772263,0.4868617355823517,-0.26374495029449463,-0.3059324622154236,-0.5911906957626343,0.2831069529056549,-0.1381104439496994,0.08943502604961395,0.052221111953258514,0.0934370681643486,0.030291100963950157,-0.05307520925998688,0.10388682037591934,0.0065739816054701805,0.03047122247517109,-0.017816882580518723,0.09220949560403824,0.15569452941417694,-0.09063795208930969,0.02442883513867855,-0.4394108057022095,0.14730501174926758,0.08958952873945236,0.030751751735806465,-0.2368984818458557,-0.010777667164802551,-0.20703735947608948,-0.000850875221658498,-0.06688529253005981,-0.14320912957191467,0.13004937767982483,-0.25928622484207153,-0.08931319415569305,-0.04217709228396416,0.2266301065683365,0.21791508793830872,0.01663394831120968,-0.03233432024717331,0.13318566977977753,-0.24944423139095306,-0.08102720975875854,-0.01143326610326767,0.06988813728094101,-0.05431681498885155,0.00788192544132471,-0.05295448750257492,-0.09807530045509338,0.05457723140716553,0.00827340129762888,0.051585372537374496,-0.279046893119812,0.18730591237545013,0.20196053385734558,-0.08565900474786758,0.08026006072759628,0.07325827330350876,0.12399494647979736,-0.037747565656900406,0.01621539145708084,0.032978255301713943,0.18931207060813904,0.17659607529640198,-0.057836100459098816,0.07118268311023712,-0.19177812337875366,0.029095273464918137,-0.39266765117645264,-0.18517279624938965,-0.1352165937423706,-0.43374961614608765,0.023429635912179947,0.05790833756327629,-0.1389731913805008,-0.03676268085837364,-0.04947138950228691,-0.19414152204990387,0.011764726601541042,0.03842313587665558,-0.047841448336839676,-0.14779454469680786,-0.13932918012142181,0.09389688074588776,0.25498971343040466,0.019643431529402733,0.11153025180101395,-0.16288158297538757,-0.09494359791278839,-0.22057212889194489,0.2568081319332123,0.029566587880253792,0.07976947724819183,-0.21291221678256989,0.012725665234029293,0.13214243948459625,-0.2171538919210434,-0.0938173457980156,-0.14578670263290405,-0.05406453087925911,-0.013723369687795639,0.07086070626974106,0.08659632503986359,0.22630514204502106,-0.0715961754322052,-0.023013077676296234,-0.07439558953046799,-0.00878189131617546,-0.19517682492733002,-0.07010900974273682,0.0929897353053093,0.01832127384841442,-0.046665873378515244,-0.2693982422351837,-0.20556387305259705,-0.2475711554288864,-0.1009913831949234,-0.32042965292930603,-0.3215925991535187,0.052802134305238724,-0.0685708299279213,-0.12565162777900696,0.04735599830746651,0.01718427985906601,0.18322068452835083,0.15447668731212616,-0.1083059161901474,0.05471305549144745,0.10388335585594177,0.1326967030763626,-0.023144347593188286,0.13195472955703735,0.11065281927585602,0.03948228061199188,-0.26884225010871887,0.11995724588632584,-0.004938608501106501,-0.18413563072681427,0.03846665471792221,0.30282121896743774,-0.07735178619623184,0.11880522966384888,-0.027137111872434616,-0.13828681409358978,0.022308016195893288,0.02656921185553074,0.23941293358802795,-0.1626364290714264,0.02159532904624939,-0.18847833573818207,-0.16491800546646118,-0.01542545948177576,0.2323732078075409,-0.6516979336738586,0.0057209995575249195,-0.3557315170764923,0.5304385423660278,-0.15974244475364685,-0.24450325965881348,0.19088448584079742,-0.11036239564418793,0.04080232232809067,-0.2647232115268707,-0.273593008518219,0.11156250536441803,-0.3373548090457916,-0.22987385094165802,-0.31292644143104553,0.09342978894710541,0.15711450576782227,-0.3294135630130768,0.2873677611351013,-0.16054919362068176,0.039478953927755356,0.08121982961893082,0.22041267156600952,-0.18219119310379028,-0.061929166316986084,-0.156303271651268,-0.15230976045131683,0.08616698533296585,0.08669273555278778,-0.11003550887107849,-0.2963574528694153,0.18981969356536865,-0.17276878654956818,0.06550785899162292,0.1430894285440445,0.11181988567113876,-0.13395142555236816,0.17295010387897491,-0.0994555801153183,-0.27484264969825745,-0.2217870056629181,-0.33381029963493347,0.3031642735004425,-0.05197596177458763,-0.2049608677625656,-0.17273561656475067,-0.267219603061676,0.06422582268714905,0.25357115268707275,-0.1133829653263092,0.11112143844366074,0.18722690641880035,-0.0453658252954483,0.003365847049281001,-0.06238807365298271,0.003543243743479252,0.11351259052753448,0.10888472944498062,-0.05811924859881401,0.19199863076210022,0.1329568773508072,0.08559129387140274,-0.00779187586158514,-0.14914219081401825,0.06352026015520096,0.1426851898431778,0.05157622694969177,-0.17150160670280457,-0.09911433607339859,0.002552679507061839,-0.04922831058502197,0.05236729234457016,0.2017921656370163,-0.11725173145532608,0.13395735621452332,0.18195603787899017,0.17940838634967804,0.07934454083442688,-0.19866637885570526,0.07071688026189804,-0.06683970242738724,0.09649500250816345,0.3649885952472687,-0.034006498754024506,-0.17573665082454681,0.10681527107954025,0.1072198823094368,-0.14384201169013977,-0.06767188012599945,0.16672562062740326,-0.033506445586681366,-0.01707506738603115,0.02196691371500492,0.2597864866256714,-0.07921392470598221,0.2413180023431778,-0.2396480292081833,-0.06182156130671501,-0.13834896683692932,0.2430538386106491,0.14264105260372162,-0.08749674260616302,0.05762650817632675,0.06405719369649887,-0.02539626881480217,0.20676380395889282,0.0377986766397953,0.26461878418922424,0.08031421899795532,-0.1900753378868103,-0.157531276345253,0.1627328246831894,-0.11624813824892044,-0.227356418967247,0.1509023755788803,-0.047526679933071136,0.10063859820365906,-0.0034483966883271933,-0.037310753017663956,-0.2322034239768982,-0.048365481197834015,-0.09579111635684967,0.10976329445838928,0.17407596111297607,-0.04472365975379944,0.03715614229440689,-0.04100235551595688,-0.10101289302110672,-0.3809317946434021,0.14614808559417725,0.07274092733860016,-0.032734062522649765,-0.09588329493999481,0.08053143322467804,0.11161170899868011,-0.16335712373256683,-0.2798822522163391,-0.04574119672179222,-0.047094207257032394,-0.00475664297118783,-0.3714980185031891,0.2853279113769531,0.21637609601020813,-0.09861067682504654,-0.061049751937389374,-0.22210374474525452,-0.16712024807929993,0.214549720287323,-0.20085018873214722,-0.15324677526950836,-0.08201559633016586,-0.21299640834331512,-0.08798947930335999,-0.3071507215499878,-0.2672305405139923,0.1606234610080719,0.15948396921157837,0.030833136290311813,0.2789156138896942,0.1499631553888321,0.20631097257137299,0.15899233520030975,0.2656136155128479,0.06698300689458847,0.264215886592865,0.07455253601074219,-0.14113496243953705,-0.21383537352085114,0.06931473314762115,0.039679545909166336,0.08223475515842438,0.050155095756053925,0.06941407918930054,-0.15916243195533752,-0.08876427263021469,0.0813000351190567,0.012028627097606659,-0.03023914061486721,0.12980997562408447,-0.14667737483978271,0.1611700803041458,0.07944269478321075,-0.23158584535121918,0.07948748022317886,0.004245919641107321,0.0996147096157074,-0.04570889100432396,0.006365194916725159,0.015431794337928295,0.010628264397382736,-0.27300775051116943,-0.01634548231959343,-0.018785791471600533,-0.10692614316940308,-0.09851204603910446,-0.3223360478878021,0.02007775940001011,-0.05698852986097336,0.11461523920297623,0.017584774643182755,-0.2820987403392792,-0.10342048108577728,0.0709661915898323,-0.05714719370007515,-0.08317989856004715,-0.028172044083476067,-0.06882808357477188,-0.1229766383767128,-0.05996432900428772,-0.003657469991594553,-0.17621120810508728,0.1426246613264084,0.06974707543849945,0.09475623816251755,-0.04304111748933792,-0.042672399431467056,-0.039973754435777664,-0.15027107298374176,0.08125729113817215,0.16184136271476746,0.06884387880563736,-0.320072203874588,0.16534338891506195,0.1405959278345108,0.2454873025417328,0.15541832149028778,0.07237786054611206,0.044806744903326035,0.013268663547933102,0.10284090787172318,-0.236507385969162,0.14817717671394348,-0.03063168004155159,-0.19420990347862244,-0.15592949092388153,0.10370443016290665,-0.1447993367910385,0.04770055040717125,-0.050285592675209045,0.34896886348724365,-0.07110405713319778,0.07475263625383377,-0.4556483030319214,0.082604318857193,0.38576334714889526,0.36241045594215393,-0.028736965730786324,0.00017758867761585861,-0.05291243642568588,-0.3077995479106903,0.01571555994451046,0.05181063339114189,-0.1265692114830017,0.23517584800720215,-0.19660793244838715,-0.08647752553224564,-0.003671282669529319,-0.013075975701212883,-0.28494423627853394,-0.02168479934334755,-0.16191226243972778,0.04845700040459633,0.07902885228395462,0.326221764087677,-0.18286342918872833,-0.27453163266181946,-0.2377295047044754,-0.15242652595043182,0.040949299931526184,0.23854954540729523,-0.18321722745895386,0.01233278214931488,0.4827651083469391,0.24512973427772522,-0.06804567575454712,0.008605404756963253,-0.08832049369812012,0.058456454426050186,0.2015676200389862,-0.0494035929441452,0.13363590836524963,-0.26714134216308594,0.15588286519050598,0.39553406834602356,0.5626847743988037,-0.14436660706996918,-0.1409868746995926,0.08134103566408157,-0.1233074963092804,0.024672171100974083,-0.1844453513622284,-0.16991141438484192,0.05778200551867485,-0.13722704350948334,-0.07064440846443176,0.011779324151575565,-0.11590825766324997,-0.2033870965242386,-0.14047293365001678,-0.05147324874997139,0.02890339307487011,-0.04753616452217102,-0.09961851686239243,0.1776246428489685,-0.34553223848342896,-0.16309139132499695,-0.015006116591393948,-0.16657385230064392,-0.07747320830821991,-0.01911187171936035,-0.016119858250021935,-0.13576272130012512,-0.09055228531360626,-0.03332391753792763,0.009755213744938374,0.1893966645002365,-0.0006627324037253857,-0.320858895778656,0.10707321763038635,0.10777920484542847,0.07947511225938797,-0.21540740132331848,0.016869869083166122,-0.049131665378808975,-0.013397288508713245,0.053463201969861984,-0.22332371771335602,0.15845592319965363,-0.07700259983539581,-0.3821307122707367,0.039907991886138916,-0.02310030348598957,-0.2997143268585205,0.08078400045633316,0.2759260833263397,-0.10289860516786575,0.17123295366764069,-0.26491501927375793,0.12956298887729645,0.09231162816286087,-0.1410856395959854,0.013099613599479198,0.08311385661363602,0.07107400894165039,0.19927024841308594,0.2728210985660553,0.03768572956323624,-0.19071707129478455,0.0029176834505051374,0.01707996055483818,-0.11246959865093231,-0.018501462414860725,-0.07279817759990692,-0.09370945394039154,0.05242033302783966,0.0648735985159874,-0.0738687664270401,-0.03710198029875755,0.11673792451620102,0.20885904133319855,0.09111974388360977,-0.12131751328706741,0.18062135577201843,0.09300888329744339,-0.06884247809648514,-0.04008251801133156,-0.010096047073602676,-0.00374915380962193,-0.15298177301883698,-0.14894910156726837,-0.14220041036605835,0.039478886872529984,-0.05412410572171211,-0.14568917453289032,0.19783686101436615,-0.07035257667303085,0.1417335718870163,0.19475305080413818,-0.07575292885303497,0.05267089977860451,0.15644118189811707,-0.15609829127788544,0.03760034590959549,0.12892138957977295,0.1975894570350647,0.12267863005399704,-0.2799481153488159,0.13505439460277557,-0.13115213811397552,-0.050398848950862885,-0.21198678016662598,0.32483288645744324,0.2814980745315552,0.2781740725040436,0.07716403901576996,0.20923587679862976,0.09621322154998779,0.04017534479498863,-0.23290297389030457,0.04908737912774086,-0.025422383099794388,-0.09148334711790085,0.13062138855457306,-0.017491960898041725,-0.04907049611210823,-0.15973292291164398,-0.21142086386680603,-0.0008632193203084171,0.027097584679722786,-0.08954644948244095,-0.10516038537025452,-0.014207679778337479,-0.0750708356499672,0.046325989067554474,-0.07621199637651443,-0.04526330903172493,0.19416871666908264,-0.19288824498653412,0.0075166961178183556,-0.08581223338842392,0.018827592954039574,0.05551188066601753,-0.10967441648244858,0.02241607755422592,0.018399298191070557,0.08278965950012207,0.2512360215187073,0.12417718768119812,-0.3640269637107849,-0.03325451910495758,0.049285031855106354,0.01937880553305149,0.08138340711593628,-0.1447570025920868,0.03691820055246353,-0.0025425006169825792,0.033631790429353714,-0.053084131330251694,-0.10748455673456192,-0.05592815577983856,0.04240056872367859,0.03005072847008705,0.1665351688861847,-0.004279396031051874,0.04416286572813988,0.03556463122367859,0.2825153172016144,0.20105603337287903,0.2614000141620636,-0.4918592572212219,-0.24309983849525452,0.05772019550204277,0.1513052135705948,0.22515299916267395,0.22531209886074066,0.18780580163002014,-0.3794727325439453,0.1697230488061905,0.10507023334503174,-0.2863420844078064,0.0007831433904357255,0.051479898393154144,0.03329934552311897,0.039577946066856384,0.10178634524345398,-0.14536145329475403,0.2906566262245178,-0.15456637740135193,-0.21576684713363647,-0.12400712072849274,-0.779441773891449,-0.04152294993400574,-0.3301893174648285,-0.20461072027683258,-0.10636831820011139,-0.022373193874955177,0.2842908799648285,-0.47512832283973694,-0.21212640404701233,-0.22299592196941376,0.20825694501399994,-0.5204594135284424,0.04822812229394913,0.18346209824085236,0.1317758709192276,-0.21627676486968994,0.1672193855047226,0.2204490602016449,-0.10625656694173813,0.2706952691078186,-0.16199783980846405,0.06673769652843475,0.03292578086256981,0.3306076228618622,0.08489672839641571,0.030734989792108536,-0.4423755407333374,0.14831577241420746,-0.16479457914829254,-0.5360476970672607,-0.06354083120822906,0.08971384167671204,-0.09210463613271713,-0.223348930478096,-0.4078696370124817,-0.3765427768230438,0.04832988232374191,-0.15918396413326263,0.16092197597026825,0.3548087477684021,0.1019776239991188,0.08181913197040558,0.07126676291227341,0.15154185891151428,0.318200021982193,0.20038412511348724,0.1872037798166275,0.06847478449344635,-0.20755356550216675,-0.02280152589082718,0.04542412608861923,-0.05592350661754608,0.24406640231609344,0.2250886857509613,0.12715625762939453,-0.3395565152168274,0.33141738176345825,0.052471358329057693,-0.12274763733148575,0.022564981132745743,0.0007154919439926744,-0.08419250696897507,0.04045712202787399,0.0433584563434124,0.17340734601020813,0.19299250841140747,0.19574837386608124,-0.22125858068466187,-0.2459753155708313,-0.06218413636088371,0.03616299852728844,-0.12619516253471375,-0.332785040140152,0.1336859166622162,0.1547016203403473,0.2968386709690094,-0.025944922119379044,0.22904038429260254,-0.12035144865512848,0.10768502205610275,0.12959101796150208,0.15613391995429993,-0.3693176805973053,0.1597248613834381,0.12411894649267197,0.030683375895023346,-0.21852663159370422,0.08141785115003586,0.13693101704120636,0.0028724344447255135,-0.07735927402973175,-0.0358911007642746,-0.3464358448982239,0.031798429787158966,0.031289711594581604,0.016272569075226784,-0.054823603481054306,0.216702401638031,0.09589686989784241,0.14036600291728973,-0.12010322511196136,0.2211291790008545,-0.034979116171598434,-0.3008246123790741,0.06337034702301025,0.1631629467010498,-0.34235042333602905,0.07022711634635925,0.16064293682575226,-0.2512172758579254,-0.02073042280972004,0.10049185901880264,0.06974676251411438,0.08474807441234589,0.06448116153478622,0.048962630331516266,-0.13840746879577637,-0.14150917530059814,0.2183813899755478,-0.2334369719028473,-0.22457441687583923,0.3138197660446167,-0.01704791747033596,0.013026218861341476,0.04137727990746498,0.3078724443912506,-0.25738218426704407,0.03221102058887482,-0.10793393105268478,0.12338049709796906,-0.019495267421007156,-0.028772566467523575,0.19758792221546173,0.08515927195549011,-0.03910323232412338,0.19986465573310852,-0.27894312143325806,0.07392238825559616,0.16687944531440735,0.09096283465623856,-0.2558742165565491,-0.06047724187374115,-0.35284408926963806,0.03641076758503914,-0.3157261610031128,-0.14100371301174164,0.06724299490451813,-0.24156837165355682,0.48381274938583374,-0.2576790153980255,0.14951969683170319,0.06460494548082352,-0.2016737163066864,0.1391328126192093,-0.1482236236333847,-0.29240885376930237,-0.13581863045692444,-0.04227198660373688,-0.26101478934288025,-0.1666027307510376,0.07824045419692993,-0.05412479117512703,-0.2334539145231247,-0.03287301957607269,-0.25862863659858704,-0.16134464740753174,0.2097063511610031,-0.020552441477775574,0.22845011949539185,0.22442284226417542,-0.12416702508926392,-0.14889994263648987,-0.2498409003019333,-0.43740084767341614,-0.056109800934791565,-0.07396476715803146,-0.27518367767333984,0.11546192318201065,0.03514175862073898,-0.023846296593546867,-0.18801622092723846,0.13361142575740814,-0.1762155145406723,0.00937694776803255,0.21862830221652985,0.2765645384788513,0.008887103758752346,0.11076220124959946,0.14941450953483582,-0.036118343472480774,-0.21347220242023468,0.10557949542999268,0.06417958438396454,0.056759148836135864,-0.3216043710708618,-0.2061307728290558,-0.02686888352036476,-0.041148487478494644,0.21152915060520172,0.14668916165828705,0.023312851786613464,0.264421284198761,0.06039001792669296,0.11171706765890121,0.1625310331583023,0.07447846978902817,-0.175576850771904,0.16322572529315948,0.029651720076799393,0.23056145012378693,0.20813220739364624,-0.10776963829994202,0.01466808095574379,-0.09337596595287323,-0.1311473846435547,0.1527247130870819,0.4198286831378937,-0.13349924981594086,-0.013168022967875004,0.254578560590744,-0.14371082186698914,-0.26760634779930115,0.17293228209018707,0.14661408960819244,-0.025976750999689102,0.02552049420773983,-0.079018235206604,-0.011568383313715458,0.09440574795007706,-0.02823510207235813,0.19995073974132538,-0.0782952830195427,0.14363214373588562,0.48499423265457153,0.021168498322367668,0.18083612620830536,-0.39039355516433716,-0.13459046185016632,-0.2190728485584259,0.12634451687335968,-0.7127367854118347,0.125555157661438,-0.1681305468082428,-0.027327517047524452,-0.10728878527879715,-0.031731318682432175,0.7118958830833435,0.4376930892467499,-0.10311943292617798,-0.014050780795514584,0.09421471506357193,-0.07157590985298157,0.13164649903774261,0.05515661835670471,0.03297257050871849,0.0576789528131485,-0.07472459971904755,0.060030970722436905,0.11746320128440857,-0.03312518075108528,0.04266881197690964,-0.04099474474787712,-0.005041501019150019,0.01966390572488308,0.15775923430919647,0.1346760094165802,-0.20869745314121246,0.13877680897712708,0.4133266806602478,-0.9039399027824402,-0.046997278928756714,0.1275264173746109,-0.060450393706560135,-0.17529207468032837,-0.3393611013889313,0.24176613986492157,0.14890266954898834,-0.10565312951803207,-0.44771119952201843,0.05178787559270859,0.14418001472949982,0.22365017235279083,-0.1511373072862625,-0.03493562713265419,-0.040314409881830215,0.19040821492671967,0.02886914275586605,-0.11656597256660461,-0.040040381252765656,0.16682478785514832,0.24365490674972534,0.20817682147026062,0.06301343441009521,0.7721362113952637,0.0488775372505188,0.23068872094154358,-0.3005111515522003,-0.03612138703465462,0.0669793039560318,-0.6578958630561829,-0.06740707159042358,0.018504096195101738,0.2508057653903961,-0.2062956690788269,-0.06583095341920853,0.3696962594985962,0.06124722957611084,-0.21471938490867615,0.13965284824371338,0.12412465363740921,0.22932924330234528,-0.28148677945137024,0.032537370920181274,0.0877397432923317,0.11742101609706879,0.015293891541659832,0.07891690731048584,-0.050405263900756836,-0.0630704015493393,-0.18780706822872162,-0.019452473148703575,-0.17028270661830902,-0.06353484839200974,-0.29893508553504944,0.08671082556247711,-0.22992295026779175,-0.33056479692459106,0.11765409260988235,-0.030961371958255768,-0.053527671843767166,-0.1313948929309845,0.17789366841316223,-0.2742254436016083,-0.0986860990524292,-0.014552437700331211,-0.27628472447395325,-0.07177189737558365,0.010361041873693466,0.05158470943570137,0.11179035902023315,0.05992016941308975,0.07244408875703812,-0.032477572560310364,-0.06765207648277283,0.12683366239070892,0.11254064738750458,-0.12953868508338928,-0.20333260297775269,-0.1949787735939026,-0.18267689645290375,0.06362518668174744,-0.05225003510713577,-0.00006972632399993017,0.08057237416505814,0.04374971613287926,0.0317879281938076,-0.041192084550857544,0.06555967777967453,-0.06772071123123169,-0.36139291524887085,-0.22982503473758698,-0.16278350353240967,-0.02172076515853405,-0.10589288175106049,0.14830198884010315,0.15790225565433502,-0.07630494236946106,-0.028350576758384705,-0.016628433018922806,-0.06118110939860344,0.14944134652614594,-0.2356070876121521,-0.020705053582787514,-0.11857815086841583,0.38953208923339844,-0.2172308713197708,0.028488250449299812,-0.009276481345295906,-0.014000033028423786,-0.17898674309253693,-0.1138901636004448,-0.23634062707424164,-0.22218884527683258,-0.0932137593626976,-0.04429509490728378,-0.13664492964744568,-0.15631069242954254,0.07327122986316681,0.06367236375808716,0.13483327627182007,0.11123429238796234,0.19550184905529022,-0.01160441990941763,0.0055944169871509075,0.03896789252758026,-0.02226174809038639,-0.09774782508611679,-0.006338510662317276,-0.13089463114738464,0.1097378358244896,0.03986012563109398,-0.21344463527202606,-0.020528476685285568,-0.029849454760551453,0.21816495060920715,0.049832142889499664,0.14111429452896118,0.3185829222202301,0.192607119679451,-0.15525604784488678,0.1235131025314331,-0.24428080022335052,0.08284038305282593,0.4852275848388672,-0.08672167360782623,0.06504198908805847,-0.0033250204287469387,0.15420562028884888,-0.2255818396806717,0.04887046664953232,-0.17090469598770142,-0.23139116168022156,-0.12199373543262482,-0.2283751666545868,-0.013973669148981571,0.3272143304347992,0.17782680690288544,-0.3657960891723633,-0.08610351383686066,0.04637744650244713,-0.07665342092514038,-0.06426750868558884,0.13827072083950043,-0.013233979232609272,0.07695835828781128,-0.07933370769023895,-0.049237996339797974,0.4118872582912445,0.0437348335981369,0.14646075665950775,-0.003501199884340167,-0.07053855806589127,0.015084612183272839,-0.07240279018878937,0.06038696691393852,0.1403765082359314,-0.048324111849069595,-0.010965812020003796,0.08117467910051346,-0.42007893323898315,-0.05896511673927307,-0.04638507962226868,0.26566267013549805,0.04318787530064583,0.205672025680542,0.31888648867607117,0.13167569041252136,0.14140348136425018,0.2198515087366104,-0.06604015082120895,-0.16743406653404236,-0.2099825143814087,0.23605361580848694,0.21736326813697815,0.2604142725467682,0.0025850427336990833,-0.0335165373980999,-0.04402387887239456,-0.04554266110062599,0.009020437486469746,0.31224769353866577,-0.07562481611967087,-0.16866959631443024,-0.15096601843833923,0.023186182603240013,-0.13843809068202972,-0.2717961370944977,0.042278267443180084,-0.05927349627017975,0.12464915961027145,-0.03025948256254196,0.05269945040345192,0.1468668431043625,0.08108660578727722,0.030174294486641884,0.19528312981128693,0.02250918373465538,0.17153584957122803,-0.15648658573627472,0.01422671414911747,-0.07753054052591324,-0.11557267606258392,-0.02782301977276802,0.16658399999141693,-0.023931259289383888,0.08147484809160233,0.13453224301338196,-0.15098904073238373,-0.09736098349094391,-0.1110716387629509,0.09659985452890396,-0.03829643502831459,0.13798916339874268,0.5433564782142639,0.10576795041561127,0.05773693695664406,-0.2380494475364685,0.06861184537410736,0.03194940835237503,-0.08935797959566116,0.02754981443285942,0.009051666595041752,-0.13035620748996735,0.012865119613707066,-0.21830697357654572,-0.03721491992473602,-0.01100362278521061,-0.1739097684621811,-0.1387009173631668,-0.17296232283115387,-0.008304804563522339,-0.07020049542188644,0.05305010452866554,0.16512136161327362,-0.16564299166202545,0.05674395710229874,-0.02749478816986084,-0.012948106974363327,-0.16205528378486633,-0.09832409024238586,0.032719336450099945,0.09806492924690247,0.09280025213956833,-0.0348670519888401,-0.08275891840457916,0.0031099875923246145,0.03754036873579025,-0.08331064134836197,0.28857579827308655,0.0382932610809803,-0.024265017360448837,-0.13902415335178375,-0.03940597549080849,-0.29123470187187195,-0.09018576145172119,0.18433120846748352,0.0692719966173172,0.15312513709068298,-0.1642536222934723,0.3196224570274353,0.2398795336484909,-0.013357977382838726,-0.21424105763435364,0.01583537831902504,-0.23272082209587097,0.09266003966331482,0.2358091026544571,-0.03764962777495384,0.047571513801813126,-0.055391810834407806,-0.007394838146865368,-0.301858127117157,0.15522432327270508,0.1497991681098938,0.14073194563388824,0.13581199944019318,0.07189282774925232,0.0704137533903122,0.21706117689609528,0.06181579455733299,-0.03741060197353363,0.1360136866569519,0.07839762419462204,-0.08938261866569519,0.03206157684326172,-0.18557335436344147,-0.08553971350193024,-0.31430584192276,0.05001375824213028,0.06600590795278549,0.05073842778801918,-0.2339402586221695,-0.153898686170578,-0.029086807742714882,0.08881273865699768,0.05915264040231705,-0.032000113278627396,-0.049019064754247665,-0.2066987007856369,-0.07071077078580856,0.0944908857345581,-0.03545362874865532,0.029057960957288742,0.16207623481750488,0.03285545855760574,0.07895609736442566,-0.10053688287734985,0.19313763082027435,-0.19696249067783356,-0.21953071653842926,0.10187185555696487,0.052720483392477036,0.24185259640216827,0.03432586044073105,-0.0389886200428009,0.014277939684689045,-0.0975571721792221,-0.04343697801232338,0.14663657546043396,0.23881420493125916,0.066957987844944,-0.029334301128983498,-0.07035882771015167,-0.19444626569747925,-0.06768516451120377,-0.0792975202202797,-0.3425850570201874,0.0561101920902729,0.12203828990459442,-0.029452893882989883,-0.07766261696815491,0.05603231489658356,-0.24624744057655334,0.21019795536994934,-0.011378820054233074,0.061446648091077805,0.05036218464374542,0.06987951695919037,0.041199784725904465,0.03660847246646881,0.04671094939112663,0.048385195434093475,-0.09018594026565552,-0.11172853410243988,-0.07666777819395065,0.18657629191875458,0.11930131167173386,0.10883668810129166,0.0076995776034891605,0.14125122129917145,-0.0007167584262788296,-0.19097784161567688,-0.07012710720300674,-0.18948861956596375,0.021129095926880836,-0.09821317344903946,-0.013588382862508297,0.10556349158287048,-0.11739598214626312,0.05974201858043671,-0.06621955335140228,-0.15800417959690094,-0.006157287396490574,-0.38941943645477295,0.004068345297127962,-0.088516004383564,0.05982372537255287,-0.005251268390566111,-0.35760384798049927,0.09983142465353012,0.4097614288330078,-0.20943136513233185,0.12465804070234299,0.1212884783744812,-0.01179620623588562,0.029442375525832176,0.28243502974510193,-0.38950350880622864,0.031863391399383545,0.16995422542095184,-0.23054371774196625,-0.03941167891025543,-0.15647616982460022,0.02846074476838112,-0.010088798590004444,-0.007697707042098045,-0.02053168974816799,0.21259529888629913,-0.10171550512313843,0.14380773901939392,0.07747828960418701,0.0858662948012352,0.2185940444469452,-0.02386743575334549,0.1418038159608841,-0.0019253231585025787,0.03545214608311653,-0.10488823801279068,-0.1121288612484932,0.3085726797580719,0.03841211274266243,-0.03448167070746422,-0.02462332509458065,-0.07401280105113983,0.1761845052242279,0.26685526967048645,-0.05044020339846611,-0.014489099383354187,0.42509332299232483,-0.2832072079181671,0.03290516883134842,0.04747822880744934,0.027934612706303596,-0.06406401842832565,-0.11530236899852753,0.026132646948099136,-0.031618840992450714,-0.10250205546617508,-0.15471822023391724,-0.1155182495713234,0.07015226781368256,0.030523307621479034,0.09626634418964386,0.09722340852022171,0.015964392572641373,-0.08006526529788971,0.343192458152771,-0.017011966556310654,0.10342824459075928,0.10432304441928864,0.06933733820915222,0.11245153099298477,0.18883199989795685,-0.19716015458106995,-0.15376517176628113,-0.03534407913684845,0.142038956284523,0.06082996726036072,-0.09152168035507202,-0.007380341645330191,-0.05426650866866112,-0.19774910807609558,0.03622112795710564,0.030672870576381683,-0.13344669342041016,0.16473308205604553,0.03039666637778282,-0.08331335335969925,-0.010661782696843147,0.04253922402858734,0.01990143395960331,-0.21142081916332245,0.3120136857032776,0.1217757910490036,-0.1505623161792755,0.0825391411781311,0.15701867640018463,-0.1998196840286255,0.1921597272157669,-0.016422158107161522,-0.04962283372879028,0.11954429745674133,-0.05941670760512352,-0.14720706641674042,-0.10654585808515549,0.015293109230697155,-0.0802747830748558,-0.19765305519104004,0.16883644461631775,-0.02879215218126774,0.17642144858837128,0.07556001842021942,0.07286447286605835,-0.256486713886261,0.01779002510011196,-0.2174418419599533,0.012031853199005127,-0.09891205281019211,0.20316629111766815,-0.2540430724620819,0.037224333733320236,-0.12296146899461746,0.08484216034412384,0.06637369096279144,0.19210128486156464,0.013960332609713078,0.01707986369729042,-0.01227700337767601,-0.011621374636888504,-0.30115649104118347,0.024285048246383667,-0.050399888306856155,-0.08585906028747559,0.17576393485069275,-0.029719790443778038,-0.1293194741010666,-0.0954136922955513,0.08456104248762131,-0.0010342546738684177,